Sno,Weight
0,-0.03372416
1,-0.025768904
2,-0.015644897
3,-0.046491217
4,-0.044297256
5,-0.008836721
6,-0.0029871692
7,-0.007056461
8,0.032108724
9,-0.019851878
10,0.010729145
11,0.007836043
12,-0.02070748
13,-0.014010039
14,-0.012263835
15,-0.00662037
16,-0.0153012555
17,-0.045779407
18,0.014764461
19,-0.00018347183
20,-0.0115737375
21,-0.013990748
22,-0.01806248
23,-0.004197396
24,-0.053548247
25,-0.008956838
26,-0.05982934
27,-0.014628364
28,-0.022129195
29,-0.009390165
30,0.01958107
31,-0.043822873
32,0.014341989
33,0.0131888995
34,0.00443938
35,-0.008053007
36,-0.050353784
37,-0.02277113
38,-0.0070621697
39,-0.024433728
40,-0.010322556
41,0.010653223
42,-0.029817156
43,0.0050852885
44,-0.014104596
45,-0.009447344
46,-0.036624767
47,-0.03220242
48,-0.003866236
49,-0.031256944
50,-0.0005688207
51,0.017230127
52,-0.004136126
53,-0.027484434
54,0.006299598
55,-0.013082259
56,-0.026307438
57,-0.031889375
58,-0.020916222
59,-0.036752786
60,-0.015537834
61,-0.010110802
62,-0.005345333
63,-0.01393725
64,-0.013891952
65,-0.0073104566
66,-0.011588352
67,-0.011165771
68,-0.008099909
69,-0.015058475
70,-0.015084244
71,0.007316718
72,-0.008987531
73,-0.0018728343
74,-0.01676325
75,-0.037042916
76,-0.020712782
77,0.0046865516
78,-0.019845739
79,-0.014415688
80,0.0072896634
81,-0.0042061084
82,0.007957772
83,0.008866006
84,-0.012599002
85,-0.005002279
86,0.024693366
87,-0.007278145
88,-0.034578048
89,-0.036054548
90,-0.0076265284
91,-0.023494296
92,-0.012646454
93,-0.012167071
94,-0.026528053
95,0.0028661294
96,-0.03843031
97,0.0031285232
98,0.017554404
99,0.011753738
100,-0.018869339
101,0.0005683276
102,-0.014078512
103,-0.0060270713
104,-0.027015885
105,-0.012648753
106,0.010926825
107,-0.013841616
108,-0.044957273
109,-0.020074928
110,-0.018364701
111,-0.0042286566
112,0.013863927
113,-0.012368525
114,-0.018607333
115,-0.010918311
116,-0.019180035
117,0.0036811803
118,0.0126842335
119,0.002803126
120,-0.020725515
121,0.0035792396
122,0.014440694
123,0.006785911
124,0.0030223713
125,0.0041212165
126,0.0030615565
127,-0.024128642
128,-0.0014063218
129,0.013470835
130,0.052550096
131,0.0060099256
132,-0.016960358
133,-0.039131522
134,-0.004630132
135,-0.022505274
136,-0.0023253239
137,-0.02709634
138,-0.049064334
139,-0.007027805
140,-0.002487129
141,-0.0044433866
142,0.013719684
143,0.013415561
144,-0.010466534
145,0.018035822
146,0.00014139072
147,0.0046715583
148,0.00046402818
149,-0.009728277
150,-0.01069041
151,0.019387001
152,-0.0035565384
153,-0.03791071
154,-0.0028291147
155,0.0067471364
156,0.028111707
157,0.019133063
158,0.0039088554
159,-0.028872782
160,0.022280455
161,-0.00100997
162,0.012610438
163,0.009610825
164,-0.010220859
165,-0.018590976
166,-0.004712625
167,0.00059488526
168,0.024090735
169,0.026029961
170,-0.0050066174
171,0.023425851
172,0.016080594
173,0.035820145
174,0.0060946825
175,-0.0007641674
176,0.016035566
177,-0.019878674
178,-0.019158373
179,-0.02933254
180,-0.04698852
181,-0.015158258
182,0.00036159885
183,0.013168442
184,-0.024534522
185,-0.022855742
186,-0.0044607217
187,-0.06743391
188,0.0045624403
189,0.0033082766
190,-0.0027545502
191,0.014682251
192,-0.05158917
193,0.0024052525
194,-0.014338709
195,-0.0055421563
196,-0.016182384
197,0.016379202
198,0.016059794
199,0.00067695166
200,-0.010200391
201,-0.034366235
202,-0.025371918
203,-0.02666445
204,-0.008128664
205,0.059218794
206,-0.04101324
207,0.01998942
208,-0.055720534
209,0.012121542
210,-0.0015611235
211,0.0019540926
212,-0.056869827
213,-0.004055889
214,-0.012211168
215,-0.0038204496
216,-0.043471847
217,-0.027517194
218,-0.0069161654
219,-0.017211271
220,-0.010332578
221,-0.017595727
222,0.0014718169
223,-1.7110142e-05
224,-0.043529388
225,0.014159934
226,0.00083916966
227,0.023688653
228,-0.009616476
229,-0.007917292
230,-0.01947844
231,0.021932198
232,0.00069764315
233,-0.015380175
234,-0.014533511
235,-0.0074305814
236,0.02210266
237,-0.04219579
238,-0.020704795
239,-0.015310684
240,-0.0017850187
241,0.008372994
242,-0.016709525
243,0.005650249
244,0.029325489
245,-0.0010653728
246,0.003883547
247,-0.026678424
248,-0.01738182
249,-0.0042548915
250,-0.0012837444
251,0.017666923
252,-0.041179713
253,-0.013516927
254,-0.021472974
255,0.011014538
256,-0.009480959
257,0.0010154631
258,-0.0119994525
259,0.0016853169
260,0.039677627
261,0.01640289
262,0.002057954
263,0.01116243
264,0.022047868
265,-0.05189249
266,0.027835866
267,-0.00051098503
268,0.006712689
269,-0.008968269
270,0.021128522
271,0.009139104
272,0.0149977235
273,0.003020251
274,-0.002902791
275,-0.012177473
276,-0.00041248807
277,-0.009280539
278,-0.00048702653
279,-0.038339585
280,-0.015643945
281,-0.0065651755
282,4.073148e-05
283,0.0012864266
284,0.0010214959
285,-0.016970523
286,0.013779178
287,-0.019089557
288,-0.0009180419
289,-0.012771274
290,0.045142546
291,-0.018419683
292,-0.043023042
293,-0.015734335
294,0.0023560561
295,0.008779741
296,-0.010146957
297,0.009137203
298,0.00363248
299,0.012562685
300,0.014423215
301,-0.004718475
302,-0.018884122
303,-0.0031526561
304,-0.011387504
305,-0.0029844726
306,0.03257751
307,0.013523493
308,0.014408449
309,-0.024219332
310,-0.0005676388
311,0.0012813085
312,-0.027156012
313,0.020712536
314,0.01370365
315,-0.018516473
316,0.018424265
317,-0.011412459
318,0.020627568
319,0.0007984227
320,-0.017654616
321,0.007639066
322,-0.023783688
323,-0.024007112
324,0.005421987
325,0.031117547
326,0.014708797
327,-0.026094701
328,-0.01486503
329,-0.012325244
330,-0.02833689
331,-0.031809583
332,-0.010711131
333,-0.007133307
334,0.021223519
335,0.016160969
336,0.034872364
337,0.0104814395
338,-0.015893532
339,0.027325181
340,-0.02461388
341,0.040410608
342,0.020185322
343,-0.007677696
344,-0.021198949
345,-0.02645461
346,0.0021915354
347,2.9809831e-05
348,-0.00641651
349,-0.0047525275
350,0.013731346
351,-0.005519275
352,-0.015633682
353,0.012025896
354,-0.014806166
355,0.019498378
356,0.003048934
357,-0.014978934
358,-0.0006170616
359,-0.021919588
360,-0.006348096
361,-0.02487948
362,0.026880309
363,0.004903433
364,-0.006349114
365,0.00062962895
366,0.013005069
367,-0.0016246928
368,0.0064138635
369,0.007832409
370,-0.019678894
371,0.007763425
372,0.027281435
373,0.0013733936
374,-0.005698699
375,0.0019466609
376,-0.055082668
377,-0.025332844
378,0.016203515
379,0.009413889
380,-0.0012904697
381,-0.0040001315
382,-0.010330211
383,0.004270569
384,-0.014643669
385,-0.020645067
386,0.02086752
387,-0.022513766
388,-0.0058555678
389,-0.008652761
390,-0.012609394
391,-0.04898735
392,-0.007676105
393,-0.00021976
394,-0.007021111
395,-0.0032347443
396,-0.0049190777
397,0.001281726
398,-0.01385232
399,-0.03304774
400,-0.017653884
401,-0.042095046
402,-0.0030606382
403,-0.0013082295
404,-0.001319145
405,-0.012499268
406,-0.01854005
407,-0.0043746578
408,-0.007057747
409,-0.0022607087
410,-0.025944272
411,-0.01303653
412,-0.015585911
413,-0.021211134
414,0.0053367293
415,-0.033272278
416,-0.014239798
417,-0.023167552
418,-0.0028609638
419,-0.01778618
420,-0.02115892
421,-0.015190953
422,-0.006498495
423,-0.01430212
424,0.015382019
425,-0.0076720044
426,-0.038965676
427,0.008782892
428,-0.0052676606
429,0.003513667
430,0.0037198737
431,-0.026077416
432,0.00075374317
433,-0.03165185
434,0.0032118815
435,-0.0012704255
436,-0.010468803
437,-0.021567293
438,-0.022954628
439,-0.024259282
440,-0.03651391
441,0.024077415
442,0.007867696
443,-0.04303948
444,-0.008894588
445,-0.027274119
446,-0.013706226
447,-0.011296269
448,-0.024905996
449,-0.0029483591
450,0.00027767682
451,-0.022103935
452,-0.00572385
453,0.021803143
454,-0.007947977
455,0.0012483989
456,0.009251289
457,-0.04825867
458,0.002887351
459,0.0093209185
460,-0.008135153
461,-0.012616954
462,-0.0060571316
463,-0.006043596
464,0.020503122
465,-0.005208906
466,-0.009271601
467,-0.0096816905
468,-0.055641502
469,0.005639378
470,0.00011866345
471,0.0014241585
472,-0.033113424
473,-0.019529924
474,-0.017681481
475,-0.00071242923
476,-0.068273
477,-0.008588672
478,0.010725133
479,-0.0094529735
480,-0.029614396
481,-0.0075716046
482,-0.022461144
483,-0.00025529537
484,-0.06867155
485,-0.011625917
486,-0.04390622
487,-0.010914035
488,-0.01668033
489,0.0019523043
490,-0.008148346
491,-0.016915927
492,-0.024795659
493,-0.015676063
494,-0.0004929644
495,-0.0077036624
496,0.0010159333
497,-0.02128186
498,-0.019835427
499,-0.02168143
500,-0.010183102
501,-0.0036832467
502,-0.0014654179
503,0.0062621674
504,-0.027756335
505,0.0020981478
506,0.005047034
507,-0.0007558268
508,-0.031727634
509,0.016182393
510,-0.006296468
511,-0.028958686
512,-0.061120037
513,0.012932389
514,-0.027717512
515,0.012727558
516,0.04624876
517,-0.022565024
518,0.0075654783
519,0.012310978
520,0.0058901296
521,-0.018538212
522,-0.008172866
523,-0.0012979634
524,-0.080145106
525,-0.012437736
526,-0.0048798095
527,-0.030405622
528,-0.044724677
529,0.01317152
530,-0.0061276103
531,-0.015592331
532,0.011678174
533,-0.020475188
534,0.006560172
535,0.015567251
536,0.03127587
537,-0.052859545
538,0.022365142
539,0.01571542
540,-0.035667248
541,0.005371356
542,-0.06387386
543,-0.019907959
544,-0.0692712
545,0.00938682
546,-0.07134321
547,-0.0135208545
548,0.008008845
549,-0.04109571
550,0.007833372
551,-0.026762879
552,-0.0012086343
553,-0.04494276
554,0.004983623
555,-0.056363888
556,-0.0092619555
557,-0.009793914
558,0.016003683
559,-0.011582445
560,-0.030912025
561,-0.00078289607
562,0.029884368
563,-0.006950031
564,-0.0005432357
565,0.010641777
566,0.0031997634
567,-0.0172347
568,-0.033263873
569,0.040850703
570,-0.029773777
571,-0.032870714
572,-0.09433708
573,0.004969593
574,-0.025972312
575,-0.03433939
576,-0.012744914
577,-0.053678066
578,-0.010826391
579,-0.02682731
580,-0.033978503
581,0.05236936
582,0.0056885793
583,0.008109429
584,-0.014326497
585,-0.02933026
586,-0.013709224
587,-0.037190005
588,-0.013427066
589,-0.017416753
590,0.006229803
591,0.020902645
592,0.0013548215
593,-0.033448726
594,-0.00604679
595,0.036032617
596,-0.025304368
597,0.011400844
598,0.023981258
599,-0.034635335
600,-0.019209744
601,0.0015902234
602,-0.0051025744
603,-0.011232255
604,0.015367081
605,0.009942579
606,0.0002982447
607,-0.045905627
608,-0.023372237
609,-0.057438377
610,-0.037391063
611,-0.05124459
612,0.005793538
613,0.0022506774
614,-0.009454893
615,-0.0020480081
616,0.018548483
617,0.018266635
618,-0.022896612
619,-0.01735292
620,-0.045775395
621,-0.018133821
622,-0.04960214
623,-0.022786412
624,-0.048131377
625,0.031638853
626,-0.03889978
627,-0.0023421242
628,-0.01807395
629,-0.0038254382
630,0.0054413695
631,-0.010582412
632,-0.04505299
633,-0.0052527003
634,-0.034927897
635,-0.044737954
636,-0.0033027995
637,-0.011025122
638,0.015054621
639,-0.019481577
640,-0.047702488
641,0.0022612885
642,-0.030530501
643,0.0061220876
644,0.050185457
645,-0.012597746
646,-0.007921931
647,-0.0020579966
648,0.0035970283
649,-0.022857828
650,-0.02568031
651,-0.010216688
652,0.0144026885
653,-0.006187362
654,0.017455975
655,0.000156661
656,-0.029866748
657,0.020613208
658,-0.008222277
659,-0.006067489
660,-0.016720476
661,-0.0067949574
662,0.012146094
663,0.0007253565
664,-0.008661441
665,0.025904203
666,-0.0001914365
667,-0.0035382523
668,-0.0031000027
669,-0.059670374
670,0.014246611
671,-0.0018669134
672,0.01884151
673,-0.02370689
674,0.015447802
675,-0.018367432
676,-0.013695561
677,0.014104832
678,0.003950311
679,0.015783506
680,-0.038724173
681,0.02444141
682,-0.0030847162
683,0.011161444
684,0.0136591485
685,-0.039527535
686,-0.0037697654
687,-0.024372049
688,0.0107462015
689,-0.018689932
690,0.017954214
691,-0.028106768
692,-0.03238983
693,0.0031931985
694,-0.013649563
695,-0.0035266588
696,-0.0046491683
697,-0.008721746
698,0.008350908
699,0.00024081665
700,0.025504962
701,-0.007983106
702,0.01991031
703,0.023873027
704,0.001763139
705,0.008398716
706,-0.004116282
707,-0.002196265
708,-0.035261612
709,0.02057724
710,0.02882218
711,-0.0074370406
712,-0.017350823
713,0.00074740016
714,-0.0063093905
715,-0.03053402
716,-0.015457987
717,-0.028533451
718,-0.04388812
719,-0.045631986
720,-0.05007448
721,0.0046774913
722,-0.015138913
723,0.050006304
724,-0.005646656
725,0.024381869
726,0.018925946
727,-0.036793504
728,-0.025197279
729,-0.020198494
730,-0.000105349274
731,-0.012272229
732,-0.012517835
733,-0.0037161035
734,-0.03592076
735,0.036868684
736,-0.0049974956
737,0.024008654
738,0.017877879
739,0.013809864
740,-0.0009697365
741,-0.029389413
742,-0.013748813
743,-0.02491452
744,-0.012980646
745,-0.018234698
746,0.01527861
747,-0.004448829
748,0.0073242146
749,-0.03331455
750,-0.02104599
751,0.0028800075
752,0.022389997
753,-0.009959615
754,-0.016108444
755,-0.025840037
756,-0.025901645
757,-0.0021266905
758,-0.0006630337
759,0.0038546333
760,0.008527045
761,-0.028492354
762,0.0120791085
763,0.0035496105
764,-0.0077997535
765,0.0016538935
766,0.0019437104
767,-0.0013469408
768,0.06961396
769,-0.01823933
770,0.043571122
771,0.04130396
772,-0.040559575
773,-0.07315277
774,-0.04790475
775,0.066423625
776,-0.09330287
777,-0.007102602
778,-0.116823025
779,-0.009564521
780,0.009676313
781,-0.0039970186
782,-0.015111943
783,-9.879036e-05
784,0.012162885
785,0.06935411
786,-0.0025475775
787,0.01440275
788,-0.0064557507
789,0.017585231
790,-0.0055182804
791,0.05318778
792,0.01410374
793,0.003839646
794,0.047802158
795,0.004184512
796,0.03998656
797,0.08299083
798,-0.039617095
799,0.0050893025
800,-0.02953545
801,0.040206723
802,-0.049279656
803,-0.0006407062
804,-0.028068056
805,-0.007440459
806,-0.007958814
807,-0.025501188
808,0.030019315
809,-0.041777216
810,0.09165608
811,0.00057434646
812,0.018184884
813,-0.012496473
814,0.058611285
815,-0.044620603
816,-0.020284552
817,0.052461453
818,-0.048003566
819,-0.095014185
820,-0.10699904
821,-0.0460283
822,0.031208446
823,0.038238976
824,-0.01232118
825,-0.029235655
826,0.03129088
827,0.0046185427
828,-0.0007813354
829,0.0400634
830,0.028867796
831,-0.014512776
832,-0.0036203908
833,-0.06824704
834,0.020697266
835,-0.0022766404
836,0.031288557
837,-0.025262075
838,0.011014217
839,0.0023070113
840,0.010971167
841,0.012838345
842,0.010064758
843,-0.021417093
844,0.041460145
845,-0.0016772355
846,-0.112423025
847,0.035369296
848,-0.15480147
849,-0.023103556
850,-0.020761149
851,0.0046625203
852,0.03073685
853,-0.071720295
854,-0.062089425
855,0.00032906223
856,0.0026688208
857,-0.0014727893
858,0.013522099
859,-0.025285577
860,0.027528057
861,-0.031203588
862,0.03145434
863,-0.047352877
864,0.008820185
865,-0.032316573
866,-0.0319609
867,-0.035907265
868,0.062165536
869,0.047677033
870,0.016915267
871,-0.039344624
872,-0.03769084
873,-0.0056732427
874,0.0007836791
875,-0.008293483
876,0.0007511249
877,0.063720174
878,-0.032617807
879,0.010526692
880,-0.031454273
881,-0.0722248
882,0.01237232
883,0.02825289
884,0.040505752
885,-0.053843804
886,0.004009191
887,0.019784467
888,0.021346174
889,-0.009083496
890,-0.048094284
891,0.0045934473
892,0.0015115002
893,0.0054967664
894,-0.007167045
895,0.09341462
896,-0.014697097
897,-0.024236826
898,0.01067184
899,-0.037684537
900,-0.01994444
901,-0.008597747
902,-0.01635492
903,-0.010446957
904,-0.033793963
905,-0.025728524
906,0.010868456
907,-0.0029758678
908,-0.009824974
909,0.005839801
910,-0.013802997
911,-0.017555602
912,-0.06596987
913,0.0024004322
914,-0.010149781
915,-0.01187486
916,-0.011817382
917,-0.008811461
918,-0.011073
919,-0.0032883065
920,-0.017622912
921,0.022217734
922,-0.00022085011
923,0.0031596986
924,-0.04003601
925,-0.033603467
926,-0.00035179648
927,0.05910807
928,-0.0030046876
929,-0.021324608
930,-0.008765336
931,-0.032689266
932,0.013589921
933,0.03617149
934,-0.00874865
935,0.015991667
936,-0.002485177
937,-0.008828315
938,0.0040153805
939,-0.030446105
940,-0.020495126
941,0.08508603
942,-0.018220203
943,-0.018946622
944,0.010148058
945,-0.025712999
946,-0.025913076
947,0.0017791432
948,-0.005469141
949,-0.022444021
950,-0.030954763
951,-0.023460919
952,0.03596543
953,-0.018340465
954,0.005636666
955,0.05646196
956,0.0049824817
957,-0.014765493
958,0.034415018
959,0.0067921844
960,0.025437325
961,0.0014237374
962,-0.005177724
963,-0.014816558
964,-0.017873753
965,-0.008809463
966,-0.05243106
967,-0.006920698
968,0.0055126064
969,0.036225
970,0.002071457
971,-0.028225435
972,0.004514949
973,0.10308996
974,-0.0050083953
975,0.012428873
976,0.0050737476
977,-0.00030184037
978,-0.0004178977
979,-0.08652471
980,0.068425916
981,-0.063456684
982,-0.046054207
983,-0.016122509
984,0.056742407
985,0.030201282
986,-0.0031197318
987,-0.01305644
988,-0.024793549
989,-0.016189776
990,0.0050067003
991,0.026137078
992,0.05141769
993,0.008928258
994,-0.009632913
995,-0.024815625
996,-0.02475116
997,-0.0006336147
998,0.018601436
999,0.0903394
1000,-0.00014815116
1001,-0.014427268
1002,0.012337836
1003,0.0004305115
1004,0.03375428
1005,-0.0116609605
1006,-0.030991258
1007,0.035590515
1008,0.016180044
1009,-0.011680388
1010,-0.018690992
1011,0.02456734
1012,-0.052144233
1013,-0.045837767
1014,-0.0075814156
1015,0.03004314
1016,-0.0067930254
1017,0.053349845
1018,0.010527892
1019,-0.042994276
1020,0.025964323
1021,0.0077639106
1022,-0.0133207
1023,0.011247217
1024,-0.026068509
1025,-0.026292773
1026,0.005166698
1027,-0.017030535
1028,0.041345857
1029,-0.029354649
1030,-0.038856957
1031,-0.016823027
1032,0.010035343
1033,-0.003182496
1034,0.03435588
1035,-0.010873656
1036,0.014527894
1037,-0.022464285
1038,-0.0031789083
1039,0.011759495
1040,0.0072543733
1041,-0.04299595
1042,0.009071347
1043,-0.0034600564
1044,0.0035602218
1045,-0.036010593
1046,0.0021741046
1047,-0.029876955
1048,-0.023825085
1049,0.009150652
1050,-0.024573376
1051,0.00044013507
1052,0.016097127
1053,-0.009288456
1054,0.018496102
1055,-0.02987951
1056,0.026542189
1057,-0.004812162
1058,0.04240838
1059,-0.022061655
1060,-0.03516272
1061,-0.008119037
1062,0.0028255782
1063,-0.0008506924
1064,-0.009608502
1065,0.010367677
1066,-0.019745756
1067,0.0106769325
1068,0.016645255
1069,-0.0022686315
1070,-0.02020259
1071,-0.0040187268
1072,0.020133732
1073,-0.0015990832
1074,0.016366718
1075,0.036719095
1076,0.008986076
1077,-0.029231193
1078,-0.0181662
1079,0.010092473
1080,0.0015680139
1081,0.02824386
1082,0.011438272
1083,-0.046739936
1084,0.025077693
1085,-0.031420607
1086,0.058525365
1087,0.009206969
1088,-0.021014301
1089,0.009699355
1090,-0.035923813
1091,-0.016340956
1092,-0.016407374
1093,-0.0061258855
1094,-0.021388015
1095,-0.0377748
1096,-0.01141495
1097,-0.012913339
1098,0.008275426
1099,0.0067801694
1100,-0.019234164
1101,-0.0142730735
1102,0.03178067
1103,0.012211293
1104,0.0627717
1105,0.016775519
1106,0.0022891206
1107,0.039548747
1108,-0.015969135
1109,0.023948662
1110,0.021717187
1111,-0.02377248
1112,-0.026402652
1113,-0.024778342
1114,-0.007497826
1115,-0.011033484
1116,-0.015586154
1117,-0.0032865219
1118,0.010382037
1119,0.027524287
1120,-0.010072685
1121,0.019246431
1122,0.008723863
1123,0.015190934
1124,-0.023093438
1125,-0.010834733
1126,0.0021505195
1127,-0.0009920094
1128,-0.025684686
1129,-0.013220293
1130,0.036972217
1131,-0.00046201644
1132,0.008233575
1133,-0.0039411616
1134,0.018201992
1135,0.032970462
1136,0.016542621
1137,0.00735562
1138,0.0010011711
1139,-0.028251268
1140,0.016673194
1141,0.008310101
1142,0.010589929
1143,0.030748943
1144,-0.01640876
1145,-0.0118123805
1146,0.025252722
1147,0.023664655
1148,0.010131172
1149,-0.011860769
1150,-0.00021189502
1151,-0.039217968
1152,-0.027922438
1153,-0.016415965
1154,-0.0072061224
1155,-0.0012997233
1156,0.019952988
1157,0.02735793
1158,-0.029194387
1159,0.01764325
1160,-0.011349912
1161,-0.028456138
1162,0.03990796
1163,0.0038035158
1164,0.022630662
1165,-0.01130046
1166,-0.041204922
1167,-0.03165716
1168,-0.03250689
1169,-0.011070729
1170,0.002628949
1171,-0.012463147
1172,-0.005010502
1173,-0.018577304
1174,0.00048186633
1175,-0.013208581
1176,0.01475287
1177,0.0030450798
1178,-0.0018708368
1179,-0.014203409
1180,-0.028278625
1181,-0.0075054355
1182,0.016610395
1183,-0.020278776
1184,0.0102915475
1185,0.014266821
1186,0.00040934444
1187,-0.029911697
1188,-0.04838238
1189,-0.022733498
1190,-0.013738839
1191,-0.00863692
1192,-0.021893771
1193,-0.018500788
1194,-0.013562015
1195,-0.00310695
1196,-0.02151898
1197,-0.01762692
1198,8.605744e-05
1199,-0.03366306
1200,-0.0049676555
1201,-0.010554368
1202,0.0050244587
1203,0.034702294
1204,0.010029444
1205,-0.047211386
1206,-0.025495138
1207,-0.024512373
1208,-0.020729987
1209,-0.031345356
1210,-0.024995252
1211,-0.029781133
1212,0.017149964
1213,0.023656167
1214,0.009050026
1215,-0.010826706
1216,-0.0035847817
1217,0.00335355
1218,-0.013743094
1219,-0.036521044
1220,-0.0058742682
1221,-0.037518866
1222,-0.015333192
1223,-0.02298119
1224,-0.02347457
1225,-0.012963185
1226,0.00016511847
1227,-0.038059097
1228,0.016867356
1229,0.0023359272
1230,0.010943249
1231,-0.053217057
1232,0.06013629
1233,-0.014499906
1234,-0.012392125
1235,-0.004406967
1236,-0.03837416
1237,-0.020159723
1238,-0.00017151426
1239,0.017517911
1240,-0.032920446
1241,-0.067211166
1242,0.0072689042
1243,-0.03348363
1244,0.010214605
1245,-0.010254615
1246,-0.0119889155
1247,0.003970791
1248,-0.031701457
1249,-0.01675738
1250,0.012331366
1251,-0.0013334507
1252,0.027915882
1253,-0.00013871898
1254,-0.010752791
1255,-0.022674674
1256,-0.04762064
1257,-0.030953972
1258,0.013618645
1259,-0.0049493215
1260,0.011155093
1261,-0.012668294
1262,-0.035576165
1263,0.023611434
1264,-0.00355965
1265,-0.036262415
1266,-0.022466926
1267,0.0014150457
1268,0.0081149945
1269,0.00013261629
1270,-0.012217304
1271,-0.0067430404
1272,-0.023027288
1273,-0.032869197
1274,-0.015148291
1275,-0.00055948924
1276,-0.0036710694
1277,-0.007581804
1278,0.0030885001
1279,-0.017043538
1280,0.01376091
1281,-0.0056666466
1282,0.03139335
1283,-0.025460904
1284,0.016949052
1285,-0.014786191
1286,-0.02020225
1287,-0.055825252
1288,0.012547031
1289,-0.008436262
1290,-0.016056659
1291,0.0043350854
1292,-0.042488195
1293,-0.0026501995
1294,-0.008952271
1295,-0.005984865
1296,-0.020629888
1297,-0.0405655
1298,-0.012375648
1299,0.0008526947
1300,-0.014402106
1301,-0.008715752
1302,-0.009774235
1303,0.017972495
1304,0.00894037
1305,-0.055480152
1306,-0.012591684
1307,0.012092958
1308,0.022888651
1309,-0.0039006963
1310,-0.041735154
1311,-0.06164073
1312,-0.0691987
1313,-0.039349854
1314,-0.054895844
1315,0.0020193001
1316,-0.002894928
1317,-0.039258417
1318,0.010483109
1319,-0.020966638
1320,0.021511907
1321,-0.03666445
1322,-0.031877194
1323,-0.0007426624
1324,0.0025701434
1325,-0.0049555926
1326,0.011788988
1327,-0.010377956
1328,-0.035577953
1329,-0.02836086
1330,0.013418171
1331,-0.013367853
1332,-0.010416405
1333,-0.02664728
1334,-0.035002
1335,0.0147961965
1336,-0.036732964
1337,0.020484239
1338,-0.03467652
1339,-0.04124254
1340,-0.045660075
1341,-0.02690279
1342,-0.053145535
1343,-0.024754584
1344,-0.043934897
1345,-0.039014142
1346,-0.022302799
1347,-0.031898662
1348,-0.022552662
1349,0.027204566
1350,-0.020749282
1351,0.012482619
1352,0.0038502119
1353,-0.074123725
1354,-0.008976129
1355,-0.035902265
1356,-0.022504056
1357,-0.009735514
1358,0.022325745
1359,0.06571454
1360,0.0312618
1361,-0.018841185
1362,-0.02929412
1363,0.022257427
1364,-0.04123368
1365,0.01112257
1366,0.01929022
1367,-0.013641386
1368,-0.05144973
1369,-0.0428353
1370,-0.008483386
1371,0.0057571405
1372,-0.06549242
1373,-0.015628517
1374,0.006374449
1375,-0.056861393
1376,-0.040167186
1377,-0.03431317
1378,-0.02313616
1379,-0.032676443
1380,-0.051830582
1381,-0.0034028243
1382,-0.049056225
1383,-0.00896132
1384,-0.014399899
1385,-0.0062487386
1386,-0.04723416
1387,-0.014575406
1388,-0.037360143
1389,-0.03444649
1390,-0.0051781717
1391,-0.05132636
1392,-0.047191545
1393,-0.012416489
1394,-0.00043529738
1395,-0.015581871
1396,-0.004323599
1397,-0.004655352
1398,-0.016041351
1399,-0.03984558
1400,-0.031868033
1401,-0.018710034
1402,-0.016530234
1403,-0.0070160087
1404,-0.037130486
1405,-0.018029265
1406,0.001154679
1407,-0.030298524
1408,-0.0072390577
1409,-0.0038048541
1410,-0.025896499
1411,-0.029440127
1412,0.0023173117
1413,0.021016065
1414,-0.010823068
1415,-0.040441997
1416,-0.040051993
1417,-0.0061142207
1418,-0.0031182363
1419,-0.005515328
1420,0.009015908
1421,0.013134066
1422,0.017293781
1423,0.0011604822
1424,0.0038335086
1425,-0.022245446
1426,-0.005325486
1427,-0.00039065036
1428,0.0038740607
1429,0.013890379
1430,-0.006654857
1431,-0.009536864
1432,-0.0143796485
1433,0.044535745
1434,-0.006167636
1435,0.00074113475
1436,0.0019383633
1437,-0.008260912
1438,0.019290628
1439,0.0035379233
1440,0.016546551
1441,-0.030541878
1442,0.0070706084
1443,-0.028267978
1444,-0.027777188
1445,0.0073978915
1446,-0.0070673074
1447,0.0030977365
1448,0.0048227794
1449,-0.009770434
1450,-0.011440425
1451,0.013323976
1452,0.013973549
1453,0.004738413
1454,-0.008267822
1455,-0.05535483
1456,0.00029227568
1457,-0.04145823
1458,0.0051811626
1459,0.002271545
1460,0.02391678
1461,-0.01963552
1462,-0.02396828
1463,0.0045554414
1464,0.00869257
1465,0.018718768
1466,0.0056588254
1467,0.0007018364
1468,-0.0030868622
1469,-0.037634525
1470,0.017150948
1471,-0.0034341842
1472,0.007992087
1473,0.011667777
1474,0.024821095
1475,0.022115346
1476,-0.03376053
1477,0.012250209
1478,-0.009999802
1479,-0.010874898
1480,0.017909436
1481,0.02263783
1482,0.013414703
1483,0.0022141146
1484,-0.028395845
1485,0.015213043
1486,-0.0050076973
1487,-0.01806607
1488,0.010231477
1489,0.0039122924
1490,-0.014175524
1491,-0.01521056
1492,0.037384145
1493,-0.043726746
1494,-0.038996194
1495,-0.015258861
1496,0.030924812
1497,0.019153394
1498,0.0017178284
1499,-0.013117597
1500,-0.01754411
1501,-0.0007975612
1502,-0.030297365
1503,0.026154581
1504,0.007215537
1505,0.012589543
1506,-0.0011407143
1507,-0.0068750833
1508,-0.016408097
1509,-0.04015444
1510,0.025522364
1511,-0.02483
1512,-0.00096993096
1513,0.01438446
1514,0.02140484
1515,-0.0027645195
1516,0.016949454
1517,-0.016827911
1518,-0.022055054
1519,0.0070912847
1520,0.015983874
1521,-0.0316232
1522,-0.024296176
1523,-0.022865452
1524,-0.0044589816
1525,-0.045869015
1526,0.0063787047
1527,0.011600378
1528,0.02845225
1529,-0.00065104803
1530,-0.010270012
1531,-0.001886761
1532,0.047075424
1533,-0.012513393
1534,0.005742571
1535,-0.00019684556
1536,-0.017042667
1537,0.015104363
1538,0.00021191602
1539,0.013177435
1540,0.04597794
1541,-0.010104388
1542,-0.021081539
1543,-0.02758418
1544,0.009214279
1545,-0.0050587747
1546,-0.036253806
1547,0.007842231
1548,0.012744915
1549,-0.016618803
1550,-0.014236778
1551,-0.019982254
1552,-0.0324245
1553,0.03887337
1554,0.0013533332
1555,-0.014057873
1556,0.0046177236
1557,-0.0037792567
1558,-0.011800246
1559,0.012848779
1560,0.03431029
1561,-0.009432078
1562,0.019600285
1563,-0.005979372
1564,-0.009155602
1565,-0.021601172
1566,-0.028937787
1567,-0.04249721
1568,-0.04412311
1569,0.008753747
1570,-0.029505687
1571,-0.03534734
1572,-0.010738315
1573,-0.04738257
1574,0.0047019664
1575,-0.002830205
1576,-0.0014616316
1577,-0.016267667
1578,0.010897704
1579,-0.02789828
1580,-0.016843501
1581,-0.00950673
1582,0.04362655
1583,-0.035004485
1584,-0.01928074
1585,-0.006815744
1586,-0.0034647766
1587,-0.03566059
1588,-0.0054798857
1589,-0.02199606
1590,-0.024673613
1591,-0.019099075
1592,-0.028343393
1593,0.04722742
1594,-0.008088514
1595,-0.046599198
1596,0.0025550062
1597,0.0008119867
1598,-0.03705567
1599,-0.0089967875
1600,-0.022714313
1601,-0.009859433
1602,-0.012257091
1603,-0.004529909
1604,0.012245282
1605,0.030829554
1606,0.04270655
1607,-0.005053793
1608,0.0027219267
1609,-0.04759831
1610,-0.0028905717
1611,-0.0220122
1612,0.00756819
1613,0.016119704
1614,0.017739417
1615,-0.026194606
1616,0.0014644847
1617,-0.0002772889
1618,-0.01016953
1619,0.015488006
1620,-0.07095627
1621,0.019396264
1622,0.015536306
1623,0.006471881
1624,-0.011192327
1625,-0.0036888188
1626,0.0033054044
1627,-0.0090099145
1628,-0.05825933
1629,-0.018384008
1630,-0.008164741
1631,-0.023228765
1632,-0.055729285
1633,-0.03740857
1634,-0.011420489
1635,-0.03266082
1636,-0.015331114
1637,0.0118890945
1638,-0.017754477
1639,0.020122573
1640,-0.0132098105
1641,-0.0094230855
1642,-0.039285548
1643,0.0046131797
1644,0.015189503
1645,-0.017851522
1646,-0.023605091
1647,-0.06519409
1648,-0.037596203
1649,-0.014822816
1650,-0.0031656881
1651,-0.0044694236
1652,-0.025284898
1653,0.021937909
1654,0.004474277
1655,-0.03702633
1656,-0.017509298
1657,0.013758741
1658,-0.051882017
1659,-0.038909636
1660,-0.041511998
1661,-0.013040726
1662,-0.0096244505
1663,0.020211002
1664,-0.064996935
1665,0.0024440524
1666,-0.043639038
1667,0.04106738
1668,-0.021708604
1669,0.033762425
1670,-0.028472686
1671,-0.0491884
1672,-0.004071692
1673,-0.019299239
1674,0.015460775
1675,-0.008285455
1676,-0.07828249
1677,-0.00285963
1678,-0.032229826
1679,-0.05146175
1680,-0.039072946
1681,0.005558828
1682,-0.010183552
1683,0.004345446
1684,0.013990599
1685,-0.007985953
1686,0.0034912874
1687,-0.051889326
1688,0.027243782
1689,-0.073926345
1690,0.010705517
1691,-0.004840728
1692,-0.022398181
1693,-0.05708383
1694,-0.06262254
1695,-0.048707463
1696,-0.0898509
1697,0.0004562041
1698,-0.040928535
1699,-0.028631616
1700,-0.06390334
1701,-0.08207523
1702,-0.010663483
1703,-0.063042276
1704,-0.034554742
1705,-0.0742672
1706,0.0053151078
1707,-0.058724053
1708,-0.0017302812
1709,-0.013105873
1710,0.003740022
1711,-0.05518678
1712,-0.059761718
1713,-0.061077602
1714,-0.01511182
1715,-0.002490286
1716,-0.005173448
1717,-0.03929069
1718,-0.0385782
1719,-0.0020817502
1720,-0.030252201
1721,0.024087733
1722,-0.026668014
1723,-0.06018452
1724,-0.054437406
1725,-0.05672951
1726,-0.05707981
1727,-0.06263219
1728,-0.055307854
1729,-0.08631665
1730,0.0076732943
1731,-0.030444503
1732,-0.019386793
1733,-0.006992831
1734,0.010381824
1735,-0.005799218
1736,-0.02137971
1737,-0.016312283
1738,-0.009875455
1739,-0.015166982
1740,-0.014810436
1741,0.005805191
1742,0.033843048
1743,-0.03393245
1744,0.0015160055
1745,-0.066443846
1746,0.0067838216
1747,0.019836567
1748,-0.049501847
1749,0.010150947
1750,-0.0011898099
1751,-0.028783334
1752,-0.0056970683
1753,-0.030245988
1754,-0.013250768
1755,-0.020714574
1756,-0.021869551
1757,0.014906525
1758,-0.010025948
1759,-0.068543844
1760,-0.074404605
1761,-0.06805372
1762,-0.03484931
1763,-0.051849015
1764,-0.044612654
1765,-0.02440839
1766,-0.0815105
1767,-0.0058100787
1768,-0.02074394
1769,-0.02294171
1770,-0.021944866
1771,0.0075009787
1772,-0.061189216
1773,-0.06559904
1774,-0.020308712
1775,-0.03151928
1776,-0.047699068
1777,-0.046765435
1778,-0.0025167128
1779,-0.0203336
1780,0.0045335423
1781,0.0018968759
1782,0.0010258333
1783,-0.034789708
1784,-0.008480467
1785,-0.012518941
1786,-0.056523837
1787,-0.046871074
1788,-0.04648894
1789,-0.0069511184
1790,-0.005559363
1791,-0.009196819
1792,-0.023467226
1793,-0.027306568
1794,0.017362915
1795,-0.021759527
1796,-0.022260562
1797,0.015728904
1798,0.004701868
1799,-0.01849838
1800,0.0037828684
1801,-0.00069727254
1802,0.015615139
1803,-0.0013617941
1804,0.007061491
1805,-0.0012509383
1806,-0.01086888
1807,0.021259014
1808,-0.014062423
1809,-0.011982872
1810,0.0062352656
1811,0.0048569567
1812,-0.005484648
1813,-0.0036729646
1814,-0.012552208
1815,-0.0007052196
1816,-0.023429627
1817,0.014591323
1818,-0.003772007
1819,0.0017631365
1820,-0.009753757
1821,-0.0076821805
1822,0.02324303
1823,0.0035248476
1824,0.0027849947
1825,-0.022239963
1826,-0.0025213514
1827,-0.009415948
1828,0.0003972894
1829,0.011817412
1830,-0.017920027
1831,0.0028859866
1832,0.0010467959
1833,0.0054279026
1834,-0.012483369
1835,-0.0064699184
1836,-0.013540551
1837,0.021242116
1838,0.0034604874
1839,-0.015190265
1840,-0.008947469
1841,-0.023214402
1842,0.010713052
1843,0.032141563
1844,-0.003476073
1845,-0.011383352
1846,-0.0071912166
1847,-0.018606441
1848,0.022998787
1849,0.008480853
1850,-0.017235177
1851,0.020769803
1852,0.017215094
1853,0.0035569703
1854,0.00410336
1855,0.015634771
1856,0.01880316
1857,0.019466475
1858,0.0052725174
1859,0.006462301
1860,0.0077004205
1861,-0.00388889
1862,-0.0343571
1863,-0.015512302
1864,-0.011598912
1865,0.009604343
1866,0.0003388461
1867,-0.012290169
1868,-0.017486475
1869,0.019307535
1870,-0.010125294
1871,0.009116732
1872,0.017443962
1873,0.014736221
1874,0.007036464
1875,-0.046181317
1876,0.008759542
1877,-0.02800618
1878,-0.00027705642
1879,0.016102916
1880,0.0028618074
1881,0.0127781015
1882,-0.00798043
1883,-0.009106423
1884,-0.014179853
1885,-0.0080854455
1886,-0.012865633
1887,0.020749802
1888,0.0032713017
1889,0.017320497
1890,0.01624615
1891,0.014315915
1892,0.007887966
1893,-0.004283894
1894,0.0034654182
1895,0.03287964
1896,0.0015563192
1897,-0.027218714
1898,0.01371411
1899,-0.0076071215
1900,0.017023914
1901,0.0007199808
1902,0.0012020739
1903,0.01554027
1904,0.009063818
1905,0.0056461887
1906,-0.008731314
1907,-0.0057227006
1908,-0.029399168
1909,-0.039379474
1910,-0.00794742
1911,0.016019927
1912,0.0014431771
1913,-0.005448982
1914,0.004291532
1915,-0.010872633
1916,0.0064534764
1917,-0.009774598
1918,-0.018779233
1919,-0.021083908
1920,-0.0039189816
1921,-0.019733552
1922,-0.012466362
1923,-0.024867527
1924,-0.0076823994
1925,0.011946525
1926,-0.011397711
1927,-0.018129205
1928,-0.023785118
1929,0.0106924465
1930,0.014006053
1931,-0.0067502847
1932,-0.015356983
1933,0.0045520235
1934,-0.011029005
1935,-0.010386913
1936,0.007914553
1937,-0.035051234
1938,0.011093427
1939,0.00037295945
1940,0.00478311
1941,-0.0058509978
1942,0.002867246
1943,-0.03432602
1944,-0.05346274
1945,-0.02892837
1946,-0.064324655
1947,-0.00994539
1948,0.0074672815
1949,-0.016689027
1950,0.023673935
1951,-0.045721885
1952,0.019898454
1953,-0.019403815
1954,-0.011267006
1955,-0.026208483
1956,-0.009071542
1957,-0.04446998
1958,0.013637864
1959,0.015208467
1960,-0.007615498
1961,-0.0010125801
1962,-0.017315041
1963,0.016839076
1964,-0.013679536
1965,0.013461865
1966,-0.014581795
1967,-0.031122606
1968,0.01265958
1969,-0.018525684
1970,-0.009855601
1971,0.04574005
1972,-0.017909735
1973,0.0041796006
1974,-0.0486346
1975,0.00462899
1976,-0.036324095
1977,0.006549927
1978,-0.00367705
1979,-0.06603903
1980,0.026293904
1981,-0.051663354
1982,0.002590615
1983,-0.012437232
1984,-0.03409742
1985,0.024490139
1986,0.013669695
1987,-0.022834914
1988,-0.021665549
1989,0.007681093
1990,0.005086116
1991,0.0017964828
1992,-0.013218825
1993,-0.06698834
1994,0.0073713246
1995,0.011936389
1996,-0.013667076
1997,0.005043416
1998,0.017740048
1999,0.0010063993
2000,0.018587273
2001,0.00471491
2002,-0.022828953
2003,0.008714838
2004,-0.06881149
2005,0.01085331
2006,-0.009240698
2007,-0.022034291
2008,-0.03708586
2009,-0.03912463
2010,0.002150602
2011,-0.011795913
2012,-0.021907989
2013,-0.015711766
2014,0.00274602
2015,0.003655316
2016,-0.06234835
2017,0.008070867
2018,0.021461984
2019,0.021275932
2020,-0.02367688
2021,-0.016848039
2022,-0.028235557
2023,0.014751127
2024,-0.0139819775
2025,-0.003054419
2026,-0.03234664
2027,-0.0023502123
2028,-0.010279757
2029,0.00061979215
2030,0.008278015
2031,-0.028802859
2032,0.006892419
2033,-0.003672462
2034,0.005116916
2035,-0.0045670024
2036,-0.020844419
2037,0.0038370616
2038,-0.0068511274
2039,0.011147621
2040,0.024551552
2041,-0.014084953
2042,0.010289462
2043,0.0031282033
2044,-0.03128768
2045,0.0008533628
2046,0.00075661653
2047,-0.025839634
2048,0.0076500787
2049,0.022022564
2050,-0.012529707
2051,0.014712218
2052,-0.036132924
2053,0.028347116
2054,-0.0056107026
2055,6.599955e-05
2056,-0.02666173
2057,-0.0073959585
2058,0.00070456497
2059,0.015892917
2060,-0.04957944
2061,-0.011607278
2062,0.019939795
2063,-0.028756486
2064,0.0075578215
2065,0.030461015
2066,-0.008853261
2067,-0.012398036
2068,-0.014195237
2069,-0.0031514484
2070,-0.0031008557
2071,-0.033244956
2072,0.052953746
2073,-0.027735002
2074,0.0239103
2075,-0.0105889365
2076,0.001761002
2077,-0.025645873
2078,-0.0276806
2079,0.007366407
2080,-0.06356448
2081,0.010231814
2082,-0.014518901
2083,-0.0032092552
2084,-0.051786717
2085,-0.016209267
2086,-0.0005675711
2087,-0.024925385
2088,-0.039341267
2089,-0.013878512
2090,0.04511312
2091,0.0047957995
2092,-0.016469713
2093,0.022217562
2094,0.019060979
2095,-0.011555978
2096,-0.024729151
2097,-0.007054226
2098,-0.011411835
2099,0.006648118
2100,0.009834452
2101,-0.02443415
2102,-0.020469394
2103,-0.006403059
2104,-0.009039043
2105,-0.06407649
2106,-0.023979709
2107,-0.01784714
2108,-0.062056568
2109,-0.014822161
2110,-0.046710376
2111,-0.028402733
2112,-0.026906159
2113,-0.031268507
2114,-0.012777981
2115,0.011005251
2116,-0.021428116
2117,-0.04747032
2118,0.01248597
2119,0.0032457905
2120,0.0030059065
2121,-0.023487732
2122,-0.013557971
2123,0.0017175492
2124,-0.029271383
2125,0.021668823
2126,0.004094568
2127,-0.055844717
2128,0.03072823
2129,-0.020819755
2130,-0.012886457
2131,-0.07360715
2132,-0.028436914
2133,-0.02700103
2134,-0.016353965
2135,-0.027713694
2136,-0.0014419077
2137,-0.007153003
2138,0.0045951926
2139,0.0004794977
2140,0.0024926036
2141,-0.0066389716
2142,-0.018334482
2143,-0.055088155
2144,-0.0048427633
2145,-0.027101574
2146,-0.02622198
2147,-0.020852678
2148,-0.007768753
2149,-0.009716156
2150,-0.04798201
2151,0.030386839
2152,-0.014415454
2153,-0.0036493465
2154,-0.023591291
2155,-0.006594899
2156,0.014026163
2157,-0.01569635
2158,-0.010072492
2159,-0.006963087
2160,-0.049141075
2161,-0.016390027
2162,-0.008941598
2163,0.049892936
2164,-0.0013338723
2165,-0.027929185
2166,-0.00021200873
2167,-0.047344156
2168,-0.022422945
2169,0.02956016
2170,-0.023369549
2171,-0.0341091
2172,-0.016539037
2173,-0.010381281
2174,0.0014197252
2175,0.02185187
2176,-0.0042111753
2177,-0.013840613
2178,0.019790232
2179,-0.010603327
2180,0.047510345
2181,-0.023241391
2182,0.008310663
2183,-0.015297728
2184,0.019469738
2185,-0.023810297
2186,-0.022155868
2187,0.0010106195
2188,0.03868533
2189,-0.018223515
2190,-0.009707399
2191,0.03657847
2192,0.013258063
2193,-0.011247537
2194,-0.006502321
2195,0.0034494717
2196,-0.023647675
2197,-0.01730484
2198,0.017886443
2199,-0.0089502605
2200,-0.018030135
2201,-0.010914206
2202,-0.019321576
2203,0.0050389124
2204,0.012048277
2205,0.03184541
2206,0.034521718
2207,-0.028898064
2208,0.033251
2209,0.0064517437
2210,0.034339994
2211,-0.0038638464
2212,-0.0065136394
2213,-0.006419366
2214,-0.017340058
2215,0.0038213187
2216,0.03909358
2217,0.020813277
2218,-0.0066150003
2219,0.011105627
2220,0.025037983
2221,-0.008014658
2222,-0.01966148
2223,0.002308205
2224,0.028230574
2225,-0.0020175325
2226,0.016177876
2227,0.0005225383
2228,-0.05194207
2229,0.004927422
2230,-0.032651663
2231,0.012533512
2232,0.0073958803
2233,-0.0067418218
2234,0.00577366
2235,-0.013905821
2236,0.009128496
2237,-0.00038558798
2238,0.0042044446
2239,0.0034244831
2240,-0.015180538
2241,0.017243205
2242,-0.019572306
2243,-0.019295268
2244,0.015714655
2245,0.026083758
2246,-0.0018556427
2247,-0.0026522179
2248,-0.008505722
2249,-0.034681298
2250,-0.010449663
2251,-0.008634381
2252,0.013691139
2253,-0.017432129
2254,-0.046903364
2255,0.045406803
2256,-0.020113982
2257,0.019306004
2258,-0.025024552
2259,0.031205684
2260,-0.015488685
2261,0.02701472
2262,0.027806332
2263,0.003109168
2264,-0.016064394
2265,-0.017580958
2266,-0.010773932
2267,0.0057171513
2268,-0.03244952
2269,-0.025661781
2270,0.004283945
2271,0.002877961
2272,-0.008040598
2273,0.026951922
2274,0.018544897
2275,0.020290047
2276,-0.012852979
2277,0.018646771
2278,-0.0025286207
2279,-0.012962207
2280,0.010538369
2281,0.011324394
2282,0.020406133
2283,0.015012666
2284,-0.0044190646
2285,-0.00070832425
2286,0.007870693
2287,0.016182149
2288,0.010180825
2289,0.021079937
2290,0.0033792178
2291,-0.021822775
2292,0.009551427
2293,0.009174283
2294,-0.0071795364
2295,0.01741761
2296,-0.013610849
2297,-0.017805541
2298,0.01798807
2299,0.032558426
2300,-0.006648074
2301,-0.008944295
2302,-0.0026497364
2303,-0.022319354
2304,0.0604313
2305,-0.04789991
2306,0.08853572
2307,0.017243648
2308,-0.028498547
2309,-0.0034530554
2310,-0.006616861
2311,0.049435697
2312,-0.030541614
2313,0.012768604
2314,-0.047766354
2315,-0.0060103075
2316,-0.010782055
2317,-0.014633424
2318,-0.004456766
2319,-0.029949475
2320,-1.1730182e-05
2321,-0.05203864
2322,-0.0060236333
2323,0.02172934
2324,-0.0026915437
2325,-0.007617551
2326,-0.020171935
2327,0.026859708
2328,0.032397203
2329,0.0054668263
2330,-0.017709289
2331,-0.010551922
2332,-0.016834967
2333,0.087045945
2334,-0.034170434
2335,0.025298052
2336,-0.0390982
2337,0.011902282
2338,-0.043086074
2339,-0.005555217
2340,0.0018713521
2341,0.008433579
2342,0.022974387
2343,-0.02059621
2344,0.079480514
2345,-0.015953617
2346,0.019495653
2347,-0.0122013865
2348,0.006281153
2349,0.019528683
2350,0.023810579
2351,-0.00746222
2352,-0.029563863
2353,0.036155652
2354,-0.028166378
2355,0.009193605
2356,0.009423236
2357,-0.004797021
2358,0.05542565
2359,-0.01774402
2360,0.028777085
2361,-0.0058718105
2362,-0.04620964
2363,0.0101516815
2364,0.007140712
2365,0.0625424
2366,-0.023132224
2367,-0.022470202
2368,0.018733583
2369,0.003908317
2370,-0.021212585
2371,0.022104662
2372,0.06561672
2373,-0.04549748
2374,-0.04269159
2375,0.027445544
2376,-0.009459596
2377,0.032080352
2378,0.0034560487
2379,-0.007161672
2380,0.08372025
2381,0.019921346
2382,0.011882337
2383,0.028652295
2384,0.014414415
2385,0.016394561
2386,-0.004307702
2387,-0.06475499
2388,0.019860208
2389,-0.03578088
2390,-0.02004998
2391,0.060307477
2392,0.026847064
2393,0.0360566
2394,-0.0012187508
2395,-0.010586876
2396,0.043987527
2397,0.002858939
2398,-0.0030319036
2399,-0.037856415
2400,0.0042838356
2401,-0.033562455
2402,-0.017943548
2403,-0.012179541
2404,0.03393307
2405,0.08587108
2406,0.008847732
2407,0.017936628
2408,-0.006492481
2409,0.0041059987
2410,-0.03556736
2411,0.019863285
2412,0.043837838
2413,0.038381107
2414,0.009167449
2415,-0.044066284
2416,-0.028445976
2417,-0.018385386
2418,-0.013090127
2419,0.04686228
2420,-0.0004305367
2421,-0.024924949
2422,-0.0007267139
2423,-0.00030491158
2424,0.005232548
2425,0.007866203
2426,-0.017711105
2427,-0.013079773
2428,0.019584646
2429,0.0137276575
2430,-0.0013169845
2431,0.018770479
2432,-0.03819301
2433,-0.005380573
2434,-0.015128115
2435,0.01060479
2436,0.045269623
2437,0.018235622
2438,-0.023144959
2439,-0.029003935
2440,0.031638
2441,-0.006652417
2442,-0.0036771228
2443,-0.008631094
2444,-0.05783888
2445,-0.015587886
2446,-0.013957663
2447,-0.029057391
2448,-0.026874365
2449,0.007745599
2450,-0.012342632
2451,-0.006789264
2452,0.015912132
2453,-0.017150462
2454,0.009368464
2455,-0.022567162
2456,-0.0046577663
2457,-0.032831404
2458,-0.02036901
2459,0.009692755
2460,-0.008174812
2461,-0.024662597
2462,-0.036900118
2463,-0.05255794
2464,-0.06045763
2465,-0.015203475
2466,-0.026358683
2467,-0.011552036
2468,-0.00861293
2469,-0.044458333
2470,-0.008023806
2471,-0.030477684
2472,0.024031755
2473,-0.0659296
2474,-0.01669212
2475,-0.041719314
2476,0.012094766
2477,-0.023773806
2478,-0.018472265
2479,-0.011086227
2480,-0.05529449
2481,-0.026686752
2482,0.022839502
2483,0.0038868543
2484,-0.008711211
2485,0.002554919
2486,-0.026770426
2487,-0.0097169
2488,-0.04221229
2489,0.024554223
2490,-0.009123649
2491,-0.051865038
2492,-0.040920515
2493,-0.034837656
2494,-0.025192501
2495,-0.019829955
2496,-0.048316408
2497,-0.049696818
2498,-0.0033845324
2499,-0.036782946
2500,-0.014325104
2501,0.040568825
2502,0.0016127584
2503,-0.0026124818
2504,0.003504203
2505,-0.040885743
2506,0.002384862
2507,-0.015395323
2508,-0.011252216
2509,-0.018994361
2510,0.0056240987
2511,0.018380327
2512,-0.004151936
2513,-0.012260113
2514,-0.0039809123
2515,0.025994733
2516,-0.045599554
2517,0.032879572
2518,0.027258297
2519,-0.024615414
2520,-0.04373708
2521,-0.01811976
2522,-0.00039605517
2523,-0.023374926
2524,-0.007928163
2525,-0.0051110764
2526,0.004567818
2527,-0.058319487
2528,-0.056273796
2529,-0.060208376
2530,-0.026969004
2531,-0.036298122
2532,-0.042119008
2533,-0.012562527
2534,-0.04697663
2535,-0.022053415
2536,-0.007958484
2537,6.419659e-05
2538,-0.015876368
2539,-0.0055155726
2540,0.0005438586
2541,-0.0292605
2542,-0.00329942
2543,-0.028554248
2544,-0.048780173
2545,0.02089624
2546,-0.006670226
2547,-0.014760186
2548,-0.0076924907
2549,-0.007015445
2550,-0.004929474
2551,-0.013675488
2552,-0.007932065
2553,-0.013616867
2554,-0.03745269
2555,-0.028019676
2556,-0.03744368
2557,0.002513676
2558,-0.0022563601
2559,-0.011431506
2560,-0.00091391586
2561,-0.0059090005
2562,-0.0016413067
2563,-0.009224689
2564,-0.020106131
2565,0.016915124
2566,-0.030931864
2567,-0.025069358
2568,-0.051854726
2569,-0.046014793
2570,0.0061920183
2571,-0.012140684
2572,-0.036819555
2573,-0.0065784003
2574,0.04156352
2575,-0.021878868
2576,-0.05653958
2577,-0.011861918
2578,0.0014018982
2579,-0.00035571263
2580,-0.007192871
2581,0.06834656
2582,0.0047995294
2583,3.7840684e-05
2584,-0.004237596
2585,0.082300715
2586,-0.017762512
2587,-0.014534214
2588,-0.06294925
2589,-0.02004265
2590,-0.008649624
2591,0.11081664
2592,-0.0029283708
2593,0.0018395956
2594,-0.04154592
2595,-0.08673561
2596,-0.02790921
2597,0.04963388
2598,-0.0069178827
2599,0.05057759
2600,-0.004174502
2601,-0.0030304177
2602,-0.006122083
2603,-0.03533279
2604,-0.03792463
2605,-0.0034467161
2606,-0.010748004
2607,-0.11556896
2608,-0.007101865
2609,-0.0011605878
2610,0.01771895
2611,0.023225017
2612,-0.008550169
2613,-0.021832103
2614,-0.037095714
2615,-0.035206415
2616,0.03953665
2617,-0.0004058481
2618,-0.011205761
2619,0.12367685
2620,-0.026870519
2621,0.006876176
2622,-0.00043170646
2623,0.036588162
2624,0.10350182
2625,-0.04012409
2626,0.061630316
2627,0.07585134
2628,0.029114699
2629,0.003909654
2630,0.003566537
2631,-0.0033762201
2632,-0.0065000607
2633,0.044340294
2634,-0.0063172476
2635,-0.013510604
2636,0.010561186
2637,0.0003620284
2638,-0.011357068
2639,0.011285661
2640,0.006242519
2641,-0.019022543
2642,-0.013150639
2643,0.028943025
2644,0.079124436
2645,0.008298109
2646,0.0062791375
2647,-0.0067866324
2648,0.115384236
2649,0.08745775
2650,0.00755335
2651,-0.00362234
2652,-0.039776135
2653,-0.0055536698
2654,0.0034336743
2655,0.0113839125
2656,0.080204286
2657,0.014322457
2658,-0.031762794
2659,-0.04864138
2660,-0.01488404
2661,0.024932219
2662,0.049274635
2663,-0.01020889
2664,0.039600573
2665,-0.0006859453
2666,-0.0059711076
2667,0.011230971
2668,0.032842524
2669,-0.0003996446
2670,-0.029678833
2671,0.008782558
2672,0.026894322
2673,-0.022575203
2674,-0.046604533
2675,-0.0176247
2676,-0.093577504
2677,-0.11729705
2678,0.0040030647
2679,3.1447067e-05
2680,0.1096326
2681,0.074571446
2682,-0.022795321
2683,-0.075461455
2684,0.056265805
2685,-0.0035788466
2686,-0.0038371112
2687,-0.008020394
2688,-0.038557272
2689,0.009327193
2690,-0.007138908
2691,0.0045980187
2692,0.007290203
2693,-0.0073112566
2694,-0.017104749
2695,-0.02417792
2696,-0.01967276
2697,-0.025278214
2698,-0.037310768
2699,0.00292945
2700,0.023361206
2701,-0.0017513081
2702,-0.017959045
2703,0.013893196
2704,-0.028813992
2705,0.009801878
2706,-0.004287088
2707,-0.010581438
2708,0.0015825357
2709,0.009608954
2710,-0.010232858
2711,0.0021210292
2712,0.006881736
2713,-0.0144335795
2714,0.010299059
2715,0.0057453485
2716,-0.008916741
2717,-0.036991626
2718,0.012529661
2719,-0.0013540032
2720,0.019358577
2721,-0.008236496
2722,0.007947636
2723,-0.034633894
2724,-0.020847972
2725,-0.0027604974
2726,-0.019637864
2727,0.011318718
2728,-0.0019661882
2729,0.015948847
2730,-0.009463734
2731,0.014618737
2732,-0.017441476
2733,-0.014602015
2734,0.0082032215
2735,-0.04272464
2736,0.0058316025
2737,-0.022535672
2738,-0.005327954
2739,-0.033064425
2740,-0.049858302
2741,-0.025070619
2742,-0.0043978305
2743,-0.008083179
2744,-0.011456106
2745,-0.037896346
2746,-0.00078516454
2747,-0.030049996
2748,0.0049954997
2749,-0.0058074435
2750,-0.021565728
2751,-0.0043125986
2752,-0.020706989
2753,0.005357605
2754,0.005716512
2755,-0.011564988
2756,-0.032423392
2757,0.0028762517
2758,0.009859392
2759,-0.015416377
2760,0.0017278644
2761,0.0041441293
2762,-0.021889899
2763,-0.02171662
2764,-0.03063416
2765,-0.0043118685
2766,-0.054171573
2767,-0.028174624
2768,-0.049761727
2769,0.007103273
2770,-0.0029650782
2771,-0.017135719
2772,-0.030332316
2773,-0.0062575485
2774,-0.019221552
2775,-0.022717217
2776,-0.0042334106
2777,-0.014922758
2778,-0.006867227
2779,-0.023561614
2780,0.00055116124
2781,0.0009557748
2782,-0.009819497
2783,0.0073138573
2784,-0.019327559
2785,0.009118224
2786,0.008397683
2787,0.020400621
2788,0.010652617
2789,0.0031159746
2790,-0.018160613
2791,0.008799378
2792,-0.011863882
2793,-0.033297535
2794,-0.0067023905
2795,-0.006207891
2796,-0.020582687
2797,-0.023791164
2798,-0.0369667
2799,-0.013333053
2800,0.018521791
2801,-0.022462241
2802,-0.015104109
2803,-0.012399231
2804,-0.015739204
2805,-0.033171233
2806,-0.023892676
2807,-0.0239276
2808,-0.0043172445
2809,0.042217053
2810,0.0022831475
2811,0.0071040257
2812,-0.0107458215
2813,0.002504963
2814,-0.004494574
2815,-0.012624381
2816,-0.012458601
2817,-0.00086368946
2818,-0.009894629
2819,0.016042016
2820,0.024555488
2821,0.010315594
2822,-0.02465146
2823,-0.02722607
2824,0.030957216
2825,-0.027975837
2826,0.019724164
2827,-0.011343519
2828,-0.016851489
2829,-0.002814421
2830,0.0032838967
2831,-0.034468334
2832,0.011148827
2833,0.0004097726
2834,-0.013726781
2835,-0.012279869
2836,-0.007900439
2837,0.005135078
2838,-0.002584436
2839,-0.032797873
2840,0.0055482755
2841,-0.09460206
2842,-0.0058392994
2843,-0.021368863
2844,0.020432288
2845,-0.010819756
2846,-0.046269853
2847,-0.062229834
2848,-0.07576352
2849,0.0161195
2850,-0.024098393
2851,0.0006667222
2852,-0.02231785
2853,-0.05837625
2854,0.002766514
2855,-0.044480633
2856,-0.0064330734
2857,-0.047787167
2858,-0.008858378
2859,-0.022689221
2860,0.004302147
2861,-0.025342124
2862,-0.0125516085
2863,0.006978442
2864,-0.063345864
2865,-0.018733751
2866,0.030427363
2867,0.029416002
2868,-0.0026564985
2869,-0.015555694
2870,-0.015831968
2871,-0.0011770041
2872,-0.0802682
2873,0.002801303
2874,-0.04178019
2875,-0.059083138
2876,-0.06624303
2877,-0.016633186
2878,-0.027247459
2879,-0.068249844
2880,-0.058594912
2881,-0.063258216
2882,-0.020988207
2883,-0.0437472
2884,-0.009709453
2885,0.024942353
2886,0.027206967
2887,-0.004127245
2888,-0.011203485
2889,-0.06755168
2890,-0.013806022
2891,-0.011681085
2892,-0.0059916885
2893,-0.0064247646
2894,0.018274019
2895,0.002832648
2896,0.05061513
2897,-0.039840493
2898,-0.012259147
2899,0.03984783
2900,-0.09469809
2901,0.024206512
2902,0.033670656
2903,0.00059341645
2904,-0.06890107
2905,-0.028311234
2906,-0.012170533
2907,-0.004321539
2908,-0.040961377
2909,0.004086404
2910,0.0131028285
2911,-0.08758943
2912,-0.07973559
2913,-0.06309834
2914,-0.05176629
2915,-0.04068217
2916,-0.0117277205
2917,0.0003898487
2918,-0.05497427
2919,-0.026904473
2920,-0.01654373
2921,-0.014388075
2922,-0.021136994
2923,0.0057452195
2924,-0.016871868
2925,-0.014080093
2926,-0.022891108
2927,-0.05158028
2928,-0.06758315
2929,0.015964082
2930,0.011408491
2931,-0.018297348
2932,0.0093731135
2933,-0.00071407715
2934,-0.009711343
2935,-0.018912496
2936,-0.034495044
2937,-0.017784916
2938,-0.0351928
2939,-0.014201927
2940,-0.053516813
2941,-0.002606578
2942,0.00055867457
2943,-0.000818719
2944,0.006712081
2945,0.016110448
2946,-0.030521687
2947,0.0033006305
2948,-0.0052934
2949,0.024519037
2950,-0.050986007
2951,0.015193866
2952,-0.00537704
2953,0.0034056988
2954,0.03419607
2955,-0.0085353
2956,-0.0053191744
2957,0.008807963
2958,-0.019931758
2959,-0.01135941
2960,-0.047014136
2961,-0.016988324
2962,0.012634708
2963,-0.010168316
2964,-0.013240217
2965,0.0067333966
2966,-0.013321644
2967,-0.005854144
2968,-0.0065451837
2969,-0.006432304
2970,-0.0297563
2971,0.0054956917
2972,-0.00959418
2973,0.0043065376
2974,0.014213329
2975,-0.035760075
2976,-0.018753648
2977,-0.016847
2978,-0.012470557
2979,-0.019446382
2980,-0.03080409
2981,-0.010944536
2982,0.0017707447
2983,0.0032214643
2984,-0.011815419
2985,0.004441287
2986,-0.008723696
2987,-0.020905752
2988,-0.00682983
2989,0.0022472807
2990,-0.0026865853
2991,-0.06341428
2992,-0.008907527
2993,0.009440715
2994,0.007712671
2995,0.053342186
2996,-0.0057654907
2997,-0.032760363
2998,-0.006913299
2999,0.00066502404
3000,-0.00065251614
3001,-0.013198063
3002,-0.02405222
3003,-0.014991125
3004,0.000720431
3005,0.013245922
3006,0.018323757
3007,-0.0072364723
3008,-0.029755428
3009,0.0026939495
3010,0.010563545
3011,-0.042610977
3012,-0.0038498503
3013,0.0028742254
3014,0.03544931
3015,-0.0053658336
3016,-0.016359955
3017,-0.024812317
3018,-0.021314902
3019,-0.029962385
3020,-0.004915182
3021,0.018329268
3022,0.012453224
3023,-0.036637623
3024,0.05550567
3025,-0.026666015
3026,-0.0095769875
3027,0.043225944
3028,-0.020036472
3029,0.036429856
3030,0.009838965
3031,-0.002325933
3032,-0.032864004
3033,-0.012626975
3034,-0.01030329
3035,-0.007033379
3036,0.008845833
3037,-0.016256325
3038,0.0060432516
3039,-0.006321203
3040,-0.017075151
3041,-0.0063656215
3042,-0.026684262
3043,-0.022578847
3044,0.008077364
3045,-0.006240185
3046,-0.0048959367
3047,0.0037176157
3048,-0.019997112
3049,-0.012743742
3050,0.0020428642
3051,0.011882621
3052,0.010455603
3053,-0.009019587
3054,-0.02858897
3055,0.004237093
3056,-0.022457805
3057,-0.046776548
3058,-0.020522429
3059,-0.008538993
3060,-0.0014889971
3061,0.0043844
3062,-0.0043305145
3063,0.0032349871
3064,-0.0070197503
3065,0.016318727
3066,-0.008517282
3067,0.00845581
3068,0.0005689034
3069,-0.0013237933
3070,-0.00031034942
3071,0.0033437237
3072,0.002679074
3073,-0.016551608
3074,0.0030279786
3075,-0.024383977
3076,0.030631397
3077,-0.00041405257
3078,0.010053333
3079,-0.03885683
3080,0.029720152
3081,0.015688572
3082,-0.004731815
3083,-0.015238629
3084,-0.001419313
3085,0.007206753
3086,0.009429049
3087,-0.019289177
3088,0.0030617737
3089,-0.017183006
3090,0.0050453697
3091,-0.009613008
3092,-0.017245755
3093,-0.006412506
3094,-6.896182e-05
3095,0.020940226
3096,-0.015726311
3097,0.0009043558
3098,-0.025704611
3099,-0.010531851
3100,-0.014548316
3101,-0.037981067
3102,-0.0009622183
3103,0.0067791156
3104,-0.05521314
3105,-0.022882473
3106,-0.010081062
3107,-0.0020616031
3108,-0.023247717
3109,0.011588429
3110,0.01518751
3111,0.013865967
3112,-0.00874573
3113,-0.005983229
3114,-0.036790993
3115,-0.038523912
3116,-0.0017646448
3117,-0.031536568
3118,-0.0014019567
3119,-0.010560599
3120,-0.019481355
3121,-0.038435988
3122,-0.003972053
3123,-0.01639476
3124,-0.011637398
3125,-0.000143029
3126,-0.014982266
3127,0.011252168
3128,0.0074615823
3129,0.015010324
3130,-0.0016577237
3131,0.013105018
3132,-0.0076120635
3133,-0.01571346
3134,0.0014829119
3135,-0.004898057
3136,0.0036460103
3137,0.0075859
3138,-0.01502395
3139,0.0027413643
3140,-0.0087980535
3141,0.02819806
3142,0.0042515197
3143,-0.024953729
3144,-0.016939817
3145,-0.015866019
3146,0.003994882
3147,-0.008327305
3148,-0.026712293
3149,-0.007303146
3150,-0.00013922574
3151,0.03422523
3152,-0.012058803
3153,-0.028373549
3154,0.0056226947
3155,0.049317647
3156,-0.014780234
3157,0.022754058
3158,0.023791078
3159,-0.015162184
3160,0.018299785
3161,0.0092805885
3162,0.0028123276
3163,-0.006190459
3164,-0.0286321
3165,-0.014090572
3166,-0.018242348
3167,-0.016975377
3168,0.027105339
3169,-0.026159443
3170,-0.013077627
3171,-0.01674982
3172,-0.029951911
3173,-0.0036351127
3174,0.013037413
3175,-0.011210508
3176,-0.008931014
3177,7.694357e-05
3178,-0.024756594
3179,-0.01837303
3180,-0.032420456
3181,-0.017689615
3182,-0.016475864
3183,-0.0069524758
3184,-0.034334257
3185,-0.025001911
3186,0.003824236
3187,-0.030467344
3188,-0.021393009
3189,0.004297074
3190,-0.0036953506
3191,-0.026950046
3192,-0.041686703
3193,-0.01283028
3194,-0.03911907
3195,-0.030744394
3196,0.012684379
3197,0.014546944
3198,0.010475262
3199,-0.033215083
3200,0.019114979
3201,-0.028065024
3202,0.032129496
3203,-0.023209406
3204,0.03354129
3205,-0.00784554
3206,0.013018819
3207,-0.024524093
3208,-0.0037243231
3209,0.0061357925
3210,-0.012265034
3211,-0.0018889076
3212,0.0035462936
3213,-0.008329506
3214,-0.005257928
3215,0.025810432
3216,-0.0017297193
3217,-0.023175314
3218,-0.004129904
3219,0.009687091
3220,0.0013435979
3221,0.031166166
3222,-0.014458157
3223,-0.006262
3224,-0.017790552
3225,-0.021410959
3226,-0.009871109
3227,0.007872977
3228,-0.028324308
3229,0.012907147
3230,-0.006169265
3231,0.022788096
3232,0.0033352962
3233,-0.0017847366
3234,0.023590986
3235,-0.010801311
3236,-0.014543812
3237,0.023997555
3238,0.0024649089
3239,0.0045687496
3240,0.0180826
3241,0.02181322
3242,-0.027158039
3243,-0.0029766557
3244,-0.016503226
3245,0.007379716
3246,0.0043671266
3247,-0.0018998281
3248,0.009218562
3249,-0.0070010466
3250,-0.009958481
3251,-0.008738658
3252,0.009492474
3253,0.005920166
3254,-0.01091624
3255,-0.017008994
3256,0.0050308355
3257,0.04391407
3258,-0.015732564
3259,0.0022648151
3260,-0.009884092
3261,0.013695113
3262,-0.0120681785
3263,0.010134184
3264,0.010858957
3265,-0.00090653554
3266,0.036661398
3267,0.0077636535
3268,0.0104498975
3269,0.013468248
3270,-0.061113905
3271,-0.008370347
3272,-0.0003614755
3273,0.023019947
3274,-0.014978381
3275,-0.022141133
3276,0.010077401
3277,0.017966291
3278,0.027023828
3279,0.016157493
3280,-0.004700349
3281,-0.012325339
3282,-0.0042947475
3283,0.047558837
3284,0.028664276
3285,0.018846486
3286,0.0020638497
3287,0.017580066
3288,0.021680482
3289,0.023966262
3290,0.012774131
3291,0.0050078374
3292,-0.038126536
3293,-0.002241593
3294,-0.005418739
3295,0.0013317327
3296,0.019687355
3297,-0.0010231909
3298,0.010800159
3299,-0.0003928177
3300,-0.02467017
3301,0.006112745
3302,-0.013743669
3303,0.006570882
3304,0.0009961698
3305,-0.008824508
3306,0.0030586564
3307,-0.0006861235
3308,-0.0588225
3309,-0.007089301
3310,-0.004526777
3311,-0.012228063
3312,0.009090363
3313,0.010037413
3314,-0.003008627
3315,-0.0019494907
3316,-0.0020252853
3317,-0.00162932
3318,8.425957e-06
3319,-0.006881978
3320,0.0069463053
3321,0.000780469
3322,0.011160185
3323,-0.004811019
3324,0.008140809
3325,0.0047852634
3326,-0.008911171
3327,-0.03229712
3328,-0.02402923
3329,0.08251892
3330,-0.0020464282
3331,0.052556243
3332,0.055973418
3333,-0.058542967
3334,-0.005731025
3335,0.046023283
3336,0.014267874
3337,0.00975231
3338,-0.07435919
3339,0.007846041
3340,-0.047656123
3341,-0.007121179
3342,-0.038865883
3343,-0.08068565
3344,0.0001803427
3345,0.063962266
3346,0.014667173
3347,0.00864837
3348,-0.0017010019
3349,-0.013973465
3350,0.018699853
3351,0.06639027
3352,0.06854496
3353,-0.0810738
3354,0.06354208
3355,-0.014549202
3356,-0.016599197
3357,0.018720845
3358,-0.05079831
3359,-0.0077674505
3360,-0.091227286
3361,0.027256666
3362,-0.11239595
3363,-0.010523289
3364,0.0005299924
3365,-0.04440965
3366,-0.0066852914
3367,-0.039719865
3368,0.006381968
3369,-0.07391548
3370,0.06416174
3371,-0.024049796
3372,0.009797036
3373,-0.0038715163
3374,0.083891004
3375,0.0029880186
3376,-0.07167129
3377,0.010609904
3378,0.03291586
3379,-0.066960886
3380,-0.063011
3381,-0.005495444
3382,0.04123662
3383,-0.04290649
3384,-0.04219052
3385,-0.046009105
3386,-0.062018648
3387,-0.004791282
3388,-0.07760441
3389,0.03459118
3390,-0.042558685
3391,-0.052968185
3392,0.0040111984
3393,-0.050149854
3394,-0.018427232
3395,-0.026857983
3396,-0.0075931246
3397,-0.034933332
3398,-0.086872466
3399,-0.011023792
3400,-0.022945914
3401,-0.029554993
3402,-0.01436548
3403,0.010387123
3404,0.0021191845
3405,-0.004480465
3406,-0.089457504
3407,0.025261883
3408,-0.09374956
3409,-0.06536022
3410,0.010807947
3411,-0.030184507
3412,-0.012514246
3413,0.0019903556
3414,-0.0060903127
3415,-0.019652849
3416,0.023024213
3417,0.02138054
3418,0.010733209
3419,0.009210091
3420,0.044606905
3421,0.012930851
3422,-0.013228926
3423,-0.088945106
3424,-0.033264793
3425,-0.062410228
3426,-0.039167296
3427,-0.043062948
3428,0.06085159
3429,-0.0018661775
3430,-0.027331917
3431,0.0023366394
3432,-0.007055943
3433,-0.026290359
3434,-0.0276375
3435,-0.020279827
3436,-0.018967403
3437,0.015437316
3438,-0.013128104
3439,-0.017756365
3440,-0.08154268
3441,-0.001245657
3442,-0.008460539
3443,0.061086778
3444,-0.014757093
3445,-0.010065505
3446,-0.0062507656
3447,-0.0015790418
3448,-0.01230271
3449,-0.006345556
3450,-0.061438315
3451,-0.08046926
3452,-0.014757055
3453,-0.0015062802
3454,0.0007113205
3455,0.097565845
3456,-0.01519333
3457,-0.036622237
3458,0.010009411
3459,-0.017925728
3460,-0.08595785
3461,0.03173842
3462,-0.0019762677
3463,-0.017907172
3464,-0.078364044
3465,-0.008859038
3466,0.0011780018
3467,-0.01547751
3468,0.002936156
3469,0.007947183
3470,-0.026207259
3471,-0.0027970078
3472,-0.0031587782
3473,-0.0011466832
3474,-0.0008842964
3475,0.0057950346
3476,0.015099374
3477,-0.010055628
3478,-0.01972873
3479,-0.01457934
3480,-0.05416525
3481,0.014194954
3482,-0.0019463844
3483,-0.00072202366
3484,-0.018998038
3485,0.00087350333
3486,0.001608855
3487,0.041421052
3488,0.0018972752
3489,-0.013363354
3490,-0.04295343
3491,-0.039690025
3492,-0.0059848162
3493,0.02858014
3494,-0.0067689857
3495,0.015081489
3496,-0.0022220279
3497,0.01527652
3498,-0.010073269
3499,-0.0071650613
3500,0.0019318628
3501,0.019304976
3502,-0.02127593
3503,-0.014919652
3504,-0.0007236542
3505,-0.014518559
3506,-0.06289925
3507,0.0035517607
3508,0.0042527486
3509,-0.028280674
3510,-0.02003199
3511,-0.020263594
3512,0.025264254
3513,-0.019565385
3514,-0.022922525
3515,0.019847557
3516,0.008601702
3517,-0.009823608
3518,-0.0047598276
3519,-0.005225844
3520,0.0025790397
3521,-0.01820699
3522,0.0067319716
3523,-0.018585442
3524,0.014495213
3525,-0.10009552
3526,-0.047575254
3527,0.014893442
3528,0.0029850628
3529,0.050450888
3530,-0.008667812
3531,0.0018715722
3532,0.032443885
3533,0.03235816
3534,0.017213272
3535,0.017614884
3536,0.023862163
3537,-0.033448193
3538,-0.011860858
3539,-0.11018192
3540,0.05401999
3541,-0.10809349
3542,-0.09873373
3543,0.006220839
3544,0.046394195
3545,0.017731395
3546,0.015859181
3547,-0.013750256
3548,-0.037452396
3549,-0.009377094
3550,-0.012720617
3551,0.018580873
3552,0.043050922
3553,-0.00094933645
3554,-0.00478725
3555,0.0016629952
3556,-0.02407643
3557,0.037684463
3558,0.014901946
3559,0.051080335
3560,-0.0013126495
3561,-0.01846493
3562,-0.019902976
3563,0.010883336
3564,0.0031509576
3565,0.013315853
3566,-0.0015256712
3567,0.0026617965
3568,-0.00046676397
3569,0.009753539
3570,-0.013582789
3571,0.006659747
3572,-0.006158569
3573,-0.071902186
3574,0.006502142
3575,-0.055759367
3576,-0.016966214
3577,0.039580423
3578,-0.0130926855
3579,-0.01881497
3580,0.024095127
3581,0.006237535
3582,-0.007087555
3583,-0.0060846205
3584,-0.013307171
3585,-0.012848581
3586,-0.025770292
3587,-0.02056867
3588,0.026289918
3589,-0.0009438936
3590,0.0020787627
3591,-0.0049914704
3592,0.017468408
3593,-0.0063509746
3594,0.007318371
3595,-0.0048129116
3596,0.028935635
3597,-0.0029979886
3598,0.015303036
3599,0.033168226
3600,0.017682323
3601,-0.010747424
3602,-0.00010340514
3603,0.003510665
3604,-0.0024593791
3605,-0.029607348
3606,0.006503206
3607,-0.021461468
3608,-0.02911936
3609,0.036179308
3610,-0.014502113
3611,0.0024249505
3612,0.01108541
3613,-0.011415284
3614,0.024058446
3615,0.0042950697
3616,0.04618569
3617,-0.011472929
3618,0.03844527
3619,-0.005974645
3620,0.013513629
3621,0.014014199
3622,-0.004935104
3623,0.01256352
3624,-0.016970038
3625,0.01373273
3626,-0.017261723
3627,0.022911517
3628,-0.0070830598
3629,-0.006271819
3630,-0.022049189
3631,-0.01166569
3632,0.020496288
3633,0.00571262
3634,0.014031644
3635,0.01331009
3636,0.0055924994
3637,0.0049414686
3638,0.009497447
3639,0.0126387
3640,0.0053964625
3641,0.018583167
3642,0.02952395
3643,-0.0044850837
3644,0.04778782
3645,-0.00471366
3646,0.06609656
3647,0.013653282
3648,-0.009658905
3649,0.042936884
3650,-0.022192873
3651,0.0032054377
3652,-0.011281803
3653,0.036865402
3654,-0.0025541126
3655,-0.002152718
3656,-0.0051967725
3657,0.0095305815
3658,-0.01872264
3659,-0.021149673
3660,-0.02421663
3661,-0.026365895
3662,0.026751926
3663,0.027003769
3664,0.012691274
3665,0.024313282
3666,0.0009138675
3667,0.034186043
3668,0.009492789
3669,0.039675023
3670,0.035191517
3671,-0.0015030814
3672,-0.024762357
3673,-0.004392897
3674,0.00056974107
3675,-0.001594624
3676,0.0076702675
3677,-0.015863635
3678,-0.010558504
3679,0.026963415
3680,-0.0019099283
3681,0.022517996
3682,0.016834725
3683,0.02912831
3684,0.012302416
3685,-0.022916581
3686,0.013394512
3687,0.00010589506
3688,0.023858763
3689,-0.006785008
3690,0.042460218
3691,0.001163199
3692,-0.0053151804
3693,-0.009448715
3694,-0.003752767
3695,0.028313572
3696,0.024531549
3697,0.008914969
3698,-0.007053863
3699,-0.018775854
3700,0.0075220936
3701,0.011569123
3702,-0.008049817
3703,0.027113654
3704,-0.03008067
3705,-0.00536154
3706,0.008286829
3707,0.010551229
3708,0.0018552033
3709,-0.008752075
3710,-0.013574172
3711,-0.01805744
3712,-0.034388542
3713,-0.010304338
3714,-0.02159952
3715,-0.01362805
3716,0.056698725
3717,0.016488113
3718,0.007088101
3719,-0.007302139
3720,0.016681792
3721,-0.018344732
3722,0.014531464
3723,-0.0099968705
3724,0.025823586
3725,-0.019327266
3726,0.016659861
3727,0.014938287
3728,-0.0031816429
3729,-0.018501027
3730,0.0085621
3731,0.0052826437
3732,-0.008615114
3733,0.0014735751
3734,-0.00027102657
3735,-0.012187837
3736,-0.009918133
3737,0.011318747
3738,-0.005652396
3739,-0.0012584286
3740,-0.0109659005
3741,-0.035283733
3742,0.028818903
3743,0.009574201
3744,0.019579438
3745,-0.023010278
3746,0.007347181
3747,-0.019087704
3748,0.014879006
3749,0.018800516
3750,0.0006342917
3751,0.0005453044
3752,-0.008798377
3753,0.003610603
3754,-0.010214173
3755,0.0136191845
3756,-0.013109571
3757,-0.025587695
3758,-0.012791409
3759,-0.021376349
3760,0.017294228
3761,-0.02232704
3762,0.028988808
3763,0.00939481
3764,-0.00057233695
3765,-0.0054868427
3766,-0.011003217
3767,-0.035664976
3768,0.027038518
3769,0.026185896
3770,0.02524371
3771,0.02028558
3772,0.017524034
3773,-0.010129145
3774,0.022743493
3775,0.030893508
3776,-0.0028519367
3777,0.0108512305
3778,-0.0013082429
3779,0.020052817
3780,-0.041496295
3781,0.0355384
3782,0.011047329
3783,-0.014652611
3784,-0.008055079
3785,-0.0029700557
3786,-0.018810954
3787,-0.017955042
3788,-0.012646514
3789,-0.0135846
3790,0.02181914
3791,0.00572095
3792,0.008126426
3793,0.043804236
3794,-0.0050730244
3795,0.05499867
3796,0.011467653
3797,0.02519241
3798,0.034796745
3799,-0.020720206
3800,0.0208909
3801,0.005275174
3802,0.0072437823
3803,-0.005029073
3804,-0.019065907
3805,0.0017665782
3806,0.012905273
3807,0.027027247
3808,0.012133996
3809,0.020497749
3810,0.01370611
3811,0.010320435
3812,-0.032493025
3813,-0.030280761
3814,0.002076211
3815,-0.010180433
3816,0.008609883
3817,-0.019102948
3818,0.02165894
3819,-0.0141604515
3820,-0.0008241943
3821,-0.020041816
3822,-0.013565264
3823,0.037145637
3824,0.008378873
3825,0.0028657885
3826,-0.026179325
3827,-0.028549809
3828,-0.030713327
3829,0.014943464
3830,0.0029622423
3831,0.011635365
3832,0.003337539
3833,-0.013169978
3834,0.033545963
3835,-0.012337982
3836,0.013497193
3837,-0.006734861
3838,-0.0032477938
3839,-0.0064437874
3840,-0.033537246
3841,-0.026012717
3842,-0.012746623
3843,0.027766272
3844,-0.09026061
3845,-0.036594167
3846,0.0029023716
3847,-0.005189413
3848,-0.1319949
3849,-0.0152438395
3850,-0.013941709
3851,0.006206823
3852,0.010677096
3853,-0.011267123
3854,0.0023351586
3855,0.006873491
3856,-0.028080892
3857,0.023138238
3858,-0.009816227
3859,-0.012672489
3860,0.0036234506
3861,0.039771892
3862,-0.007907354
3863,0.011644407
3864,0.033083882
3865,0.0617962
3866,0.046376597
3867,-0.0011300577
3868,-0.030147227
3869,-0.057753988
3870,0.016979853
3871,0.072190784
3872,0.0227664
3873,0.014157728
3874,0.024382526
3875,-0.023035154
3876,-0.031117337
3877,0.03016268
3878,0.013962756
3879,0.013817362
3880,-0.0073341844
3881,0.0075561902
3882,0.08414524
3883,0.005123502
3884,-0.018228183
3885,0.05731777
3886,0.028811017
3887,-0.026368028
3888,-0.0021725968
3889,-0.04238541
3890,-0.0651113
3891,-0.036302604
3892,0.021517582
3893,-0.018807517
3894,0.024195513
3895,-0.01680428
3896,0.03369127
3897,-0.0640875
3898,-0.0019660317
3899,0.055435993
3900,0.041023873
3901,-0.00279125
3902,0.017861577
3903,0.025261035
3904,0.03679215
3905,0.024624387
3906,0.036742408
3907,0.04352846
3908,-0.024698725
3909,-0.19235593
3910,-0.065624274
3911,0.010870084
3912,-0.012700619
3913,0.04901423
3914,0.0087678
3915,-0.014356189
3916,-0.0068625174
3917,0.06975065
3918,-0.04260676
3919,-0.041057996
3920,-0.02840501
3921,-0.0057236142
3922,-0.0005306535
3923,-0.20552269
3924,0.056402255
3925,-0.21297644
3926,-0.12454565
3927,-0.009604812
3928,0.04649552
3929,0.01518021
3930,-0.008138276
3931,-0.032661527
3932,0.006930636
3933,-0.0052762586
3934,-0.024838272
3935,0.043596473
3936,0.05847126
3937,0.036778923
3938,0.009936098
3939,0.016462551
3940,-0.012642964
3941,-0.027740119
3942,0.03565132
3943,0.03839056
3944,0.0074423887
3945,-0.02252996
3946,-0.0059190574
3947,-0.0047413507
3948,0.0018278586
3949,-0.019555409
3950,-0.006819544
3951,0.04092918
3952,0.026212446
3953,-0.0072695822
3954,-0.027667852
3955,0.1274012
3956,-0.028502006
3957,-0.07509985
3958,-0.010300776
3959,-0.011284092
3960,0.08027054
3961,0.04355804
3962,0.018243536
3963,0.0066556167
3964,0.05676533
3965,0.012242152
3966,0.0025703572
3967,0.07862181
3968,-0.053000562
3969,-0.024565462
3970,-0.01613574
3971,0.009245047
3972,0.06981937
3973,-0.0010963508
3974,0.015362081
3975,-0.0009657208
3976,0.04153559
3977,-0.014981709
3978,0.015967762
3979,0.008173418
3980,-0.03900046
3981,-0.0060240543
3982,0.015189487
3983,-0.030724363
3984,-0.007552807
3985,0.041021157
3986,-0.017842744
3987,0.002012546
3988,-0.014601493
3989,-0.010994311
3990,-0.0011480749
3991,-0.025826804
3992,0.034151517
3993,-0.017319035
3994,0.04142423
3995,0.00032391172
3996,-0.015991684
3997,-0.010847479
3998,-0.02406229
3999,-0.010211987
4000,-0.033590052
4001,-0.0037283578
4002,-0.00882047
4003,-0.025443036
4004,0.0028218585
4005,-0.001586198
4006,-0.004600501
4007,-0.0067261592
4008,0.0007281098
4009,-0.036281023
4010,-0.010406941
4011,-0.016231673
4012,-0.007077762
4013,-0.007374354
4014,-0.028345354
4015,0.008564586
4016,0.007517527
4017,-0.023400404
4018,0.045394316
4019,-0.0035134067
4020,0.018407945
4021,0.0053753094
4022,-0.009411746
4023,-0.016546562
4024,-0.013424348
4025,0.063246556
4026,-0.008744496
4027,0.014483862
4028,-0.011962276
4029,-0.029368276
4030,-0.0124220755
4031,-0.0015477296
4032,0.006736209
4033,-0.02562725
4034,-0.00054938
4035,0.006554758
4036,-0.038482226
4037,0.040818337
4038,-0.01560314
4039,-0.01591987
4040,-0.023938654
4041,-0.0071370797
4042,-0.005265144
4043,-0.017521795
4044,-0.034213614
4045,-0.0024890753
4046,0.020650133
4047,0.024148136
4048,0.020609515
4049,0.0006126006
4050,0.005376346
4051,0.05753417
4052,-0.007588534
4053,0.05937863
4054,0.026201189
4055,-0.012883272
4056,0.016131977
4057,0.014053231
4058,-0.012663044
4059,-0.009720289
4060,0.02218551
4061,0.0065653846
4062,0.0077916184
4063,-0.01473803
4064,-0.0060094334
4065,-0.013231805
4066,-0.015793215
4067,-0.014734148
4068,-0.026878245
4069,-0.023803152
4070,-0.013182995
4071,-0.00909677
4072,0.012413278
4073,-0.018681755
4074,0.011064611
4075,-0.010751751
4076,-0.0033880442
4077,-0.039970934
4078,-0.018750701
4079,-0.0011578281
4080,-0.0051972023
4081,0.025841366
4082,-0.010288797
4083,-0.0011322618
4084,-0.021165334
4085,0.011757852
4086,-0.00078337546
4087,-0.008155309
4088,-0.018177131
4089,0.013584246
4090,-0.023955027
4091,-0.027768202
4092,-0.015653212
4093,-0.015226646
4094,0.0020983214
4095,0.002657776
4096,-0.011076411
4097,-0.011317301
4098,0.013630675
4099,-0.009287538
4100,0.06000952
4101,0.015049272
4102,-0.0036556288
4103,-0.057255957
4104,0.052735247
4105,-0.011534232
4106,-0.00059463567
4107,-0.0007768698
4108,-0.010723048
4109,-0.005003039
4110,-0.020132
4111,0.009692993
4112,0.0027574874
4113,0.0069786725
4114,0.0016182947
4115,-0.010168136
4116,-0.0012206744
4117,-0.0120850485
4118,-0.002715393
4119,-0.022225132
4120,0.00022072167
4121,-0.036043163
4122,0.0152386185
4123,0.0048548933
4124,0.041729096
4125,-0.00017711955
4126,-0.011918409
4127,-0.0112433955
4128,-0.0377214
4129,-0.019495228
4130,-0.0142850755
4131,-0.019606108
4132,-0.0019568726
4133,-0.016563704
4134,-0.0075524244
4135,-0.0081454255
4136,0.040024474
4137,0.00087597745
4138,-0.0067858296
4139,0.009387481
4140,0.02465451
4141,-0.012558242
4142,0.0029629357
4143,0.0148620745
4144,-0.022180809
4145,-0.05050927
4146,0.031416938
4147,-0.007367694
4148,-0.006219559
4149,0.00899912
4150,-0.01746548
4151,0.032960787
4152,-0.0059164665
4153,0.024556778
4154,-0.012401452
4155,-0.0077797696
4156,-0.02534488
4157,-0.012123728
4158,-0.02362039
4159,-0.0115607
4160,0.0020861635
4161,-0.00905453
4162,-0.022229321
4163,-0.012922304
4164,-0.013478631
4165,0.040862013
4166,-0.021877129
4167,-0.01403154
4168,-0.0026655868
4169,-0.02566831
4170,0.0018949783
4171,0.0051315734
4172,-0.022026198
4173,-0.036085635
4174,0.009055007
4175,0.04869878
4176,0.020961996
4177,-0.011859278
4178,0.003147857
4179,0.063253246
4180,-0.010959707
4181,0.050702076
4182,0.047706075
4183,-0.0010268922
4184,-0.019692369
4185,-0.007896608
4186,0.012297708
4187,0.0075743054
4188,-0.061769754
4189,-0.0035207085
4190,-0.014894844
4191,-0.0061720572
4192,-0.02253481
4193,-0.011533111
4194,-0.019052451
4195,-0.0019093407
4196,-0.047164507
4197,-0.006944445
4198,-0.008315431
4199,-0.00094486575
4200,-0.0220676
4201,-0.00092532777
4202,-0.029034406
4203,0.00063010503
4204,-0.035548173
4205,-0.034674343
4206,-0.023531523
4207,-0.009358494
4208,-0.023755724
4209,-0.008935422
4210,0.031760387
4211,-0.02540076
4212,0.036204968
4213,0.015132711
4214,-0.0024425902
4215,-0.022465074
4216,-0.038049836
4217,-0.0063122264
4218,-0.032133754
4219,0.017542098
4220,-0.0053527076
4221,-0.009953361
4222,-0.008743589
4223,-0.004481511
4224,-0.026723314
4225,0.028523413
4226,0.0239327
4227,0.0041653677
4228,0.019934336
4229,0.035607427
4230,-0.0014657327
4231,-0.03691131
4232,0.042511027
4233,-0.0011631731
4234,0.016512714
4235,0.009484558
4236,-0.024931828
4237,-0.00079598825
4238,-0.025315134
4239,-0.024493404
4240,0.049995534
4241,0.030970363
4242,-0.0022291425
4243,-0.004001241
4244,0.0038819734
4245,-0.011556007
4246,-0.0070728115
4247,-0.006708727
4248,0.01158797
4249,-0.08452736
4250,0.019244444
4251,0.01943081
4252,0.038336363
4253,0.029596692
4254,-0.055771377
4255,-0.087904684
4256,-0.057684626
4257,0.005595635
4258,-0.016633898
4259,0.023884688
4260,-0.04123545
4261,-0.08614082
4262,0.0109961685
4263,-0.058677487
4264,0.0024294332
4265,-0.043420363
4266,0.04235651
4267,-0.0034702155
4268,0.034291964
4269,-0.03411717
4270,0.0017160876
4271,0.013089166
4272,-0.03517538
4273,-0.0306216
4274,0.004073901
4275,0.020560093
4276,0.014529686
4277,-0.020898012
4278,0.008533398
4279,0.060134776
4280,-0.05642001
4281,-0.018661836
4282,-0.018285377
4283,-0.09885434
4284,-0.06219732
4285,-0.0017681349
4286,-0.029418519
4287,-0.08721703
4288,-0.075010344
4289,-0.08919343
4290,-0.019636497
4291,-0.045273557
4292,-0.003064993
4293,0.015825974
4294,0.018188754
4295,0.00024222922
4296,-0.012452807
4297,-0.06541905
4298,0.0026839515
4299,-0.00014290953
4300,-0.007892722
4301,-0.044531025
4302,0.018461352
4303,0.03673325
4304,-0.0052869385
4305,-0.014616352
4306,0.0069676857
4307,0.03374153
4308,-0.06985049
4309,0.0636329
4310,0.022545744
4311,-0.0053901067
4312,-0.06548731
4313,-0.078794785
4314,-0.0040552258
4315,-0.017698517
4316,-0.00070882443
4317,-0.005044124
4318,-0.025346255
4319,-0.057282463
4320,-0.057548355
4321,-0.054310538
4322,-0.037361503
4323,-0.024346173
4324,-0.029315174
4325,-0.018634325
4326,-0.047712564
4327,-0.040396616
4328,-0.030072121
4329,0.0014130018
4330,-0.017191287
4331,0.018525107
4332,-0.08917213
4333,-0.05307034
4334,-0.007441379
4335,-0.008891977
4336,-0.0736459
4337,-0.03553078
4338,0.01816736
4339,0.0075764214
4340,0.06015549
4341,0.021020662
4342,-0.0035588215
4343,-0.029067278
4344,-0.02987133
4345,-0.030380966
4346,-0.04907717
4347,0.02778341
4348,-0.03407947
4349,0.0023949384
4350,-0.011355761
4351,0.0345514
4352,-0.011512797
4353,0.007741227
4354,-0.049944382
4355,0.04197746
4356,-0.007747883
4357,-0.0654826
4358,-0.059364572
4359,0.04325721
4360,-0.031609993
4361,-0.02828557
4362,-0.016055204
4363,0.016679697
4364,0.040304765
4365,-0.0021810997
4366,-0.02339135
4367,0.009722398
4368,-0.017064514
4369,0.010959578
4370,-0.004209498
4371,0.01220989
4372,0.0090521
4373,-0.010103923
4374,-0.0171551
4375,0.07304734
4376,0.053495936
4377,0.02900058
4378,0.05411158
4379,-0.013918741
4380,-0.0070835156
4381,-0.017845873
4382,0.03752285
4383,-0.01746659
4384,0.029330486
4385,0.019460084
4386,0.03284912
4387,-0.029942049
4388,-0.0533261
4389,-0.009237216
4390,0.016358085
4391,0.0022221562
4392,-0.038827457
4393,0.02585209
4394,0.03631899
4395,0.028081385
4396,0.0033552893
4397,0.004871503
4398,0.07422748
4399,-0.04132429
4400,0.0046678227
4401,-0.003379522
4402,-0.020244038
4403,0.028575541
4404,-0.03696922
4405,-0.04149075
4406,0.028850837
4407,0.009252165
4408,-0.012877038
4409,-0.02799229
4410,0.0056218887
4411,-0.018499887
4412,0.03580835
4413,0.018458072
4414,-0.007014316
4415,0.0204023
4416,-0.03473778
4417,0.028729038
4418,-0.008569765
4419,-0.00045899936
4420,-0.01836876
4421,-0.040026978
4422,-0.03224472
4423,0.0010416848
4424,-0.018791873
4425,-0.0056152055
4426,-0.027593521
4427,-0.030064696
4428,0.003445736
4429,0.027902756
4430,-0.015665516
4431,-0.11408066
4432,-0.026158828
4433,0.025731059
4434,0.004356858
4435,-0.039910004
4436,-0.044688135
4437,-0.04967744
4438,-0.022402283
4439,-0.0077912663
4440,-0.02785885
4441,-0.05495434
4442,-0.012742161
4443,-0.019934427
4444,0.028412119
4445,0.008126722
4446,0.011860582
4447,0.035630237
4448,-0.013948453
4449,0.036538888
4450,0.016781336
4451,0.029584235
4452,0.030120315
4453,-0.015286468
4454,-0.018182572
4455,0.023497395
4456,-0.06610181
4457,-0.026408337
4458,-0.0047715153
4459,-0.011619391
4460,0.026415862
4461,-0.012293034
4462,-0.01957558
4463,-0.0047781896
4464,0.027530927
4465,-0.06481056
4466,-0.0327823
4467,0.030197244
4468,0.0047169602
4469,-0.042444624
4470,0.0016674895
4471,0.011134116
4472,0.024204269
4473,0.0128096435
4474,0.02081237
4475,0.03444664
4476,-0.02652039
4477,-0.008274575
4478,-0.008877637
4479,0.032125805
4480,-0.06108288
4481,-0.0012307338
4482,-0.036409155
4483,-0.007930458
4484,-0.035485156
4485,0.014761975
4486,-0.022991035
4487,-0.02533028
4488,-0.049734727
4489,-0.0032906458
4490,0.00071676425
4491,-0.001073162
4492,-0.07944411
4493,0.000299218
4494,0.0134714125
4495,-0.040982164
4496,-0.03193794
4497,0.0076413862
4498,-0.010333472
4499,-0.004533142
4500,-0.01001063
4501,0.00587521
4502,0.003924917
4503,-0.049123164
4504,-0.023787126
4505,-0.057637814
4506,-0.0036688852
4507,0.0020785998
4508,-0.037790556
4509,-0.07092118
4510,-0.046326917
4511,-0.0262745
4512,-0.07157308
4513,-0.0022193321
4514,-0.034189418
4515,-0.0030583865
4516,-0.047145255
4517,-0.03869768
4518,0.010355996
4519,-0.034987204
4520,-0.023536172
4521,-0.070007384
4522,0.030444853
4523,-0.05993205
4524,-0.008185446
4525,0.06675497
4526,-0.06183158
4527,-0.022348737
4528,-0.023899281
4529,-0.044641446
4530,-0.026312547
4531,0.032256093
4532,0.0030627705
4533,-0.019075444
4534,-2.6555186e-05
4535,-0.014230671
4536,-0.014983421
4537,0.013447918
4538,-0.023302622
4539,-0.022042094
4540,-0.061524607
4541,-0.021132652
4542,-0.017102897
4543,-0.045215815
4544,-0.03913853
4545,-0.08012204
4546,-0.0012122057
4547,-0.025302837
4548,-0.007168762
4549,-0.07205356
4550,0.011487016
4551,-0.017398942
4552,-0.005418177
4553,-0.02820895
4554,0.0014226744
4555,-0.018273734
4556,-0.025430685
4557,0.066619985
4558,0.01910716
4559,-0.03778013
4560,0.009288371
4561,-0.036505632
4562,-0.0124375755
4563,-0.031530637
4564,-0.050293133
4565,-0.03235682
4566,-0.030217368
4567,-0.01429134
4568,-0.012010129
4569,-0.010988979
4570,-0.011908627
4571,-0.03652338
4572,-0.02194113
4573,0.0010548232
4574,-0.0034784887
4575,-0.061746996
4576,-0.02316283
4577,-0.07465343
4578,-0.05566552
4579,-0.042715747
4580,-0.026121633
4581,-0.012566892
4582,-0.047844145
4583,0.07154496
4584,-0.033710618
4585,-0.025915185
4586,-0.026704056
4587,-0.008006513
4588,-0.051602464
4589,-0.06128411
4590,-0.01567296
4591,-0.0291915
4592,-0.044797793
4593,-0.0135665685
4594,-0.018681541
4595,0.03762784
4596,0.0023768875
4597,-0.0040372987
4598,-0.0014164589
4599,-0.02177612
4600,-0.015896134
4601,0.053407494
4602,-0.056112956
4603,-0.057985455
4604,-0.029486887
4605,-0.0024246112
4606,-0.001590014
4607,0.020900128
4608,-0.036546692
4609,0.02321285
4610,0.0060556633
4611,0.004895047
4612,-0.023488937
4613,-0.031866707
4614,-0.022509659
4615,0.003844554
4616,-0.0081526665
4617,-0.026745984
4618,-0.028100148
4619,-0.007236229
4620,0.027744068
4621,-0.010190714
4622,-0.03175869
4623,0.018532615
4624,0.025432993
4625,0.057945967
4626,0.0053843595
4627,-0.009172839
4628,-0.00042442125
4629,-0.016118
4630,-0.021035427
4631,0.024770971
4632,0.020718362
4633,0.02866464
4634,0.07247583
4635,0.0040543634
4636,0.023658024
4637,0.016679376
4638,0.030124284
4639,0.02694889
4640,0.042832013
4641,0.011815673
4642,0.025799064
4643,0.012326767
4644,-0.029768486
4645,0.019086149
4646,0.0010395191
4647,0.0033397933
4648,-0.0145068625
4649,0.015763626
4650,0.094934106
4651,0.02079565
4652,0.0240462
4653,0.034572106
4654,0.042692617
4655,-0.00032394202
4656,0.012794164
4657,0.011216479
4658,-0.015440427
4659,-0.044123445
4660,-0.032279488
4661,-0.04049374
4662,0.025183942
4663,0.002548673
4664,0.020778103
4665,-0.064127706
4666,-0.0049534254
4667,0.018939018
4668,0.021670505
4669,0.013518937
4670,0.0054975175
4671,0.02048983
4672,0.011366545
4673,0.03908472
4674,-0.002730981
4675,-0.035201
4676,-0.024707772
4677,-0.065429546
4678,-0.1080227
4679,-0.008492
4680,0.0009245785
4681,0.031054912
4682,-0.010105048
4683,0.0003747027
4684,-0.029056353
4685,0.030602569
4686,-0.051532153
4687,0.0064592524
4688,-0.031416703
4689,0.0053685373
4690,0.0032471393
4691,-0.097940505
4692,0.031159926
4693,-0.05276685
4694,-0.040832795
4695,0.005686738
4696,0.0056064604
4697,0.00029302624
4698,-0.019602714
4699,0.009358898
4700,0.01009846
4701,-0.005631853
4702,0.006523215
4703,0.017734129
4704,0.020565879
4705,0.02519944
4706,0.017689934
4707,0.0053586303
4708,0.04170404
4709,-0.015029348
4710,0.018043786
4711,0.050035823
4712,-0.007568552
4713,-0.015875513
4714,-0.0077283713
4715,-0.0039549535
4716,0.011945058
4717,-0.039916344
4718,-0.00696282
4719,-0.0032991108
4720,0.009603643
4721,-0.022249887
4722,0.027161602
4723,0.09293327
4724,0.03992923
4725,-0.024482682
4726,0.008819367
4727,0.0011148319
4728,0.0043377546
4729,0.021711472
4730,0.006791066
4731,0.03505259
4732,0.019341659
4733,-0.02201827
4734,-0.013979283
4735,0.08822868
4736,-0.01826903
4737,-0.01893759
4738,-0.015022391
4739,-0.075193256
4740,-0.08902603
4741,-0.042697035
4742,-0.025764734
4743,-0.0036231508
4744,-0.21343878
4745,-0.038460966
4746,-0.02912026
4747,-0.0023146446
4748,-0.054944325
4749,0.008436933
4750,-0.01720074
4751,-0.033445727
4752,0.002155309
4753,0.012748787
4754,0.0024993168
4755,-0.015522891
4756,-0.0068002134
4757,-0.011331314
4758,0.0023378325
4759,-0.007229229
4760,-0.03426705
4761,-0.022193497
4762,0.0073241564
4763,-0.024438206
4764,0.015783397
4765,-0.031482022
4766,-0.059838925
4767,-0.032484088
4768,-0.03835421
4769,-0.009511759
4770,-0.04627925
4771,0.0011427902
4772,-0.026801545
4773,-0.04118036
4774,-0.007558634
4775,-0.050047312
4776,-0.037920944
4777,-0.04264526
4778,0.018344203
4779,-0.04259237
4780,-0.008543441
4781,0.062212657
4782,-0.011429032
4783,-0.03707664
4784,-0.046918306
4785,-0.023561506
4786,-0.12694079
4787,-0.030561015
4788,-0.03728901
4789,-0.020166231
4790,-0.010167595
4791,0.012444694
4792,-0.03693887
4793,0.009562152
4794,-0.007658587
4795,-0.043049056
4796,-0.046161506
4797,-0.032574203
4798,-0.0072671683
4799,-0.050541554
4800,-0.034213
4801,-0.054906882
4802,-0.013074829
4803,-0.026827725
4804,-0.03846903
4805,-0.027055629
4806,-0.036847476
4807,-0.009672191
4808,-0.011838168
4809,-0.051070128
4810,-0.016690671
4811,-0.025481423
4812,-0.023286393
4813,0.0960632
4814,-0.012458141
4815,-0.013603923
4816,0.0027691144
4817,0.06149472
4818,-0.005646785
4819,-0.11401468
4820,-0.04273441
4821,-0.2225168
4822,-0.17929319
4823,-0.029873518
4824,-0.012970065
4825,-0.022963114
4826,-0.0072985827
4827,-0.03631511
4828,-0.021687133
4829,-0.021230867
4830,-0.0010752222
4831,-0.045100387
4832,-0.031308096
4833,-0.051788494
4834,-0.06381497
4835,-0.028260302
4836,-0.024668982
4837,-0.039104722
4838,-0.01850482
4839,0.12588896
4840,-0.025483644
4841,-0.0015504311
4842,0.009720982
4843,0.010576194
4844,0.082175665
4845,-0.012295969
4846,-0.023839276
4847,0.001440301
4848,-0.049232155
4849,-0.015709609
4850,-0.015034298
4851,0.048156574
4852,-0.0046015433
4853,-0.07392426
4854,0.0072312206
4855,-0.0041062273
4856,-0.019200742
4857,0.061028253
4858,-0.047871478
4859,-0.0127990395
4860,-0.019793406
4861,0.015356741
4862,-0.009050446
4863,-0.003270954
4864,-0.034575995
4865,-0.051324207
4866,-0.056017235
4867,-0.062072407
4868,0.02511433
4869,-0.008483855
4870,0.004396626
4871,-0.008292399
4872,0.009688306
4873,0.00922753
4874,0.028884295
4875,0.013137384
4876,-0.0005031642
4877,-0.0030996315
4878,0.03235913
4879,0.014626968
4880,0.019653535
4881,-0.033548422
4882,0.0024325831
4883,0.0095933145
4884,-0.012401873
4885,0.00061918003
4886,-0.01002517
4887,-0.061486807
4888,-0.03747178
4889,-0.016361153
4890,-0.05256281
4891,0.0011819709
4892,0.0058704433
4893,0.006510639
4894,0.013896152
4895,-0.0060281074
4896,-0.0047075218
4897,-0.0080412235
4898,0.013200414
4899,-0.007253142
4900,0.01036588
4901,-0.006563881
4902,0.013800067
4903,0.03610154
4904,-0.017795468
4905,0.01787002
4906,-0.015254002
4907,0.013777966
4908,-0.0032109637
4909,0.019115977
4910,-0.038026858
4911,-0.02499821
4912,0.008852872
4913,-0.020646831
4914,0.008658589
4915,0.024408054
4916,0.030135542
4917,0.030295145
4918,-0.027660234
4919,-0.009690094
4920,-0.0051398184
4921,0.03822787
4922,0.018981198
4923,-0.026753576
4924,0.0025520602
4925,-0.03225219
4926,-0.013251734
4927,0.024403047
4928,0.0009831009
4929,0.011910527
4930,-0.005887932
4931,-0.015553653
4932,-0.016383914
4933,-0.0040557324
4934,-0.012838906
4935,-0.0040328517
4936,-0.0053051813
4937,-0.027765075
4938,-0.0031783215
4939,0.006966561
4940,-0.0117983
4941,0.009437138
4942,0.06380823
4943,-0.057951793
4944,0.062428556
4945,0.027080195
4946,0.007829413
4947,0.03668296
4948,-0.052261803
4949,0.030848518
4950,0.020184759
4951,-0.004115181
4952,-0.02618596
4953,-0.012344734
4954,0.00087364495
4955,0.005286572
4956,-0.0037490935
4957,0.009536829
4958,3.8307364e-05
4959,0.006907961
4960,-0.015842538
4961,0.00032635228
4962,0.030323248
4963,0.012453289
4964,-0.021286013
4965,-0.01820403
4966,0.012406277
4967,-0.0077494727
4968,0.011094201
4969,0.02796175
4970,0.016737571
4971,-0.008457505
4972,0.008084726
4973,-0.010726126
4974,-0.007030079
4975,0.008981763
4976,0.0072320397
4977,0.011638594
4978,0.0045054597
4979,0.0098394705
4980,0.0027861637
4981,0.0057313195
4982,-0.0007000791
4983,0.008150919
4984,0.0025645655
4985,0.02750241
4986,0.030407656
4987,0.014583793
4988,-0.005358238
4989,0.014260899
4990,-0.00093411497
4991,-0.015843162
4992,0.022918388
4993,-0.002209531
4994,0.019161884
4995,0.007994551
4996,0.001646484
4997,-0.013272918
4998,-0.011348221
4999,0.024373896
5000,-0.0037337386
5001,-0.024469333
5002,-0.019696439
5003,-0.01054749
5004,-0.00499619
5005,-0.01995864
5006,0.00011305179
5007,-0.0023485303
5008,0.0032315697
5009,0.03227848
5010,-0.005641753
5011,-0.005052369
5012,0.009660127
5013,-0.015615307
5014,0.020427015
5015,0.011201545
5016,-0.026169416
5017,0.028701209
5018,0.003676816
5019,-0.00966937
5020,-0.0048298547
5021,0.022827739
5022,0.008835381
5023,0.0066709635
5024,0.00017490923
5025,0.009974764
5026,0.006633841
5027,-0.018380394
5028,0.020235445
5029,0.025731856
5030,-0.004700171
5031,-0.0037071353
5032,0.026495835
5033,-0.001508868
5034,0.03509358
5035,0.010474742
5036,-0.011812404
5037,0.074622385
5038,0.0041459063
5039,-0.008478581
5040,-0.005860808
5041,0.024196662
5042,0.017427495
5043,-0.014961709
5044,-0.031917788
5045,0.023750875
5046,0.004184226
5047,-0.017565241
5048,0.02850128
5049,-0.025056576
5050,0.022753814
5051,-0.003381066
5052,0.03144651
5053,-0.022747638
5054,0.04229977
5055,-0.001485531
5056,-0.012888207
5057,-0.012651142
5058,0.0026096026
5059,-0.024079522
5060,0.018529328
5061,-0.028378766
5062,0.012213976
5063,-0.025257647
5064,-0.014203835
5065,0.020756558
5066,0.005472523
5067,-0.0084380815
5068,0.0119744195
5069,0.10396203
5070,-0.0424239
5071,0.04043535
5072,-0.0117081255
5073,0.008952122
5074,-0.012958049
5075,-0.001342566
5076,0.033327483
5077,-0.009073265
5078,-0.04040722
5079,-0.016632395
5080,0.022061571
5081,-0.0014423653
5082,-0.004386462
5083,0.008544775
5084,0.022783084
5085,-0.0006335267
5086,0.0039793435
5087,0.008533991
5088,0.026249968
5089,0.0112488065
5090,-0.0024085674
5091,-0.0035740081
5092,0.019043209
5093,0.023555327
5094,0.027299987
5095,0.06915178
5096,0.05084712
5097,0.0018434478
5098,0.03424624
5099,-0.0044813827
5100,0.05982694
5101,0.018756703
5102,-0.010001945
5103,0.036388565
5104,-0.0014633674
5105,0.02634045
5106,-0.0070555275
5107,0.01744985
5108,-0.020728482
5109,-0.032776177
5110,-0.008154019
5111,0.024764176
5112,-0.030808555
5113,0.028150557
5114,0.02470949
5115,-0.012725383
5116,0.02653448
5117,-0.016474638
5118,0.0009155331
5119,0.00039221687
5120,0.016342353
5121,-0.029036887
5122,0.025046527
5123,0.024606263
5124,0.11606833
5125,-0.024900112
5126,0.022754103
5127,0.026215767
5128,0.08229502
5129,0.03788584
5130,0.077055566
5131,-0.004411771
5132,0.060189307
5133,0.011550642
5134,0.07068266
5135,0.05107511
5136,0.037423495
5137,-0.046035413
5138,-0.015904235
5139,-0.003853276
5140,0.0014192006
5141,0.0044554714
5142,0.0021034204
5143,0.033298846
5144,0.03915696
5145,0.08155037
5146,-0.007896587
5147,0.014087791
5148,0.04333645
5149,0.03229664
5150,0.052640717
5151,0.027367348
5152,0.048670694
5153,0.0090813
5154,0.10039626
5155,0.004217282
5156,0.05065646
5157,0.058957677
5158,-0.013307422
5159,0.07815811
5160,0.013563601
5161,0.058148466
5162,-0.057176273
5163,0.05594836
5164,0.018975066
5165,-0.031311605
5166,0.024420787
5167,0.0019811913
5168,0.061805617
5169,0.02259948
5170,0.044174906
5171,0.077616245
5172,0.032707356
5173,0.04695825
5174,0.015062689
5175,0.03580609
5176,0.06946113
5177,0.03899044
5178,0.102974944
5179,0.030326683
5180,0.07179339
5181,0.009379287
5182,0.11299308
5183,0.05764291
5184,0.03177504
5185,0.057778798
5186,-0.00063148886
5187,0.023017565
5188,0.0077836034
5189,0.056116976
5190,-0.05888103
5191,0.013796727
5192,-0.012519458
5193,0.05507812
5194,-0.008916157
5195,0.014384312
5196,0.013182861
5197,-0.013062139
5198,0.027507598
5199,0.01860202
5200,0.049959272
5201,0.06906884
5202,0.007952726
5203,0.108150266
5204,0.048836213
5205,0.09800524
5206,0.10179993
5207,-0.001103866
5208,0.0066283867
5209,0.031892903
5210,-0.0042363354
5211,0.04967259
5212,0.010095028
5213,0.014229645
5214,0.0032793265
5215,0.08651335
5216,0.05647862
5217,0.060383998
5218,0.03548991
5219,0.022235272
5220,0.02963634
5221,0.015538329
5222,0.069082774
5223,-0.047045942
5224,0.070133455
5225,0.053482994
5226,0.10177466
5227,0.019712254
5228,0.02590135
5229,0.011866452
5230,0.047722157
5231,0.10275219
5232,0.079857
5233,0.060352035
5234,0.03240467
5235,-0.056259442
5236,0.035047304
5237,0.009214833
5238,-0.023769075
5239,0.067791834
5240,0.014968393
5241,-0.021687007
5242,0.06455095
5243,0.06780194
5244,0.045653723
5245,0.01641397
5246,-0.019361472
5247,-0.08824639
5248,-0.018500624
5249,-0.022401158
5250,0.0015020991
5251,0.010843348
5252,0.021609437
5253,0.013612746
5254,-0.028944215
5255,-0.05083172
5256,0.015387465
5257,-0.014802161
5258,-0.0038529257
5259,0.0030486668
5260,-0.024847468
5261,-0.017390642
5262,-0.028408416
5263,-0.03780768
5264,-0.06529362
5265,-0.010669777
5266,-0.0144051965
5267,-0.00043438826
5268,-0.0007499181
5269,-0.016310913
5270,0.0032453192
5271,-0.005165925
5272,0.014020298
5273,-0.033023585
5274,-0.019231288
5275,0.002887213
5276,-0.033237867
5277,-0.0076362044
5278,-0.037710328
5279,-0.053028796
5280,-0.08793439
5281,-0.0058971643
5282,-0.026666474
5283,-0.021437876
5284,-0.047299035
5285,-0.05490968
5286,-0.0034936673
5287,-0.03948007
5288,0.004458872
5289,-0.03581306
5290,-0.00016784601
5291,-0.060514852
5292,-0.0046320343
5293,-0.022486778
5294,0.026468026
5295,-0.013552862
5296,-0.05122307
5297,-0.040301062
5298,0.010526171
5299,-0.0042992006
5300,-0.010940856
5301,-0.022771316
5302,-0.05573199
5303,-0.018204963
5304,-0.0465824
5305,0.041235622
5306,-0.022815073
5307,-0.03878356
5308,-0.041936215
5309,-0.0067545865
5310,-0.032495305
5311,-0.055166595
5312,-0.041758265
5313,-0.038467728
5314,-0.008927503
5315,-0.040952984
5316,-0.003458433
5317,0.019586178
5318,0.00019554864
5319,-0.0054070316
5320,-0.02629234
5321,-0.05204861
5322,-0.009229453
5323,-0.02976139
5324,0.00045048434
5325,0.0064949407
5326,0.023538653
5327,0.02424121
5328,0.0075038252
5329,-0.038688812
5330,0.0036388454
5331,0.035998978
5332,-0.016124727
5333,0.03460956
5334,0.021685606
5335,0.0018560281
5336,-0.025540836
5337,-0.05899289
5338,-0.00952903
5339,-0.022415124
5340,-0.05737151
5341,-0.005955611
5342,0.0075167865
5343,-0.049231276
5344,-0.057294123
5345,-0.07203041
5346,-0.06550156
5347,-0.061380424
5348,-0.03889399
5349,-0.008292818
5350,-0.03309116
5351,-0.022744996
5352,-0.015509444
5353,-0.019180384
5354,-0.024890304
5355,0.010115828
5356,-0.034062628
5357,-0.025457617
5358,-0.035784665
5359,-0.057542212
5360,-0.07314411
5361,-0.00953742
5362,-0.028913852
5363,-0.025364997
5364,-0.011885938
5365,-0.017231377
5366,-0.0024980572
5367,-0.039380148
5368,-0.013244973
5369,-0.008487422
5370,-0.07336468
5371,-0.03530761
5372,-0.042689532
5373,-0.014140769
5374,-0.010026173
5375,-0.019914139
5376,-0.00891512
5377,0.007405096
5378,-0.008941642
5379,-0.006782691
5380,0.015282058
5381,0.013950244
5382,-0.030260136
5383,-0.017052054
5384,0.019597722
5385,-0.024080606
5386,0.02442167
5387,-0.0042217164
5388,0.025590293
5389,-0.006560016
5390,-0.008626373
5391,-0.0073782653
5392,-0.0005356809
5393,-0.015970772
5394,-0.0040794183
5395,-0.0089214025
5396,-0.0151317045
5397,-0.023001667
5398,0.0013199412
5399,-0.025868282
5400,-0.019469943
5401,0.033409677
5402,-0.020246016
5403,-0.0011385216
5404,0.0012464271
5405,0.0072376765
5406,0.014173456
5407,-0.005289364
5408,0.020485869
5409,-0.015736489
5410,0.030201755
5411,0.004974789
5412,-0.01322623
5413,-0.017443493
5414,-0.008298581
5415,0.015652645
5416,0.00037478187
5417,0.019319287
5418,-0.005318398
5419,0.012317102
5420,-0.016347988
5421,-0.005054715
5422,-0.0077982987
5423,-0.003041163
5424,0.016517572
5425,0.0023243446
5426,0.015298554
5427,0.057728775
5428,-0.019544365
5429,-0.0046328143
5430,-0.02328503
5431,-0.014923349
5432,0.0085682925
5433,0.017468449
5434,0.0112847565
5435,-0.019742414
5436,0.012583541
5437,-0.004450665
5438,0.049188763
5439,0.018478153
5440,-0.026073102
5441,-0.004227673
5442,-0.0032720033
5443,-0.013570716
5444,-0.021796945
5445,0.018916257
5446,0.001324219
5447,-0.027049975
5448,-0.018672494
5449,0.025395183
5450,0.006469745
5451,-0.014090888
5452,0.001714954
5453,-0.006094455
5454,0.017927416
5455,-0.012336676
5456,0.05577459
5457,-0.0037380722
5458,0.013009149
5459,0.019714942
5460,-0.0059955665
5461,0.028116513
5462,0.026019765
5463,-0.00086819136
5464,-0.02792207
5465,-0.044913147
5466,0.0069750696
5467,-0.017589156
5468,-0.0032083546
5469,-0.005807446
5470,0.013535345
5471,0.009859572
5472,-0.009658984
5473,0.020595128
5474,0.008981844
5475,9.562631e-06
5476,0.00773647
5477,0.0011178834
5478,0.016383158
5479,-0.000995693
5480,-0.016167402
5481,-0.020884257
5482,0.019298978
5483,-0.010461966
5484,-0.00019558887
5485,7.6549186e-05
5486,0.0045698686
5487,0.03721672
5488,0.01623742
5489,0.0026236526
5490,-0.02474462
5491,0.0007211464
5492,-0.0013038106
5493,-0.009007469
5494,-0.0025046815
5495,-0.0033094897
5496,-0.016084805
5497,-0.0288185
5498,0.005790054
5499,0.0006383906
5500,0.015180246
5501,-0.028868597
5502,0.008738398
5503,-0.029926589
5504,-0.021853589
5505,0.0102059925
5506,-4.4023298e-05
5507,0.008657227
5508,0.043505847
5509,0.02938229
5510,-0.010010258
5511,-0.024533235
5512,0.024995094
5513,-0.011081014
5514,-0.0070236577
5515,-0.011185068
5516,-0.027790612
5517,0.003317078
5518,-0.0009843475
5519,-0.035314016
5520,-0.042054836
5521,0.016348863
5522,0.0029280728
5523,-0.0059729163
5524,0.0066823787
5525,-0.018499542
5526,-0.017418005
5527,-0.0135545805
5528,-0.0059776795
5529,-0.011688145
5530,0.00046099434
5531,-0.008258633
5532,-0.013443615
5533,-0.02609058
5534,-0.019007072
5535,0.001198587
5536,-0.049464967
5537,-0.0071266517
5538,-0.0024799483
5539,-0.029701736
5540,-0.040482614
5541,-0.025347045
5542,-0.015454876
5543,-0.011867001
5544,-0.03068856
5545,-0.011470949
5546,0.021885447
5547,-0.06808448
5548,-0.012476462
5549,0.034380514
5550,-0.030975387
5551,-0.043240055
5552,-0.037781183
5553,-0.022311373
5554,0.0071649295
5555,0.03043816
5556,0.0028631545
5557,-0.04940695
5558,-0.040158622
5559,0.0004983153
5560,-0.0024463856
5561,0.040818032
5562,-0.020048955
5563,-0.010976176
5564,-0.022542054
5565,-0.03352127
5566,0.009886952
5567,-0.022791037
5568,-0.010706793
5569,-0.016309833
5570,-0.015179699
5571,0.0023823963
5572,-0.0091443965
5573,0.040449534
5574,0.014136422
5575,-0.017565541
5576,-0.013002063
5577,-0.0045843306
5578,-0.013501396
5579,-0.020456063
5580,-0.012923603
5581,0.04850222
5582,0.024011927
5583,-0.013822747
5584,0.021399384
5585,-0.026490038
5586,-0.0020463776
5587,0.04931127
5588,-0.028761277
5589,0.027561892
5590,0.026116798
5591,0.004233131
5592,-0.012793754
5593,0.01240186
5594,0.0023085799
5595,-0.03575919
5596,-0.042616613
5597,-0.019592648
5598,-0.033121806
5599,-0.020495392
5600,-0.010388663
5601,-0.053295135
5602,-0.08014715
5603,-0.04721567
5604,-0.013963383
5605,-0.024047403
5606,0.018547418
5607,0.021870006
5608,-0.022666307
5609,-0.014201742
5610,0.0056346566
5611,-0.006889624
5612,0.038823232
5613,-0.017338214
5614,-0.03041861
5615,-0.0020787634
5616,-0.027528606
5617,-0.05305725
5618,-0.015539846
5619,0.016128285
5620,0.005542658
5621,0.015020341
5622,-0.0036666624
5623,-0.0026908831
5624,-0.0076098293
5625,0.024519537
5626,-0.045330122
5627,-0.01838893
5628,0.00010463208
5629,-0.0070958026
5630,-0.00997511
5631,0.012234993
5632,0.0060296264
5633,0.003837249
5634,0.058359124
5635,0.0072689494
5636,0.019280637
5637,0.017699998
5638,0.004722307
5639,-0.056307595
5640,0.011398101
5641,-0.025763879
5642,0.0116049815
5643,-0.005194546
5644,-0.03522441
5645,-0.0022263704
5646,-0.0149679165
5647,0.0003027876
5648,0.033193916
5649,-0.0057928455
5650,0.0077089095
5651,-0.0023907525
5652,0.00301306
5653,0.017802339
5654,-0.023152055
5655,0.0015333274
5656,0.0029950943
5657,-0.009547209
5658,0.033564948
5659,0.004470485
5660,0.038800683
5661,0.016829686
5662,-0.023733435
5663,0.020390816
5664,-0.059006363
5665,-0.037620794
5666,-0.04189679
5667,0.020722667
5668,-0.024519533
5669,0.01112112
5670,-0.0034606778
5671,-0.020314641
5672,0.014667537
5673,-0.05301568
5674,0.004968237
5675,-0.0015623155
5676,0.017244658
5677,0.0025524427
5678,0.019269496
5679,0.011434026
5680,-0.023959547
5681,-0.03442128
5682,-0.010975575
5683,-0.0066782488
5684,0.01913203
5685,-0.001832786
5686,0.00012691907
5687,0.031353064
5688,0.010763242
5689,0.040002253
5690,-0.029664626
5691,0.012938231
5692,-0.035980046
5693,0.000984339
5694,-0.05256254
5695,-0.02931741
5696,0.007212658
5697,-0.056203768
5698,0.019605275
5699,0.017782545
5700,-0.017416768
5701,0.048899278
5702,-0.014533068
5703,-0.004123227
5704,-0.010555412
5705,0.025972648
5706,-0.009746286
5707,-0.014677831
5708,-0.008288221
5709,0.021670675
5710,0.0036519177
5711,0.07344411
5712,-0.010176694
5713,-0.035304673
5714,-0.01793259
5715,0.04185374
5716,0.028383484
5717,0.0146966195
5718,0.003943069
5719,-0.0012607914
5720,0.042826615
5721,0.013043169
5722,-0.0071275844
5723,-0.013940148
5724,-0.032647066
5725,-0.0037499059
5726,-0.036490127
5727,-0.02816075
5728,0.014497409
5729,-0.0332969
5730,-0.036287304
5731,-0.047882505
5732,-0.004875771
