Sno,Weight
0,0.053179223
1,-0.009582519
2,-0.018901495
3,0.04535052
4,-0.05166668
5,0.04166856
6,-0.0461589
7,-0.02009427
8,0.024868088
9,0.038293768
10,0.03776618
11,0.038876403
12,-0.03397352
13,0.010481087
14,0.01698252
15,0.037652317
16,0.018483924
17,0.020647448
18,0.02117918
19,0.018407239
20,0.0011763871
21,0.01924106
22,-0.0011421802
23,-0.014240054
24,0.022178683
25,-0.0062078494
26,-0.023471056
27,0.04601059
28,0.002951792
29,-0.027604619
30,0.050572515
31,-0.05079116
32,-0.03232538
33,-0.05481442
34,0.025277585
35,0.014295854
36,-0.0041425545
37,0.0031859996
38,-0.0015763863
39,-0.01551932
40,-0.06884214
41,0.0357804
42,0.038089547
43,-0.061225664
44,-0.049209237
45,-0.04397145
46,0.034231737
47,0.0380664
48,0.037788082
49,0.0009960919
50,-0.009666993
51,0.018302135
52,-0.05053039
53,-0.0028635338
54,0.034558788
55,-0.0030855718
56,-0.01116567
57,0.046757735
58,0.05512858
59,-0.05006377
60,-0.03746808
61,-0.022019941
62,-0.0045260466
63,-0.04401149
64,-0.05031128
65,-0.0272289
66,0.033159327
67,0.041755177
68,0.0344706
69,-0.02724425
70,0.055309992
71,0.015400046
72,0.0015850184
73,-0.051073205
74,0.025858158
75,-0.021640258
76,-0.012250977
77,-0.007016677
78,-0.014178806
79,0.05747659
80,-0.013284171
81,-0.0054680738
82,0.0017146517
83,0.037444785
84,0.010457789
85,-0.011304326
86,0.02413087
87,0.014999586
88,0.047303557
89,0.015244706
90,0.038500074
91,0.00023377256
92,0.04973126
93,0.01870088
94,-0.007478675
95,0.017634246
96,0.011219199
97,-0.04546818
98,0.050178923
99,-0.047315154
100,0.057659168
101,0.010321109
102,0.01729343
103,0.007339153
104,-0.03921706
105,0.030954387
106,-0.040873993
107,-0.016593706
108,-0.0034711696
109,0.02314408
110,0.02510858
111,-0.011933079
112,0.033635177
113,-0.031807378
114,0.043834273
115,0.04270508
116,0.01256443
117,0.026899794
118,0.007984378
119,-0.049051803
120,0.0006259518
121,0.009885835
122,0.021348307
123,0.01872764
124,0.02803993
125,-0.0033852747
126,0.004542298
127,0.017522058
128,0.037296485
129,0.043096915
130,0.0163057
131,0.03680754
132,0.037900575
133,-0.02239774
134,0.005795415
135,0.075299
136,0.019261442
137,0.017647047
138,0.028138204
139,-0.0621445
140,0.03486569
141,0.039475735
142,-0.043512248
143,0.02677376
144,-0.055292625
145,0.020650696
146,-0.053322308
147,-0.017341161
148,-0.06571288
149,0.017995002
150,0.016936842
151,-0.01274325
152,0.028307002
153,0.03356124
154,-0.05964072
155,-0.08159711
156,0.029318133
157,0.019818004
158,0.039158955
159,0.021526376
160,0.039696813
161,0.02654346
162,-0.033156343
163,0.055356335
164,0.070656754
165,-0.08756863
166,0.040733643
167,-0.053446446
168,-0.0077911806
169,0.024678811
170,0.02733635
171,0.055649854
172,0.031871647
173,-0.015568407
174,0.021348003
175,0.01910891
176,-0.04765282
177,0.09440942
178,0.07086901
179,0.013257249
180,0.043455314
181,0.051574968
182,0.03555214
183,0.03879276
184,-0.054615114
185,-0.06996531
186,0.023752976
187,0.0023380748
188,0.01092954
189,0.02325652
190,-0.062326062
191,0.027349316
192,0.019088224
193,0.033264175
194,0.014639035
195,0.009833822
196,0.013157484
197,0.008546312
198,0.021097919
199,0.01341145
200,0.07031593
201,-0.05152749
202,-0.005986207
203,0.041094005
204,0.008513213
205,-0.014964183
206,-0.07292641
207,0.027642766
208,0.047387123
209,0.04214667
210,0.028084712
211,0.046300307
212,0.040507168
213,0.045748115
214,0.035356686
215,0.039010104
216,0.035612315
217,0.025635645
218,-0.002873702
219,0.03166059
220,-0.00050904753
221,-0.00027275563
222,-0.006474372
223,0.014205431
224,0.013367778
225,-0.03997446
226,0.014722215
227,-0.03294893
228,-0.061050862
229,0.023032458
230,0.035104048
231,0.04955746
232,-0.012734758
233,0.038782485
234,0.04761705
235,-0.053457744
236,0.051065985
237,0.040922552
238,-0.03614408
239,0.04547276
240,0.012164921
241,0.03298634
242,0.016549816
243,0.00034306312
244,0.015887517
245,0.028638478
246,-0.05893403
247,-0.019106783
248,-0.04741419
249,0.04023275
250,0.035542
251,0.012714547
252,0.026071925
253,0.0296497
254,0.03011256
255,0.046252403
256,0.009333313
257,-0.045017794
258,0.024044905
259,0.0405401
260,0.04408553
261,0.017275244
262,0.005472527
263,-0.07152066
264,0.0143307345
265,0.01021191
266,0.013091342
267,-0.063190795
268,0.035132986
269,0.036307927
270,0.053791445
271,0.037022557
272,0.06001777
273,0.032972775
274,0.05454258
275,0.019011082
276,-0.06539014
277,0.032188762
278,0.0019926948
279,0.04091511
280,0.033847302
281,0.020093372
282,0.04818578
283,0.030016106
284,0.037183125
285,0.04334293
286,-0.09411998
287,0.029140411
288,0.024162864
289,-0.0030375798
290,0.06544667
291,0.04055505
292,-0.0777204
293,-0.08777445
294,0.027068853
295,-0.052975368
296,-0.08871246
297,0.026163308
298,0.040459156
299,0.055821203
300,0.041496232
301,0.054058205
302,0.019703805
303,0.024529122
304,0.04578043
305,-0.03939108
306,-0.0286136
307,0.017031945
308,0.03905051
309,0.024941843
310,0.01922383
311,0.03429597
312,0.05448936
313,-0.071020745
314,0.05027749
315,-0.009270882
316,0.0028707033
317,0.048641175
318,-0.06329069
319,0.029304609
320,0.018803934
321,0.038898475
322,0.048722837
323,0.039844796
324,0.016707072
325,0.036027536
326,0.021092465
327,0.03227672
328,-0.06940963
329,0.02385804
330,0.03450625
331,0.038551796
332,-0.006739412
333,-0.006789322
334,-0.07031931
335,0.027904317
336,0.038808234
337,0.03585998
338,0.02117949
339,0.027368048
340,0.03753305
341,0.0321882
342,0.026513718
343,0.030939458
344,0.021295842
345,-0.0009022913
346,0.012755769
347,0.04410823
348,0.008304824
349,0.023019059
350,-0.016018664
351,0.033799134
352,0.028075576
353,0.07722258
354,0.014752363
355,0.05209981
356,0.022985533
357,0.023904495
358,0.031241495
359,-0.06315742
360,-0.016001131
361,0.031550676
362,-0.003454238
363,-0.05245603
364,0.051197838
365,0.03254664
366,0.01539797
367,-0.054589752
368,0.020703489
369,0.028319532
370,0.017220067
371,0.0152507
372,0.04152041
373,0.028429316
374,0.048433043
375,0.065901175
376,0.049182665
377,0.042281948
378,0.035131775
379,0.02391163
380,0.022953475
381,0.013156027
382,0.024569355
383,0.024930097
384,-0.03620318
385,0.031245543
386,0.0358555
387,-0.0034865425
388,0.020623105
389,0.02488223
390,-0.0005331774
391,-0.071374565
392,0.024683835
393,0.008280843
394,0.014027964
395,-0.06320303
396,0.025097374
397,-0.0022610084
398,0.003443607
399,0.023873234
400,0.036190964
401,0.030757234
402,0.002488735
403,0.0338436
404,-0.03677718
405,-0.027658911
406,0.047495462
407,0.015276337
408,0.009197003
409,0.00507107
410,0.0195879
411,-0.08151064
412,0.019162567
413,0.038572516
414,-0.09518888
415,0.049084373
416,0.0203144
417,-0.025666533
418,0.036927827
419,-0.064263836
420,-0.07760203
421,0.075704455
422,0.01271155
423,0.06571683
424,0.08035823
425,0.0012301499
426,0.016236527
427,0.046226494
428,-0.049796972
429,0.035738233
430,0.01969822
431,-0.010598728
432,0.013344162
433,-0.04032492
434,0.06751459
435,-0.028517349
436,-0.022280332
437,0.045977466
438,0.0112485355
439,0.0062780334
440,0.035111766
441,-0.070110485
442,0.010238978
443,-0.010203615
444,-0.00559957
445,-0.000860892
446,-0.06273223
447,0.017995682
448,0.01804689
449,0.023675824
450,0.020965192
451,0.003179638
452,-0.019913537
453,-0.016929068
454,-0.050604165
455,0.013273033
456,0.06243169
457,0.023102256
458,-0.0039799404
459,0.037663177
460,-0.008565549
461,-0.012309798
462,-0.073165976
463,0.00621465
464,0.040798284
465,0.03117449
466,0.017272796
467,0.015187008
468,-0.00068578735
469,0.0050271014
470,0.01616382
471,0.018077137
472,0.0083008455
473,0.014728344
474,0.0035208866
475,0.0054543326
476,0.0004093036
477,0.009250659
478,-0.0017083405
479,0.018588996
480,-0.019873455
481,-0.04282284
482,0.004215163
483,0.03206342
484,0.008115862
485,-0.009092325
486,0.016997304
487,0.04935509
488,-0.01451124
489,0.007692269
490,0.025925795
491,0.06925424
492,-0.06718593
493,0.010810927
494,0.004612243
495,0.04554419
496,-0.0016554439
497,0.023803169
498,-0.035488315
499,-0.0025018512
500,-0.056174334
501,-0.029951904
502,0.03589845
503,0.04702713
504,0.02878814
505,0.02718636
506,0.030810943
507,0.0152288005
508,0.020456498
509,0.023589322
510,0.03970896
511,0.028160462
512,-0.037214488
513,-0.037321784
514,0.025353998
515,-0.037727397
516,0.025158005
517,0.0019718169
518,0.05572617
519,0.05341193
520,0.014027302
521,-0.02369524
522,-0.014409901
523,-0.06322432
524,-0.016723987
525,-0.02017733
526,-0.0050115343
527,-0.017540352
528,-0.05551807
529,0.027368793
530,-0.053678863
531,0.0035404004
532,-0.06511778
533,-0.0011725768
534,0.029209891
535,-0.03597247
536,-0.00435752
537,-0.0432587
538,0.013852711
539,-0.0046453765
540,0.02478664
541,0.027380697
542,-0.09459106
543,0.055145256
544,0.03835614
545,-0.025812585
546,-0.042763464
547,-0.064744376
548,0.040386338
549,-0.08725409
550,-0.029519299
551,0.04340791
552,0.14311479
553,-0.0030998294
554,0.019608911
555,-0.04166733
556,0.032423437
557,-0.031615898
558,0.0036142762
559,-0.010181657
560,0.0025694955
561,-0.04466225
562,-0.027870134
563,-0.028757386
564,0.030654345
565,-0.020315498
566,-0.028417708
567,-0.03450538
568,0.020271912
569,-0.004039008
570,-0.011555178
571,-0.029286334
572,-0.022487039
573,0.022928206
574,0.049146753
575,-0.035579775
576,0.05412408
577,-0.03153181
578,-0.020329112
579,-0.01151954
580,0.006782031
581,0.059254505
582,0.0035146368
583,-0.013732089
584,-0.0694993
585,0.029347546
586,0.010871703
587,-0.053135205
588,-0.012646491
589,0.0012737154
590,0.06812789
591,-0.024659498
592,0.0061735907
593,-0.041128498
594,-0.045913246
595,0.014472504
596,0.0027420444
597,-0.018129487
598,-0.002099804
599,-0.017455384
600,-0.018646836
601,-0.013086602
602,0.005797061
603,-0.033560436
604,-0.0011635293
605,-0.014599401
606,-0.001669018
607,-0.019790709
608,0.008044166
609,0.036736093
610,-0.012624575
611,0.008047239
612,-0.0621857
613,-0.026911387
614,0.013852189
615,0.001676189
616,0.044940688
617,0.013104893
618,0.033501126
619,0.042178184
620,-0.06644472
621,-0.01744022
622,0.004266814
623,0.030433439
624,-0.024480809
625,-0.011690137
626,0.007582258
627,-0.03281974
628,0.010267028
629,0.0108140195
630,-0.05825151
631,-0.036706544
632,0.027891938
633,0.026942784
634,-0.018300481
635,-0.012406124
636,-0.047162108
637,-0.04135794
638,-0.040051013
639,0.020910682
640,-0.01745347
641,0.020354098
642,-0.0040113837
643,-0.021584252
644,-0.018451655
645,-0.031713683
646,0.0647439
647,-0.070610106
648,0.0013891867
649,-0.022812637
650,0.012459051
651,-0.007673211
652,-0.0370093
653,-0.017542904
654,-0.043476705
655,-0.03373257
656,-0.016004987
657,-0.00034873578
658,-0.011472967
659,-0.04879443
660,0.07242232
661,-0.014761917
662,-0.050412137
663,-0.03612839
664,-0.037708845
665,0.008828486
666,-0.0035768729
667,-0.04399971
668,-0.0048845154
669,-0.033580467
670,0.03129201
671,-0.0077974736
672,0.0073919487
673,0.027697535
674,-0.028020656
675,-0.03953421
676,-0.0018180287
677,-0.086728245
678,-0.030688208
679,-0.045673974
680,0.07047859
681,-0.00662448
682,-0.0232715
683,-0.05999725
684,0.029625364
685,-0.019356342
686,0.003382424
687,-0.010757723
688,-0.038160082
689,-0.043894853
690,-0.02814447
691,-0.019805934
692,-0.024037318
693,0.005059968
694,-0.028222572
695,0.032706168
696,-0.009971278
697,-0.06997312
698,-0.024502574
699,0.061715215
700,-0.0024472324
701,-0.04403486
702,0.058995582
703,-0.02094524
704,0.00985573
705,-0.023789126
706,-0.029201029
707,-0.03477383
708,-0.011969662
709,-0.027771395
710,-0.046864793
711,-0.035125166
712,-0.0700917
713,-0.051882133
714,-0.020567449
715,-0.05401697
716,-0.004333868
717,-0.005761493
718,-0.07556786
719,-0.007254606
720,-0.042751856
721,-0.0401919
722,-0.046567854
723,-0.018525658
724,-0.032107446
725,-0.011346801
726,-0.029522693
727,-0.020241253
728,0.011459543
729,-0.0227266
730,-0.008931308
731,-0.038430084
732,-0.0042269193
733,0.011669366
734,-0.014279621
735,-0.035538193
736,-0.02017007
737,0.03250465
738,-0.012995635
739,-0.03777608
740,-0.06099318
741,-0.030929703
742,-0.02163296
743,-0.062115166
744,-0.018992886
745,-0.008557842
746,-0.010693388
747,-0.042631745
748,-0.05202226
749,0.008037918
750,-0.03521141
751,-0.055422105
752,-0.010434567
753,-0.0017744637
754,-0.047552593
755,-0.03643082
756,-0.0012021733
757,-0.03157549
758,-0.012078993
759,-0.02154359
760,-0.026846025
761,-0.028606985
762,-0.020727407
763,-0.02633209
764,-0.04663763
765,-0.041243996
766,-0.048237026
767,-0.026254851
768,-0.023062969
769,-0.04451944
770,-0.029666208
771,-0.02891453
772,-0.01704211
773,-0.019975383
774,0.0055642673
775,-0.058741353
776,-0.016120607
777,-0.024013046
778,-0.041436575
779,-0.0067750625
780,-0.035126016
781,-0.029030431
782,-0.043672945
783,-0.022594227
784,-0.047141086
785,-0.041850083
786,-0.054296777
787,-0.03411656
788,-0.06548593
789,-0.026802154
790,-0.029605431
791,-0.03597142
792,-0.04799941
793,-0.031291123
794,-0.017911285
795,-0.052537832
796,-0.0327642
797,-0.0341421
798,-0.078397855
799,-0.001344366
800,-0.008390428
801,-0.002375271
802,-0.033145323
803,-0.03595933
804,-0.065211594
805,-0.05160758
806,-0.035404045
807,-0.053366903
808,-0.015464041
809,-0.036070596
810,-0.02313969
811,-0.060647167
812,-0.04654846
813,-0.009320757
814,-0.011273534
815,-0.009901798
816,-0.04774134
817,-0.0065948535
818,-0.028106814
819,-0.027803894
820,-0.0001745474
821,-0.04468196
822,-0.033710446
823,-0.035022736
824,-0.008291833
825,-0.0034127124
826,-0.023415592
827,-0.009205348
828,0.0574485
829,-0.04319635
830,-0.063219145
831,-0.01549222
832,0.019421486
833,-0.010797657
834,-0.03011224
835,-0.019901456
836,-0.01939806
837,-0.018747227
838,-0.043105345
839,-0.0073211724
840,0.014910969
841,-0.051284164
842,-0.020544654
843,-0.05376214
844,-0.012244569
845,-0.0056518447
846,-0.07530764
847,-0.018219713
848,-0.051649105
849,-0.029184157
850,-0.04577265
851,-0.017100574
852,-0.03211388
853,-0.039366122
854,-0.029260593
855,-0.039733686
856,-0.02361114
857,-0.027721755
858,-0.035744388
859,-0.03394208
860,0.0023062793
861,-0.016266454
862,-0.00086812297
863,-0.041080818
864,-0.009006743
865,-0.0064181015
866,-0.012304795
867,-0.023653673
868,-0.048609942
869,-0.031608086
870,-0.028615888
871,-0.062701754
872,-0.009710499
873,-0.04407865
874,-0.01906153
875,-0.053030618
876,-0.06711691
877,-0.026462795
878,-0.020969886
879,-0.055755734
880,-0.023605602
881,-0.029529033
882,-0.019492745
883,-0.035314668
884,-0.057008144
885,-0.027803618
886,-0.054746285
887,-0.019289728
888,-0.046352524
889,0.010529515
890,-0.03962291
891,-0.03329785
892,-0.047864098
893,-0.041254688
894,-0.048650533
895,-0.01855534
896,-0.013679941
897,-0.01524558
898,-0.033088632
899,-0.03699278
900,-0.027338523
901,-0.010826809
902,0.005681837
903,-0.047256283
904,-0.019100515
905,-0.023418268
906,-0.04048796
907,-0.063378096
908,-0.036745902
909,-0.03051654
910,-0.043301452
911,-0.0368673
912,-0.05609037
913,-0.0341153
914,-0.053335655
915,-0.030500976
916,-0.061030906
917,-0.017769348
918,-0.026066644
919,-0.03635701
920,-0.04443274
921,-0.042267933
922,-0.044392187
923,-0.08159992
924,-0.0419702
925,-0.02648798
926,-0.06811505
927,-0.03259093
928,-0.015393759
929,0.031157328
930,-0.025821192
931,-0.049716074
932,-0.05407421
933,-0.054511994
934,-0.035487227
935,-0.05341907
936,-0.0262006
937,-0.033325702
938,-0.036879882
939,-0.041633774
940,-0.038953424
941,-0.015725896
942,-0.011049995
943,-0.010540622
944,-0.048490576
945,-9.029565e-06
946,-0.028093422
947,-0.016697336
948,-0.014460807
949,-0.028231487
950,-0.03588308
951,-0.03572716
952,-0.054439366
953,-0.071316294
954,-0.027359331
955,-0.008983013
956,0.0051092524
957,-0.042087957
958,-0.06287381
959,-0.012109885
960,0.025414024
961,-0.031655315
962,-0.047766667
963,-0.033633053
964,-0.030015603
965,-0.015644819
966,-0.051541347
967,-0.020213572
968,-0.06938198
969,-0.049395412
970,-0.02111232
971,-0.053582653
972,-0.011487294
973,-0.008032474
974,-0.061812364
975,-0.033075783
976,-0.039599705
977,-0.040927675
978,-0.0465074
979,-0.05538213
980,-0.033160355
981,-0.02109132
982,-0.030621145
983,-0.04033041
984,-0.021072455
985,-0.03252037
986,-0.03781447
987,-0.05152791
988,-0.0017799209
989,-0.02566337
990,-0.003062414
991,-0.026015434
992,-0.012517618
993,-0.00687766
994,-0.012951027
995,-0.022131765
996,-0.0612304
997,-0.031776723
998,-0.045250695
999,-0.05087276
1000,-0.0051373276
1001,-0.04550234
1002,-0.02962266
1003,-0.052920707
1004,-0.052907933
1005,-0.029789912
1006,-0.026572354
1007,-0.055215593
1008,-0.024433896
1009,-0.036811393
1010,-0.041020386
1011,-0.0246114
1012,-0.046534166
1013,-0.025154717
1014,-0.038790435
1015,-0.0073675937
1016,-0.046980575
1017,-0.014903173
1018,-0.03898927
1019,-0.034969356
1020,-0.046924576
1021,-0.040485535
1022,-0.038451847
1023,-0.023657972
1024,-0.0151775405
1025,-0.031393565
1026,-0.033032835
1027,-0.03504725
1028,-0.0122090485
1029,-0.023809163
1030,0.006082971
1031,-0.05170808
1032,-0.038438857
1033,-0.02307198
1034,-0.041343536
1035,-0.062216744
1036,-0.037841894
1037,-0.029504353
1038,-0.043542977
1039,-0.0314223
1040,-0.03843985
1041,-0.03393703
1042,-0.054269355
1043,-0.050403055
1044,-0.041843574
1045,-0.026579063
1046,-0.033992548
1047,-0.03011692
1048,-0.03978694
1049,-0.04237942
1050,-0.02735821
1051,-0.056190576
1052,-0.04357153
1053,-0.02212074
1054,-0.06371354
1055,-0.04465253
1056,-0.008232939
1057,0.025749603
1058,-0.029002354
1059,-0.04922156
1060,-0.055236656
1061,-0.018805394
1062,-0.018288892
1063,-0.0525118
1064,-0.022911863
1065,-0.022916183
1066,-0.03692475
1067,-0.05255753
1068,-0.046922173
1069,-0.015209812
1070,-0.011273975
1071,-0.010847406
1072,-0.04352944
1073,-0.011824591
1074,-0.027877497
1075,-0.02821678
1076,-0.013443322
1077,-0.02707544
1078,-0.041514006
1079,-0.0344471
1080,-0.044321258
1081,-0.061911255
1082,-0.038609352
1083,-0.008724422
1084,-0.0044987113
1085,-0.04361385
1086,-0.06295241
1087,-0.015998531
1088,0.024799513
1089,-0.013299211
1090,-0.042880014
1091,-0.033735957
1092,-0.01805891
1093,-0.039649818
1094,-0.051827826
1095,-0.033033773
1096,-0.06260602
1097,-0.05205093
1098,-0.014324804
1099,-0.053360537
1100,-0.009234469
1101,0.008602268
1102,-0.040160358
1103,-0.02978079
1104,-0.052742172
1105,-0.039795518
1106,-0.046344835
1107,-0.034433942
1108,-0.03219609
1109,-0.027814861
1110,-0.029834474
1111,-0.03879109
1112,-0.021261455
1113,-0.032294467
1114,-0.037304074
1115,-0.037338547
1116,-0.004352042
1117,-0.030926682
1118,-0.00017656398
1119,-0.040235747
1120,-0.021907697
1121,-0.01065435
1122,-0.014911578
1123,-0.03202257
1124,-0.03746094
1125,-0.030981828
1126,-0.04267547
1127,-0.05508013
1128,-0.0053748284
1129,-0.044945195
1130,-0.032541428
1131,-0.053559452
1132,-0.056206904
1133,-0.030431744
1134,-0.035498463
1135,-0.05564086
1136,-0.023435974
1137,-0.03723313
1138,-0.03310982
1139,-0.035132073
1140,-0.05616365
1141,-0.027540643
1142,-0.042698666
1143,-0.018337501
1144,-0.04632421
1145,-0.032264553
1146,-0.039186597
1147,-0.032479998
1148,-0.041718118
1149,-0.040075567
1150,-0.047667123
1151,-0.037366915
1152,0.009445748
1153,0.012850711
1154,0.007923534
1155,0.006480896
1156,0.0038594638
1157,0.008722182
1158,0.0024752386
1159,-0.026243003
1160,0.0054461616
1161,0.0017806684
1162,0.00010277939
1163,-0.00907786
1164,-0.0021186012
1165,-0.008423787
1166,-0.010656921
1167,0.0037619895
1168,0.008598017
1169,0.0012683704
1170,0.016560826
1171,0.016229175
1172,0.0064433045
1173,0.0048727896
1174,-0.004181366
1175,0.012158811
1176,0.01419634
1177,0.01051618
1178,-0.006476858
1179,-0.0070627085
1180,-0.0043614674
1181,0.018474877
1182,0.008412727
1183,0.003127025
1184,0.025599191
1185,0.003635506
1186,0.0023605044
1187,-0.004503753
1188,-0.01186058
1189,-0.017660098
1190,-0.006236843
1191,-0.019509885
1192,0.0018769285
1193,0.0208021
1194,-0.011750291
1195,0.008497474
1196,-0.013105976
1197,0.01943996
1198,0.010807042
1199,-0.011187796
1200,-0.005041887
1201,-0.0028078475
1202,-0.01026862
1203,-0.013182614
1204,0.001616593
1205,0.025490656
1206,-0.0010532803
1207,-0.0024717362
1208,0.009054189
1209,-0.012388466
1210,0.009622214
1211,0.020850675
1212,0.014684553
1213,-0.00038796596
1214,-0.01589284
1215,-0.0048610754
1216,0.013818016
1217,0.013616638
1218,0.008819682
1219,0.017471436
1220,0.0018023755
1221,-0.0006997066
1222,-0.02332666
1223,0.0070085707
1224,-0.011078246
1225,-0.024496125
1226,-0.0031802524
1227,0.002532598
1228,0.010274595
1229,0.0018940823
1230,-0.010158998
1231,1.876062e-06
1232,-0.007344547
1233,-0.009442836
1234,-0.011686213
1235,-0.014920536
1236,0.011059864
1237,0.018253362
1238,0.026823826
1239,-0.0053001386
1240,-0.0114949895
1241,-0.022439256
1242,0.0030716108
1243,0.00056011806
1244,0.00942762
1245,0.0219024
1246,0.00640727
1247,0.02044193
1248,0.0056799916
1249,-0.0073555913
1250,0.0023538398
1251,0.013113985
1252,-0.01179134
1253,-0.008196003
1254,-0.005446895
1255,-0.018416239
1256,-0.002585235
1257,0.002088711
1258,0.011124952
1259,-0.03659342
1260,0.0021227603
1261,-0.005133165
1262,-0.008104323
1263,-0.0411665
1264,-0.0014960958
1265,0.012384134
1266,-0.018066209
1267,-0.0017777549
1268,-0.012971157
1269,-0.017590063
1270,0.02586663
1271,0.007052166
1272,-0.017839532
1273,0.026496215
1274,0.010020034
1275,0.0025416682
1276,0.0012027916
1277,0.0072564976
1278,-0.0019017449
1279,-0.0015106609
1280,-0.006493622
1281,0.0043160785
1282,0.00069056725
1283,-0.007036733
1284,-0.0060349125
1285,-0.003967911
1286,-0.015010693
1287,0.0027463818
1288,-0.0019629137
1289,0.001597958
1290,-0.016141104
1291,0.010288702
1292,-0.002799556
1293,-0.001787345
1294,-0.0007859408
1295,-0.009133934
1296,0.010438621
1297,0.01556076
1298,-0.0015788999
1299,0.015782513
1300,0.011476918
1301,-0.0021858811
1302,-0.017945645
1303,-0.00050575
1304,0.008225012
1305,4.9273185e-05
1306,-0.0047824606
1307,-0.0031226927
1308,0.012679317
1309,0.014225964
1310,0.0015635805
1311,0.016280876
1312,0.010794061
1313,0.00078681327
1314,0.00850007
1315,0.014541904
1316,-0.0144598745
1317,0.0014338064
1318,-0.00096728024
1319,-0.01624328
1320,0.0102765765
1321,-0.01060345
1322,0.009652387
1323,0.01676272
1324,0.0077413092
1325,0.001977693
1326,-0.00904429
1327,-0.0126131615
1328,0.0018952213
1329,0.0052087745
1330,0.0071690762
1331,0.007842328
1332,-0.001478663
1333,-0.0045005106
1334,0.0073797917
1335,0.016036069
1336,0.002980212
1337,-0.01195071
1338,-0.014414577
1339,-0.0035640693
1340,0.004937915
1341,-0.0015795506
1342,0.01116546
1343,-0.0007554415
1344,-0.009658543
1345,0.005848825
1346,-0.0071688583
1347,-0.0076242667
1348,0.015092209
1349,-0.010098506
1350,-0.004420511
1351,0.014647332
1352,-0.013211598
1353,0.0008900848
1354,0.0019724565
1355,-0.009367281
1356,-0.001597843
1357,0.0027249472
1358,0.009896415
1359,0.011929232
1360,0.007495958
1361,0.002786044
1362,-0.01760206
1363,-0.011061543
1364,-0.0048322156
1365,-0.00021121792
1366,0.00420905
1367,-0.00033057868
1368,0.00094609626
1369,-0.016916346
1370,0.011206501
1371,-0.0008643164
1372,0.013715746
1373,-0.0071498314
1374,0.0016760374
1375,-0.008358883
1376,0.011963937
1377,0.0073975283
1378,-0.0023506747
1379,-0.007497822
1380,0.015322586
1381,-0.005790303
1382,0.0059175137
1383,-0.00558381
1384,0.008265159
1385,-0.007960955
1386,-0.006373698
1387,-0.0045101615
1388,-0.007345987
1389,-0.018326651
1390,0.0071672257
1391,-0.003226902
1392,0.0063109766
1393,-0.0104608415
1394,-0.014143948
1395,0.006981472
1396,-0.00925566
1397,-0.010040008
1398,0.007647098
1399,-0.0025504043
1400,-0.0035379287
1401,-0.0044235378
1402,0.010576897
1403,-0.0077807903
1404,0.005852782
1405,0.0046887873
1406,-0.011125855
1407,0.0145611195
1408,-0.008659448
1409,0.0008088075
1410,0.007224213
1411,0.0076725027
1412,0.01526263
1413,0.00045656748
1414,0.0049252543
1415,-0.00011653793
1416,0.0077712303
1417,-0.0024628243
1418,0.0060804146
1419,-0.010743261
1420,0.012050263
1421,0.0009173626
1422,0.002124331
1423,-0.0028344619
1424,-0.00078750745
1425,-0.0031278494
1426,-0.00456461
1427,-0.007235111
1428,0.008246052
1429,0.017067615
1430,-0.0017244534
1431,0.009519507
1432,0.0006749377
1433,-0.0044846134
1434,-0.00392739
1435,0.012957361
1436,0.0037699593
1437,0.0065209228
1438,0.010489171
1439,0.007857615
1440,0.0060060457
1441,0.013014292
1442,0.012270257
1443,-0.0076799016
1444,-0.015864773
1445,0.01456752
1446,0.00431574
1447,0.00036856858
1448,0.01656601
1449,-0.01138771
1450,-0.011772088
1451,-0.010060193
1452,-0.010883636
1453,-0.012651415
1454,-0.015178074
1455,-0.013074407
1456,-0.011711492
1457,0.013700126
1458,0.0002584382
1459,-0.016824832
1460,0.01541308
1461,0.0030079384
1462,-0.003691417
1463,0.00053506606
1464,0.0047543347
1465,-0.0018398917
1466,0.0020737038
1467,0.0011165008
1468,-0.00034937315
1469,0.00455078
1470,-0.0030974431
1471,-0.0062571154
1472,-0.0063821
1473,0.0034577858
1474,0.0027845749
1475,-0.0071062553
1476,0.0024185148
1477,-0.0036913701
1478,-0.009614044
1479,-0.0074718087
1480,-0.009668214
1481,0.003759588
1482,0.00618428
1483,-0.014293007
1484,0.01003208
1485,-0.004304478
1486,0.0083084395
1487,0.0042006895
1488,0.0024378896
1489,0.0009279795
1490,-0.018992253
1491,-0.0058394615
1492,0.012370477
1493,-0.008217753
1494,0.0020872762
1495,-0.006933758
1496,0.0060092467
1497,0.011089437
1498,0.019611731
1499,-0.0038117298
1500,-0.0064195073
1501,0.0099383565
1502,-0.018513307
1503,0.004457008
1504,-0.007966812
1505,0.015270472
1506,-0.009262943
1507,-0.0033920377
1508,0.014327749
1509,0.016054085
1510,-0.0030164307
1511,-0.004326347
1512,-0.011679741
1513,-0.0015543131
1514,0.008763488
1515,-0.0048991567
1516,0.012772479
1517,-0.009465186
1518,-0.013785737
1519,0.004529903
1520,-0.0007643029
1521,-0.011652631
1522,0.0080078775
1523,0.0034589076
1524,-0.0065814196
1525,-0.004159244
1526,0.0015199303
1527,0.008880106
1528,0.012802539
1529,-0.007582242
1530,-0.009082339
1531,0.018507073
1532,0.009535623
1533,0.00012234738
1534,0.0020495863
1535,0.002731315
1536,-0.014402419
1537,-0.004687461
1538,0.012899477
1539,-0.017398296
1540,-0.006363158
1541,0.010763513
1542,-0.008748879
1543,0.0058304593
1544,0.0019461649
1545,0.010061938
1546,-0.005141687
1547,-0.011352505
1548,0.008678667
1549,-0.01972385
1550,0.010087981
1551,-0.007342842
1552,0.0064118807
1553,0.0076357415
1554,-0.002825084
1555,0.0026279509
1556,0.008639095
1557,0.017770974
1558,-0.009114403
1559,0.004214928
1560,0.0028380754
1561,0.0012282622
1562,0.005634956
1563,-0.0007333572
1564,0.002078294
1565,0.0010699665
1566,-0.005864501
1567,-0.0077813715
1568,-0.0050701457
1569,0.01523046
1570,0.00432702
1571,0.018762512
1572,0.0036621713
1573,0.0006364331
1574,0.008059312
1575,0.007047926
1576,0.009184655
1577,-0.0032366095
1578,0.0034874917
1579,-0.0041011195
1580,-0.000369663
1581,-0.006516395
1582,-0.0025251082
1583,-0.0010581958
1584,-0.006567162
1585,0.015924448
1586,0.0011859547
1587,-0.0019115662
1588,-0.0018087605
1589,0.015599623
1590,0.007533472
1591,0.0047688107
1592,-0.013808138
1593,-0.0041390094
1594,0.005232415
1595,-0.001766381
1596,0.00070903846
1597,0.002795523
1598,-0.0028955596
1599,-0.010097364
1600,-0.0075303535
1601,-0.0065455292
1602,-0.016365757
1603,-0.007706588
1604,-0.00069764
1605,-0.011552399
1606,-0.009623342
1607,-0.017337076
1608,-0.01725023
1609,0.0018884435
1610,-0.008510209
1611,0.0045469175
1612,-0.015173192
1613,0.002080642
1614,0.0038165376
1615,0.0008054674
1616,0.010734427
1617,-0.010670949
1618,0.012277161
1619,-0.007312313
1620,-0.0049909893
1621,-0.010906565
1622,-0.006493503
1623,-0.0030730423
1624,-0.0020089138
1625,-7.631908e-05
1626,0.017331252
1627,-0.00096444343
1628,0.00043242166
1629,-0.0050420454
1630,0.011364651
1631,-0.008135646
1632,-0.00039805364
1633,-0.0010894542
1634,-0.0008157738
1635,0.007986639
1636,0.012156248
1637,0.007669022
1638,-0.0016388784
1639,0.008906947
1640,0.010382449
1641,-0.0039941105
1642,-0.00068110495
1643,-0.009094703
1644,-0.00082921615
1645,0.009707969
1646,-0.0062721074
1647,-0.019967765
1648,-0.011004948
1649,0.0198569
1650,-0.0005034112
1651,0.018648393
1652,0.016572786
1653,0.0036886337
1654,-0.007880776
1655,0.006063767
1656,0.0058435467
1657,0.005281273
1658,-0.0058103334
1659,0.0086234
1660,-0.0069601373
1661,0.017540874
1662,0.0066068745
1663,0.00021101217
1664,9.047529e-05
1665,-0.013529187
1666,-0.0043935133
1667,0.008617279
1668,0.014176587
1669,0.004668842
1670,-0.0026912706
1671,0.002625232
1672,0.0005116239
1673,0.0056510516
1674,-0.00860607
1675,0.006088528
1676,-0.008636119
1677,0.003457473
1678,-0.005122142
1679,-0.00952226
1680,0.009008635
1681,-0.0035469397
1682,0.0034604408
1683,-0.011661046
1684,0.0042446605
1685,0.008294983
1686,-0.00701785
1687,0.0032891983
1688,0.013079579
1689,-0.00024472328
1690,-0.014766291
1691,0.00292167
1692,0.0088725835
1693,-0.013537957
1694,0.010780268
1695,-0.0009458658
1696,0.015838938
1697,-0.01165572
1698,-0.00264965
1699,-2.7326869e-05
1700,-0.016631885
1701,-0.019550264
1702,-0.0012672906
1703,-0.0007628849
1704,-0.011097148
1705,0.019892853
1706,-0.0043383148
1707,-0.0008182663
1708,-0.0042783977
1709,-0.0055738953
1710,-0.0062564868
1711,-0.010656465
1712,-0.007760247
1713,-0.008527315
1714,-0.015296893
1715,0.016261447
1716,0.009102108
1717,-0.0017740006
1718,0.012701107
1719,-0.008527469
1720,-0.0051286505
1721,-0.013847204
1722,-0.010384551
1723,-0.0057750503
1724,0.0104447305
1725,0.013905441
1726,-0.00784055
1727,0.0069425353
1728,0.016894685
1729,-0.01435851
1730,0.0025602805
1731,-0.006788821
1732,0.017186679
1733,-0.015349471
1734,0.006316742
1735,-0.004115102
1736,-0.0019903532
1737,-0.00051608105
1738,-0.016187575
1739,-0.00028167316
1740,-0.0013897595
1741,0.010252931
1742,-0.00030973562
1743,-0.015170645
1744,0.00080184866
1745,-0.0013542027
1746,0.006477194
1747,0.00050809345
1748,0.004480249
1749,0.00090254116
1750,-0.016971407
1751,0.0055420063
1752,0.007121681
1753,-0.009978265
1754,0.0005879709
1755,0.00058623566
1756,0.011721331
1757,0.014970355
1758,0.007343395
1759,-0.0049122623
1760,0.002550688
1761,-0.009909357
1762,-0.0048032645
1763,-0.007930538
1764,-0.006545951
1765,0.004816312
1766,0.01209368
1767,0.00682238
1768,0.0011676471
1769,0.0006329799
1770,-0.01524991
1771,0.004387402
1772,0.0034349246
1773,-0.014827669
1774,0.01740698
1775,-0.0037434842
1776,0.00016529342
1777,-0.002330704
1778,-0.014060255
1779,0.00018461117
1780,-0.0028862606
1781,-0.0135424845
1782,-0.0013118719
1783,0.008769049
1784,0.015157138
1785,-0.01496322
1786,0.006853456
1787,-0.0013765614
1788,0.012270076
1789,0.008378952
1790,-0.014868596
1791,0.007858475
1792,0.002679539
1793,-0.0070897155
1794,-0.0016359343
1795,0.0073900116
1796,0.00037187518
1797,0.008094916
1798,-0.0064233434
1799,0.0051849578
1800,-0.012740426
1801,0.0042740167
1802,-0.014961099
1803,0.00023170275
1804,0.012172856
1805,0.0064267963
1806,-0.017370323
1807,0.009308242
1808,0.014495595
1809,0.009290708
1810,0.0019697759
1811,0.015274586
1812,-0.0064778887
1813,-0.016127689
1814,0.0128139835
1815,-0.0019985447
1816,-0.007094418
1817,-0.008557732
1818,-0.001532888
1819,0.0051661716
1820,-0.004139062
1821,0.001572664
1822,-0.00762996
1823,0.008519145
1824,0.009826842
1825,-0.0015342504
1826,0.0065396815
1827,-0.004462849
1828,-0.0059941956
1829,-0.005996739
1830,-0.011447538
1831,0.006693598
1832,-0.017370427
1833,-0.0066692475
1834,-0.002805978
1835,0.008423238
1836,-0.0040955404
1837,0.019601323
1838,-0.015254699
1839,-0.0071842824
1840,0.006651009
1841,-0.009949209
1842,0.0127998525
1843,-0.0016167042
1844,0.005902335
1845,-0.010468018
1846,0.0035218021
1847,-0.0059781126
1848,-0.012294705
1849,-0.015552329
1850,-0.008426979
1851,0.00538796
1852,0.0020919177
1853,0.0072290036
1854,0.008530117
1855,0.013493815
1856,-0.018884169
1857,-0.0054065757
1858,0.0071329717
1859,-0.00870154
1860,-0.0101332115
1861,0.012656968
1862,-0.007553804
1863,-0.006944849
1864,-0.00049563777
1865,-0.0015440765
1866,-0.004101613
1867,-0.007513519
1868,0.0041603283
1869,0.011769747
1870,0.0077631334
1871,0.006103386
1872,0.0073663252
1873,-0.0066908235
1874,0.0013170715
1875,-0.0035533581
1876,-0.014955339
1877,0.0015735334
1878,-0.0066710114
1879,-0.00052869145
1880,-5.3807642e-05
1881,-0.0068842196
1882,-0.0013269606
1883,0.00025799393
1884,-0.00019788918
1885,0.0051599387
1886,0.006628406
1887,0.0038833362
1888,-0.006380156
1889,0.0022702354
1890,0.016952254
1891,0.014993603
1892,-0.0028489179
1893,-0.009059473
1894,0.007213397
1895,0.0007698276
1896,-0.0017583873
1897,0.011329858
1898,0.01787271
1899,0.018745512
1900,-0.005364734
1901,-0.015399229
1902,0.008824956
1903,0.0038308224
1904,0.006249315
1905,0.005035373
1906,0.002957192
1907,-0.007569957
1908,-0.01996598
1909,0.0008801516
1910,-0.0039254907
1911,-0.005329891
1912,0.011927628
1913,0.004449269
1914,0.0046154726
1915,-0.0006971424
1916,0.005648907
1917,0.0067339037
1918,0.003348719
1919,0.009924037
1920,0.0035363482
1921,0.010070473
1922,0.0059098415
1923,-0.0014446641
1924,-0.01843937
1925,0.0065953126
1926,-0.011113602
1927,0.0019467729
1928,-0.00076512323
1929,-0.0010595366
1930,-0.010220788
1931,-0.008437185
1932,-0.013971819
1933,0.0028629443
1934,0.0018081325
1935,-0.0005397297
1936,-0.010565397
1937,-0.01547504
1938,-0.0065135066
1939,0.005660619
1940,0.0115487315
1941,0.013115514
1942,0.008984035
1943,-0.002491028
1944,0.0063370573
1945,-0.012385313
1946,-0.0026170956
1947,-0.011692345
1948,-0.003562276
1949,0.009030631
1950,0.001309125
1951,-0.002205148
1952,-0.001396414
1953,0.011717081
1954,0.010001908
1955,0.0012755744
1956,0.0085669495
1957,-0.0048873667
1958,0.015735142
1959,0.0018944073
1960,-0.00017560195
1961,0.006149016
1962,-0.00095780165
1963,-0.0032582106
1964,0.012304244
1965,-0.0026758243
1966,0.0048439614
1967,0.006291858
1968,0.0014422147
1969,0.0011856175
1970,-0.01539134
1971,-0.002963841
1972,-0.0074706953
1973,0.003516593
1974,0.011379487
1975,0.00015886886
1976,0.003361639
1977,9.24483e-05
1978,-0.005079693
1979,0.012141031
1980,0.004674306
1981,0.010415087
1982,-0.0068648937
1983,0.004124962
1984,-0.0033590423
1985,0.00262529
1986,-0.0018320441
1987,-0.017247062
1988,0.0055883387
1989,0.01726187
1990,0.009951649
1991,-0.00272885
1992,0.002390975
1993,0.0179398
1994,0.018018108
1995,0.009427827
1996,0.013463199
1997,0.006011664
1998,-0.0136915585
1999,-0.0015740948
2000,0.007886788
2001,-0.0045999535
2002,-0.005449911
2003,0.008210975
2004,0.008805615
2005,-0.003057624
2006,-0.0070125926
2007,-0.0077542886
2008,0.00981825
2009,0.0013346464
2010,0.0050498457
2011,0.0061953897
2012,0.018750709
2013,0.0019932583
2014,-0.008110224
2015,0.0030895197
2016,0.0018991283
2017,-1.0274611e-05
2018,-0.0048370427
2019,0.003218985
2020,-0.0156198405
2021,-0.006598522
2022,-0.006633896
2023,0.01501388
2024,-0.017467583
2025,-1.189388e-05
2026,0.012321844
2027,-0.0031460556
2028,-0.001545588
2029,-0.0043712845
2030,0.00441867
2031,0.0026130124
2032,-0.019232264
2033,-0.018474381
2034,0.0028694128
2035,0.00577889
2036,0.013620269
2037,0.00035875756
2038,-0.017052066
2039,-0.008908757
2040,0.013286426
2041,-0.010135724
2042,-0.0059238914
2043,-0.009080273
2044,-0.0022782956
2045,-0.010388535
2046,0.016956193
2047,0.0037538295
2048,-0.05505422
2049,-0.0169884
2050,0.012892098
2051,0.046176594
2052,0.012228753
2053,-0.043406658
2054,0.044165052
2055,0.0085801035
2056,0.03054162
2057,0.015612484
2058,0.023731906
2059,-0.040458184
2060,0.0063075367
2061,0.029169243
2062,-0.019160394
2063,0.04469297
2064,-0.024033675
2065,0.00978419
2066,-0.022983888
2067,0.010195667
2068,-0.024374984
2069,0.02022644
2070,-0.0039142487
2071,0.0045392197
2072,-0.030716341
2073,0.0026120744
2074,-0.005153978
2075,0.0016577614
2076,0.019394754
2077,0.0115825785
2078,-0.052986402
2079,-0.012731001
2080,-0.037661083
2081,-0.032188345
2082,0.04112929
2083,-0.018763812
2084,-0.016634949
2085,-0.0052044895
2086,-0.0023293307
2087,-0.0108267255
2088,-0.03286136
2089,0.012139117
2090,0.03391393
2091,-0.057930592
2092,-0.044112705
2093,0.041700542
2094,0.031508815
2095,0.05368393
2096,0.022648992
2097,0.043181438
2098,0.022728385
2099,0.0063929963
2100,0.04772985
2101,-0.045141008
2102,0.010169578
2103,-0.0083863055
2104,0.0050898944
2105,-0.04892988
2106,0.037451338
2107,0.048723992
2108,0.035708953
2109,0.017773427
2110,-0.035419393
2111,0.041920736
2112,0.048759244
2113,0.028605478
2114,-0.011627129
2115,0.012376182
2116,0.018581953
2117,-0.061119284
2118,-0.05690502
2119,0.041613013
2120,-0.0064226477
2121,-0.02695767
2122,0.03632538
2123,-0.038526274
2124,-0.010072123
2125,-0.011410162
2126,-0.019955277
2127,0.042541288
2128,-0.041321624
2129,-0.001578375
2130,-0.019063158
2131,0.04010447
2132,0.012343676
2133,0.0064184493
2134,0.024056692
2135,0.038029853
2136,0.03715605
2137,0.025078401
2138,0.03638661
2139,-0.016968146
2140,0.033033624
2141,0.039381005
2142,-0.0030193022
2143,-0.025708301
2144,0.036103435
2145,0.0426341
2146,0.045992263
2147,0.04451147
2148,-0.058519226
2149,0.029290315
2150,0.024247097
2151,-0.023211392
2152,0.036778107
2153,0.03176119
2154,-0.030328654
2155,-0.026209714
2156,-0.0040043625
2157,0.03245107
2158,-0.026569942
2159,-0.0033176842
2160,0.017212644
2161,0.024448244
2162,-0.044985786
2163,0.023114275
2164,-0.0283334
2165,0.04100511
2166,-0.010399786
2167,0.04814701
2168,-0.010110562
2169,0.024525646
2170,0.03147735
2171,0.032146677
2172,0.0070440546
2173,-0.01820466
2174,-0.03119249
2175,0.03973487
2176,0.03347877
2177,0.04339549
2178,0.030109955
2179,0.021172136
2180,0.051024888
2181,0.037015337
2182,-0.06583785
2183,0.0695756
2184,0.034343936
2185,-0.004057692
2186,0.038797133
2187,0.006291195
2188,0.031445306
2189,0.019625517
2190,-0.0549018
2191,0.025049802
2192,-0.06245116
2193,0.03609566
2194,-0.056884192
2195,0.025544066
2196,-0.07466227
2197,0.010154533
2198,0.012025919
2199,0.0339686
2200,0.0030413812
2201,0.030245788
2202,-0.0502874
2203,-0.031004688
2204,0.016391987
2205,0.01794073
2206,0.09321001
2207,0.04819149
2208,0.02160335
2209,-0.031574234
2210,-0.06648575
2211,0.047885302
2212,0.07556306
2213,-0.07740951
2214,0.032925982
2215,-0.06726383
2216,0.007819058
2217,0.035405394
2218,0.030496553
2219,0.059211407
2220,0.047901385
2221,-0.05602082
2222,0.008481465
2223,0.007565931
2224,-0.047219843
2225,0.038917087
2226,0.026738849
2227,0.014008827
2228,0.016827816
2229,0.06865219
2230,0.04243312
2231,0.015529525
2232,-0.056432076
2233,0.0023856368
2234,0.018877475
2235,-0.063033596
2236,-0.057944793
2237,-0.027968245
2238,-0.060861237
2239,0.0154069485
2240,-0.057237573
2241,0.009037038
2242,0.01718448
2243,0.017286485
2244,0.026939042
2245,-0.0090707
2246,0.04145717
2247,0.025278915
2248,0.06815677
2249,-0.031673484
2250,0.015545928
2251,0.052159693
2252,-0.016656425
2253,-0.011482735
2254,-0.071753785
2255,0.004335624
2256,0.05066827
2257,0.0276332
2258,0.04245868
2259,0.027202874
2260,0.016696367
2261,-0.0073693064
2262,0.010033468
2263,0.025468983
2264,0.038838442
2265,0.021638826
2266,-0.007075585
2267,0.034003925
2268,-0.0032686484
2269,0.015504412
2270,-0.0069174315
2271,0.040311012
2272,0.028619612
2273,-0.07804954
2274,0.01096378
2275,-0.053418044
2276,-0.024370657
2277,0.028219841
2278,0.019876886
2279,0.06125821
2280,-0.047593765
2281,0.03023964
2282,-0.048861872
2283,-0.07146724
2284,0.049062125
2285,0.025993044
2286,-0.018441806
2287,0.053784773
2288,0.0069693085
2289,-0.013392179
2290,0.01834242
2291,0.03191113
2292,0.037797
2293,0.02578809
2294,-0.049598344
2295,-0.06788574
2296,-0.050985474
2297,0.03902469
2298,0.019319212
2299,0.003827156
2300,0.045775723
2301,0.03936806
2302,0.046844672
2303,0.032262962
2304,0.03455424
2305,-0.045033462
2306,0.017139673
2307,0.045773998
2308,0.026279718
2309,0.02958848
2310,-0.066602446
2311,-0.07603348
2312,0.03506412
2313,0.021532688
2314,0.03673113
2315,-0.04012196
2316,0.03658885
2317,0.020746682
2318,0.042031843
2319,0.03549834
2320,0.054218546
2321,0.016187701
2322,0.052581377
2323,-0.006339531
2324,-0.05965131
2325,0.025650285
2326,0.0025427388
2327,0.009556983
2328,0.019031335
2329,0.04074244
2330,0.058064286
2331,0.08022254
2332,0.04797859
2333,0.02968402
2334,-0.04045619
2335,0.03587856
2336,0.018053703
2337,-0.0023804754
2338,0.03189353
2339,0.062948346
2340,-0.072958924
2341,-0.07707073
2342,0.015952833
2343,-0.06664996
2344,0.088100344
2345,0.014738819
2346,0.03464319
2347,0.03927617
2348,0.01966783
2349,0.014693662
2350,0.010122189
2351,0.009655412
2352,0.046759088
2353,-0.0966878
2354,-0.07258061
2355,0.027446857
2356,0.01932489
2357,0.026427424
2358,0.035463013
2359,0.028550476
2360,0.05275672
2361,0.0026367512
2362,0.033730134
2363,-0.062789425
2364,-0.022276554
2365,-0.04890927
2366,-0.060371507
2367,0.015153146
2368,-0.056565505
2369,0.020498326
2370,0.045439146
2371,0.020805111
2372,0.035597008
2373,0.03399364
2374,0.049733695
2375,0.032428972
2376,-0.071856864
2377,0.05015142
2378,0.020045428
2379,0.024771353
2380,-0.009874775
2381,-0.0065118526
2382,-0.07136362
2383,0.03605778
2384,0.04754787
2385,0.03910598
2386,0.044441283
2387,0.05388689
2388,0.030665992
2389,0.038172875
2390,0.019772863
2391,0.024085565
2392,0.020029325
2393,0.021046031
2394,0.012112584
2395,0.049740355
2396,0.02176159
2397,0.010315767
2398,-0.002832473
2399,0.039541844
2400,0.01769984
2401,0.039081607
2402,0.011833683
2403,0.031587113
2404,0.060399245
2405,0.023476541
2406,0.043858703
2407,-0.051829908
2408,-0.029171191
2409,0.04379335
2410,0.0035758563
2411,-0.07096376
2412,0.06514174
2413,0.02893758
2414,0.03411665
2415,-0.047945667
2416,0.022213079
2417,0.035650924
2418,0.04540176
2419,0.025587747
2420,0.05480567
2421,0.02610998
2422,0.05760118
2423,0.017856857
2424,0.04533371
2425,0.02130675
2426,0.037742764
2427,0.031773586
2428,0.032419
2429,0.033282943
2430,0.03565652
2431,0.051263552
2432,0.012307435
2433,0.028669653
2434,0.0311374
2435,0.0251279
2436,0.028193668
2437,0.00576556
2438,-0.06561342
2439,-0.0767144
2440,-0.00039970828
2441,0.008758723
2442,0.025838748
2443,0.0059699216
2444,0.018447867
2445,0.015944265
2446,0.032572534
2447,0.00024046679
2448,0.04450291
2449,0.03965682
2450,0.04684596
2451,0.053093918
2452,-0.05239921
2453,-0.03342734
2454,0.05520078
2455,0.02410724
2456,-0.008478096
2457,-0.014028356
2458,0.017099855
2459,-0.030861743
2460,0.030492311
2461,0.033628233
2462,-0.041287076
2463,0.04925133
2464,0.04126956
2465,-0.010115987
2466,0.031028572
2467,-0.056070533
2468,-0.07285217
2469,0.08623857
2470,0.012905142
2471,0.051293336
2472,-0.081192486
2473,0.0063610235
2474,0.020643976
2475,0.04366274
2476,-0.043642778
2477,0.012607143
2478,0.0092570195
2479,0.0016679657
2480,0.03295264
2481,-0.09603444
2482,0.027395051
2483,-0.007132552
2484,-0.044917557
2485,0.057030704
2486,0.008739106
2487,0.03331487
2488,0.03140854
2489,0.0024840152
2490,0.017404407
2491,-0.0629516
2492,-0.031083805
2493,0.041866552
2494,-0.060319252
2495,0.011365849
2496,-0.057275552
2497,-0.001665036
2498,0.01654214
2499,0.029899256
2500,0.013903032
2501,0.04738853
2502,-0.022933701
2503,-0.0025096787
2504,0.064578615
2505,0.031654652
2506,0.010551667
2507,0.028762942
2508,0.0103732515
2509,-0.0110379495
2510,-0.07069572
2511,0.013170658
2512,0.041006897
2513,0.020621585
2514,0.036946334
2515,0.02702984
2516,0.013998959
2517,0.004791608
2518,0.027436463
2519,0.019186758
2520,0.010943512
2521,0.014905613
2522,0.0012275703
2523,0.020102588
2524,-0.0017824025
2525,-0.004813865
2526,-0.0008192385
2527,0.009307242
2528,0.0089083705
2529,-0.07877875
2530,0.011086788
2531,0.02661066
2532,0.05910913
2533,0.012440453
2534,0.005164136
2535,0.049450986
2536,-0.047454968
2537,0.024191426
2538,0.057512704
2539,0.05171326
2540,-0.05330999
2541,0.020754695
2542,0.014879021
2543,0.048279114
2544,0.008726692
2545,0.027403079
2546,-0.018939793
2547,0.005438636
2548,-0.043459326
2549,-0.014219414
2550,0.05210062
2551,0.01674093
2552,0.030824587
2553,0.028113225
2554,0.016208863
2555,0.01145307
2556,0.0169642
2557,0.028962912
2558,0.037578017
2559,0.0088737095
2560,0.017554967
2561,0.019481936
2562,0.013636077
2563,-0.035224713
2564,-0.02570533
2565,0.025135098
2566,-0.0075134905
2567,0.046130814
2568,0.0151547445
2569,-0.018461071
2570,0.01320097
2571,0.0021874006
2572,-0.039611205
2573,-0.041604683
2574,0.028065572
2575,-0.034884147
2576,-0.055818178
2577,0.02622908
2578,-0.023387274
2579,-0.0042950297
2580,-0.07409531
2581,-0.03297628
2582,-0.029986857
2583,-0.042572502
2584,0.04606603
2585,-0.036237728
2586,0.00083180494
2587,0.041621305
2588,0.022181526
2589,0.02584741
2590,-0.047079988
2591,0.0047354596
2592,0.041391715
2593,0.024113076
2594,-0.06656323
2595,-0.056918886
2596,0.03732325
2597,-0.07772896
2598,-0.04271306
2599,0.04323266
2600,0.03968871
2601,0.0015342445
2602,0.019540457
2603,-0.0326872
2604,0.045495074
2605,-0.055485696
2606,0.007881614
2607,-0.025497027
2608,-0.013915779
2609,-0.09601887
2610,-0.072323695
2611,-0.020575786
2612,-0.0020969787
2613,0.019754723
2614,-0.024356715
2615,-0.04033672
2616,0.005427611
2617,0.063328534
2618,0.0125002945
2619,-0.06336918
2620,-0.05855386
2621,0.039865807
2622,0.055101473
2623,-0.03098142
2624,-0.021232912
2625,-0.04164076
2626,0.01923726
2627,0.010911437
2628,-0.00835032
2629,0.032875102
2630,0.021593286
2631,-0.03430327
2632,-0.07194833
2633,0.0474494
2634,-0.00995651
2635,-0.028811794
2636,-0.018530067
2637,-0.010809636
2638,0.07220127
2639,-0.0029407179
2640,-0.006906082
2641,-0.043574817
2642,-0.029395511
2643,0.014765332
2644,-0.00024408026
2645,-0.0471467
2646,0.009650908
2647,-0.039137464
2648,-0.026926244
2649,-0.026190098
2650,-0.0074729444
2651,-0.0066281697
2652,-0.006810742
2653,0.012477073
2654,-0.01864544
2655,-0.0369558
2656,0.0054922644
2657,0.004086753
2658,-0.015993616
2659,0.020090971
2660,-0.02543728
2661,-0.026108399
2662,-0.015354196
2663,0.034294944
2664,0.009272558
2665,-0.018945536
2666,0.051445972
2667,0.040071987
2668,-0.037597973
2669,-0.01001925
2670,0.012419922
2671,0.042499006
2672,-0.018444497
2673,-0.016391193
2674,0.014847858
2675,-0.016518803
2676,-0.0012937477
2677,0.015282599
2678,-0.050790697
2679,-0.06816513
2680,0.02446062
2681,-0.0018210051
2682,-0.03755161
2683,-0.026874965
2684,-0.030395385
2685,-0.032376558
2686,-0.032691143
2687,0.016540473
2688,0.015015878
2689,-0.026194109
2690,3.6737663e-05
2691,-0.0045799464
2692,-0.034442224
2693,-0.02146831
2694,-0.006610278
2695,-0.07653937
2696,-0.003144363
2697,-0.019611659
2698,-0.014383548
2699,0.05625992
2700,-0.037776493
2701,-0.040332373
2702,-0.011306345
2703,-0.040101852
2704,-0.007943333
2705,-0.000941974
2706,-0.016182378
2707,-0.035967544
2708,0.06375269
2709,-0.03424371
2710,0.013013439
2711,-0.043553922
2712,0.032192916
2713,0.017039103
2714,-0.043289904
2715,-0.007680112
2716,0.0048777275
2717,-0.046012886
2718,0.066162765
2719,-0.055721022
2720,-0.007829361
2721,-0.028614463
2722,-0.06669855
2723,-0.057347108
2724,0.028341746
2725,-0.07686689
2726,-0.032211587
2727,-0.045573138
2728,0.040133588
2729,-0.0038430102
2730,-0.011251678
2731,-0.057405584
2732,0.03004351
2733,-0.056090467
2734,0.009067714
2735,-0.022789257
2736,-0.02949433
2737,-0.081061006
2738,-0.0722643
2739,-0.019496864
2740,-0.04446791
2741,-0.008691424
2742,-0.021606194
2743,0.032921705
2744,-0.02227494
2745,-0.01025998
2746,-0.012811243
2747,0.007850394
2748,-0.05904592
2749,-0.05011253
2750,0.061537962
2751,-0.030529715
2752,-0.05626871
2753,-0.041382022
2754,-0.022472912
2755,-0.016501267
2756,-0.009825585
2757,-0.04869713
2758,-0.03343218
2759,-0.034365688
2760,-0.07241205
2761,-0.031708032
2762,-0.016281819
2763,-0.04182762
2764,-0.013860093
2765,-0.0062381015
2766,-0.0713748
2767,0.0021094293
2768,-0.024798846
2769,-0.043924082
2770,-0.030192114
2771,-0.017752316
2772,-0.04360392
2773,-0.04741607
2774,-0.013868518
2775,-0.040117644
2776,0.004472924
2777,-0.027969431
2778,-0.0069616707
2779,-0.0013681483
2780,-0.011886712
2781,-0.027688412
2782,-0.008275131
2783,-0.035862386
2784,-0.030237164
2785,0.005800944
2786,-0.016476601
2787,-0.053952944
2788,-0.03368201
2789,-0.025483444
2790,-0.0036080086
2791,-0.051513497
2792,-0.047684498
2793,-0.016613748
2794,0.0118582845
2795,-0.043934524
2796,-0.052000575
2797,0.009538939
2798,-0.025988763
2799,-0.04712265
2800,-0.024119014
2801,-0.012956457
2802,-0.03011277
2803,-0.017941708
2804,0.012834903
2805,-0.031019738
2806,-0.04947312
2807,-0.06703899
2808,-0.050668117
2809,0.025096465
2810,-0.012968253
2811,-0.026914347
2812,-0.030266633
2813,-0.018868135
2814,-0.031085642
2815,-0.04017851
2816,0.018534847
2817,-0.039109144
2818,-0.030284185
2819,-0.014871211
2820,-0.041802183
2821,-0.0070415083
2822,-0.06601795
2823,-0.059118655
2824,-0.026723746
2825,-0.017328491
2826,-0.035267796
2827,0.06118516
2828,-0.039651755
2829,-0.04087883
2830,-0.05513744
2831,-0.027626434
2832,-0.032299932
2833,-0.015242779
2834,-0.006639168
2835,-0.028311763
2836,-0.07478362
2837,-0.033361766
2838,-0.048481677
2839,-0.02284879
2840,0.0191549
2841,-0.0360065
2842,-0.041871347
2843,-0.00019187195
2844,-0.00776917
2845,-0.045599427
2846,-0.02021042
2847,-0.050593235
2848,-0.00749726
2849,0.0017697618
2850,-0.04240215
2851,-0.056690894
2852,-0.06819731
2853,-0.04830073
2854,-0.042294707
2855,-0.067593426
2856,-0.03657396
2857,-0.03286951
2858,-0.023487493
2859,-0.057798907
2860,-0.03370365
2861,-0.054727748
2862,-0.035528664
2863,-0.02502976
2864,-0.019808274
2865,-0.076152556
2866,-0.06464407
2867,-0.020233247
2868,-0.045003794
2869,-0.023040723
2870,-0.032960434
2871,-0.04032833
2872,-0.037804447
2873,0.06972555
2874,-0.028471138
2875,-0.06334898
2876,0.0039774226
2877,-0.017518597
2878,-0.060504235
2879,-0.031133154
2880,-0.0560902
2881,-0.03945694
2882,0.0006617877
2883,-0.0021018176
2884,-0.031628594
2885,-0.03894561
2886,-0.022395505
2887,-0.03453238
2888,0.048655502
2889,-0.026852267
2890,-0.038449507
2891,-0.0424426
2892,-0.010123894
2893,-0.015865248
2894,-0.07090924
2895,-0.029561132
2896,-0.04948415
2897,-0.04409183
2898,-0.030193364
2899,-0.018638987
2900,-0.041888833
2901,-0.04690082
2902,-0.0047046957
2903,-0.03946715
2904,-0.0153571265
2905,-0.02377197
2906,-0.03409701
2907,-0.03264482
2908,-0.00402173
2909,-0.024551129
2910,-0.0019732632
2911,-0.0058877943
2912,-0.029894728
2913,-0.04626261
2914,-0.015842207
2915,-0.029105943
2916,-0.010913781
2917,-0.025877293
2918,-0.03082849
2919,-0.05120787
2920,-0.048081286
2921,-0.026312763
2922,-0.00365313
2923,-0.06250487
2924,-0.052035734
2925,-0.019193353
2926,-0.007455197
2927,-0.046629507
2928,-0.015492952
2929,-0.035343945
2930,-0.00061682856
2931,-0.004623173
2932,-0.04249835
2933,-0.033181284
2934,-0.04053565
2935,-0.044959527
2936,-0.050208885
2937,-0.044229727
2938,-0.03829154
2939,-0.026660016
2940,-0.029286604
2941,-0.03205063
2942,-0.03858138
2943,-0.038518604
2944,0.0071863486
2945,-0.04392132
2946,-0.036418695
2947,-0.046961095
2948,-0.04230028
2949,-0.004552979
2950,-0.06604875
2951,-0.06586606
2952,-0.026542878
2953,-0.014047029
2954,-0.039407633
2955,0.0051604505
2956,-0.03721666
2957,-0.040745392
2958,-0.03838336
2959,-0.033849116
2960,-0.044307053
2961,-0.039213706
2962,-0.03332927
2963,-0.02341089
2964,-0.05477309
2965,-0.03285859
2966,-0.031091599
2967,-0.042719405
2968,-0.031798024
2969,-0.035304356
2970,-0.05038609
2971,0.0015447774
2972,-0.038845435
2973,-0.04506365
2974,-0.022286398
2975,-0.044941086
2976,-0.029736215
2977,-0.0033957164
2978,-0.066503614
2979,-0.04849365
2980,-0.06428246
2981,-0.05222454
2982,-0.04328385
2983,-0.06293465
2984,-0.06298845
2985,-0.03660657
2986,-0.030036341
2987,-0.05642669
2988,-0.03380652
2989,-0.055855215
2990,-0.022765512
2991,-0.026513275
2992,-0.015964927
2993,-0.05084973
2994,-0.060753293
2995,-0.020466479
2996,-0.045068193
2997,-0.020893766
2998,-0.037095778
2999,-0.04054615
3000,-0.055865124
3001,0.0029939665
3002,-0.016816875
3003,-0.06355698
3004,-0.047069624
3005,-0.025998885
3006,-0.060170107
3007,-0.030643187
3008,-0.056140907
3009,-0.041199557
3010,-0.022138527
3011,-0.00072853244
3012,-0.035520077
3013,-0.03448619
3014,-0.0076421476
3015,-0.03362047
3016,-0.06710337
3017,-0.0324646
3018,-0.0388943
3019,-0.04178769
3020,-0.009270691
3021,-0.011315921
3022,-0.07067087
3023,-0.022350712
3024,-0.050164435
3025,-0.044401366
3026,-0.030088447
3027,-0.030179992
3028,-0.042934008
3029,-0.047960464
3030,-0.03754184
3031,-0.039547298
3032,-0.023614056
3033,-0.027332813
3034,-0.038922273
3035,-0.046170022
3036,-0.003785074
3037,-0.027309682
3038,-0.007772367
3039,-0.035888016
3040,-0.029981023
3041,-0.04050562
3042,-0.015364374
3043,-0.046512462
3044,-0.010270565
3045,-0.027331552
3046,-0.03676056
3047,-0.05179047
3048,-0.04686178
3049,-0.036266815
3050,-0.02562964
3051,-0.071447276
3052,-0.052835964
3053,-0.043264337
3054,-0.0068334765
3055,-0.04744478
3056,-0.03539755
3057,-0.035301972
3058,-0.010065753
3059,-0.0034592054
3060,-0.016816244
3061,-0.029982349
3062,-0.050356638
3063,-0.061396606
3064,-0.051051453
3065,-0.04485644
3066,-0.039815903
3067,-0.029741608
3068,-0.030037161
3069,-0.032513317
3070,-0.04072532
3071,-0.04860838
3072,-0.007845549
3073,-0.0335852
3074,-0.037864093
3075,-0.046362996
3076,-0.03668424
3077,-0.0077998377
3078,-0.06663933
3079,-0.06025683
3080,-0.026613893
3081,-0.011396002
3082,-0.036790345
3083,0.005370231
3084,-0.03853329
3085,-0.041994475
3086,-0.04608744
3087,-0.040043216
3088,-0.044451647
3089,-0.039150953
3090,-0.040669683
3091,-0.02043048
3092,-0.0387979
3093,-0.033267543
3094,-0.033772916
3095,-0.042554554
3096,-0.020700634
3097,-0.029473223
3098,-0.02738563
3099,-0.009518495
3100,-0.039055582
3101,-0.033262502
3102,-0.033196367
3103,-0.050672345
3104,-0.00686986
3105,0.05351478
3106,-0.028994948
3107,-0.04797849
3108,-0.05829475
3109,-0.030717313
3110,-0.04282288
3111,-0.06425439
3112,-0.04410723
3113,-0.03716701
3114,-0.042963166
3115,-0.057898793
3116,-0.043910895
3117,-0.03821527
3118,-0.022988658
3119,-0.023034304
3120,-0.023016555
3121,-0.038788702
3122,-0.064973004
3123,-0.019482529
3124,-0.03988124
3125,-0.018066857
3126,-0.03810832
3127,-0.04061086
3128,-0.04663449
3129,0.0030445103
3130,-0.033679657
3131,-0.04480725
3132,-0.036671754
3133,-0.04964782
3134,-0.059649248
3135,-0.030958664
3136,-0.038482096
3137,-0.04044194
3138,-0.050924845
3139,-0.018438587
3140,-0.035445888
3141,-0.046734326
3142,-0.013375905
3143,-0.03439119
3144,-0.053813398
3145,-0.03140946
3146,-0.03778756
3147,-0.04272018
3148,-0.0058657704
3149,0.002767071
3150,-0.035722718
3151,-0.025275696
3152,-0.049774677
3153,-0.037712947
3154,-0.02981655
3155,-0.03634781
3156,-0.042714182
3157,-0.037904534
3158,-0.038388938
3159,-0.039531246
3160,-0.021092635
3161,-0.027654227
3162,-0.039575253
3163,-0.034546547
3164,-0.0033637895
3165,-0.027636375
3166,-0.0014847347
3167,-0.036475904
3168,-0.03005101
3169,-0.048226804
3170,-0.011432362
3171,-0.04804528
3172,-0.0132881235
3173,-0.025514316
3174,-0.037797447
3175,-0.050148644
3176,-0.041964397
3177,-0.041856214
3178,-0.018662127
3179,-0.066950366
3180,-0.05251198
3181,-0.042748325
3182,-0.0061125904
3183,-0.047082856
3184,-0.034846425
3185,-0.03460908
3186,-0.009121745
3187,-0.009320201
3188,-0.02813663
3189,-0.030023389
3190,-0.05003698
3191,-0.05051055
3192,-0.042953994
3193,-0.04492498
3194,-0.03964781
3195,-0.030668708
3196,-0.026607115
3197,-0.03123017
3198,-0.0417082
3199,-0.048004854
3200,0.0038119615
3201,-0.002365144
3202,0.012035706
3203,-0.008357207
3204,0.005510453
3205,0.010713889
3206,0.0015602945
3207,-0.023654275
3208,0.010481033
3209,-0.0073722764
3210,0.01965809
3211,0.005707773
3212,-0.0089994
3213,-0.03303508
3214,-0.008009921
3215,-0.010733624
3216,-0.018284595
3217,0.0067058993
3218,0.008613586
3219,-0.0063270247
3220,0.008428184
3221,-0.01286855
3222,-0.004560776
3223,0.016981713
3224,0.020771198
3225,-0.0005146396
3226,-0.0131466985
3227,-0.011757659
3228,0.017734535
3229,0.015808161
3230,0.0021609487
3231,0.014886118
3232,0.019860102
3233,0.014873845
3234,-0.014982145
3235,-0.015696157
3236,-0.009650979
3237,-0.020806894
3238,-0.01108436
3239,-0.0065925517
3240,0.019385697
3241,0.0050910935
3242,-0.007278207
3243,-0.024203282
3244,0.0053759473
3245,-0.022049233
3246,-0.024251174
3247,-0.018767962
3248,-0.011481487
3249,-0.012212442
3250,-0.019624462
3251,-0.015059174
3252,0.005392833
3253,0.023088869
3254,-0.007370325
3255,0.0045185843
3256,-0.00927395
3257,0.006582225
3258,-0.0030605304
3259,-0.0006838776
3260,-0.0014146582
3261,-0.0049857325
3262,0.0063969195
3263,-0.021278227
3264,5.0539136e-05
3265,-0.002760476
3266,0.013855528
3267,0.009248147
3268,0.0009942934
3269,0.017043682
3270,-0.0032554117
3271,-0.018928327
3272,-0.01808302
3273,-0.009221688
3274,-0.0007599492
3275,0.001169448
3276,-0.0073511153
3277,-0.0122147715
3278,-0.0059346478
3279,-0.007825272
3280,-0.012270616
3281,-0.027378827
3282,-0.003907607
3283,-0.01987362
3284,-0.013511976
3285,-0.008404067
3286,-0.00024816245
3287,-0.029406091
3288,-0.0154637825
3289,-0.010886996
3290,0.007748569
3291,0.004987745
3292,-0.0077340635
3293,0.0081592575
3294,-0.011208556
3295,0.015362192
3296,0.002238394
3297,-0.01757662
3298,-0.011420405
3299,-0.01840655
3300,-0.013044371
3301,-0.019858342
3302,-0.015050844
3303,-0.016710784
3304,0.004400842
3305,0.0059929555
3306,0.02266277
3307,-0.0049435706
3308,-0.0074203815
3309,-0.0011885264
3310,0.008526785
3311,-0.013452487
3312,-0.013869545
3313,0.004616258
3314,0.0044122464
3315,-0.011875511
3316,0.0002991305
3317,-0.0038354243
3318,-0.02844643
3319,-0.025248164
3320,-0.013844616
3321,0.022534708
3322,-0.02741456
3323,-0.023337223
3324,-0.016106933
3325,-0.0053082025
3326,-0.010321934
3327,-0.0032934549
3328,0.00275997
3329,-9.909928e-05
3330,-0.004654679
3331,-0.006569902
3332,-0.018048776
3333,-0.0019119857
3334,-0.008502545
3335,-0.017752605
3336,-0.008290441
3337,-0.009020382
3338,0.0126073295
3339,0.006414651
3340,0.010058612
3341,-0.014551976
3342,0.007736812
3343,0.0021684149
3344,-0.008514123
3345,0.0032793225
3346,-0.0024120829
3347,-0.009218481
3348,0.005560049
3349,-0.0007567656
3350,-0.0059120143
3351,0.0038295074
3352,-0.0024908788
3353,-0.0015986961
3354,0.0010929283
3355,-0.011285392
3356,-0.0065496243
3357,-0.000968005
3358,-0.0004270688
3359,0.018381476
3360,0.004297312
3361,-0.008287455
3362,-0.008446795
3363,-0.013008135
3364,-0.0103383185
3365,0.00013748754
3366,0.003071683
3367,0.0036298018
3368,0.0051046303
3369,-0.005363942
3370,-0.012452659
3371,0.0021606192
3372,0.002132823
3373,-0.0010657815
3374,-0.008439566
3375,-0.011100956
3376,0.007483398
3377,-0.0076348595
3378,-0.0013138663
3379,-0.0036572542
3380,0.0108301565
3381,-0.010913642
3382,0.01228206
3383,-0.003447363
3384,0.01418451
3385,0.0026588487
3386,0.0051261247
3387,0.009651375
3388,0.013441656
3389,0.0045436844
3390,-0.008119303
3391,-0.0068804123
3392,0.0065885913
3393,0.0085206255
3394,0.002656296
3395,0.0028641606
3396,0.0068124183
3397,-0.0145114325
3398,0.00344105
3399,-0.00818122
3400,0.0009656928
3401,0.004376028
3402,-0.013229606
3403,0.012608139
3404,-0.0043589533
3405,-0.006605183
3406,0.0036652347
3407,0.0006635072
3408,-0.0060685156
3409,-0.0016093821
3410,0.0014511208
3411,0.002782118
3412,0.0005669327
3413,-0.011398703
3414,0.0062461975
3415,-0.0016531245
3416,0.0037145447
3417,-0.011199261
3418,-0.005584322
3419,0.009147409
3420,0.004787384
3421,0.0053679496
3422,-0.014764087
3423,0.008118114
3424,0.0028357517
3425,0.018661048
3426,-0.010655173
3427,-0.0063712406
3428,0.0019450545
3429,0.018631889
3430,-0.006235345
3431,0.0053110835
3432,-0.0061246515
3433,0.007090469
3434,-0.015940389
3435,0.0065551
3436,0.01837119
3437,-0.012554977
3438,0.0043724435
3439,-0.0009854123
3440,-0.0023711852
3441,-0.0046067378
3442,0.011393965
3443,0.0017124617
3444,0.0030625248
3445,0.0033260179
3446,-0.0014116373
3447,0.00023623889
3448,-0.0035399683
3449,-0.01707652
3450,0.0015060647
3451,0.0005834079
3452,-0.01475227
3453,0.019218475
3454,0.0002777317
3455,-0.008297713
3456,0.012612804
3457,0.017849926
3458,-0.016102092
3459,0.009193962
3460,0.012429612
3461,-0.0145637905
3462,0.013749963
3463,0.00043226374
3464,0.0027718947
3465,0.007974958
3466,0.011007986
3467,-0.0042483136
3468,-0.007413681
3469,0.017982312
3470,-0.0013705962
3471,-0.00035301453
3472,0.009937466
3473,-0.0060215048
3474,-0.0021503163
3475,0.0021808606
3476,0.0002785022
3477,-0.008370395
3478,-0.0016643045
3479,-0.0050130165
3480,0.00285128
3481,-0.0016644887
3482,0.0037426022
3483,-0.0045122546
3484,-0.0048066108
3485,-0.0077817934
3486,0.016262833
3487,0.006058794
3488,0.0015616813
3489,-0.013932497
3490,-0.004757497
3491,0.017513169
3492,0.0015223817
3493,0.0056787194
3494,-0.003501687
3495,-0.0032772445
3496,0.007735946
3497,0.0037687279
3498,-0.0039318088
3499,0.0047204546
3500,0.00523166
3501,-0.017037958
3502,-0.002894318
3503,-0.008413657
3504,-0.0050310455
3505,0.004035331
3506,-0.005555373
3507,0.0025228697
3508,-0.012237943
3509,-0.0041108844
3510,-0.0026065882
3511,0.01559748
3512,-0.013012968
3513,0.00033482723
3514,0.008907056
3515,0.0050089997
3516,-0.0009789105
3517,0.004499269
3518,0.0025382526
3519,-0.0067090355
3520,0.0038387042
3521,-0.0062846676
3522,-0.009629084
3523,-0.005114017
3524,-0.0020263093
3525,0.013853526
3526,0.004194785
3527,0.003907886
3528,0.008506837
3529,0.010497928
3530,-0.0013603906
3531,0.006515802
3532,0.007890615
3533,0.008352224
3534,-0.008335143
3535,0.005692283
3536,-0.017011749
3537,-0.0003839088
3538,-0.013294149
3539,-0.014193322
3540,0.012798991
3541,-0.004846561
3542,-0.007091666
3543,0.011103707
3544,0.0049901577
3545,0.014944664
3546,-0.0014908761
3547,0.0108130025
3548,0.00088392367
3549,0.0038850498
3550,-0.016753899
3551,0.008837389
3552,0.0039188103
3553,-0.007688799
3554,-0.011350321
3555,0.0018352667
3556,0.008590513
3557,-0.018224671
3558,0.002522046
3559,-0.0107811745
3560,0.008025929
3561,-0.001095875
3562,0.005039251
3563,-0.010579383
3564,0.009770521
3565,0.001979922
3566,0.0012111877
3567,-0.005147157
3568,-0.005776542
3569,-0.007374332
3570,0.011204501
3571,-0.0016660017
3572,-0.0065662144
3573,-0.008448071
3574,0.009653025
3575,-0.0057163243
3576,-0.018974762
3577,0.00310464
3578,-0.0060123336
3579,-0.011509324
3580,-0.005554869
3581,-0.0097558675
3582,-0.0062815314
3583,-0.004105318
3584,-0.010484892
3585,0.0067812465
3586,-0.012692304
3587,-0.01390944
3588,0.016316792
3589,-0.011636843
3590,0.0069734473
3591,-0.0041666026
3592,-0.0079656085
3593,-0.018248683
3594,0.01578345
3595,0.0098398095
3596,-0.0015950656
3597,-0.0048877504
3598,0.00465748
3599,-0.013655729
3600,0.0023624378
3601,0.00022891776
3602,0.0062750014
3603,0.004358746
3604,-0.010567164
3605,-0.004498752
3606,0.0027233218
3607,-0.0036069276
3608,-0.0035504482
3609,0.004671747
3610,0.0012574765
3611,-0.017244527
3612,0.009414883
3613,-0.009460647
3614,0.004206173
3615,0.014521797
3616,0.0012696773
3617,-0.00018747682
3618,-0.0008469342
3619,0.0015612367
3620,0.013492087
3621,0.0012851863
3622,-0.0053811693
3623,-0.011655288
3624,-0.0101326
3625,-0.006564956
3626,-0.004969001
3627,-0.0019864964
3628,0.011084923
3629,-0.01686104
3630,-0.011653135
3631,0.013088517
3632,0.0032205214
3633,0.004323269
3634,-0.008071032
3635,-0.0121391965
3636,0.012658325
3637,0.012040994
3638,-0.0043340754
3639,0.008700153
3640,0.0032818897
3641,-0.0030444684
3642,-0.0074707717
3643,-0.0138423955
3644,0.004099474
3645,-0.00902161
3646,-0.0043529957
3647,0.019630443
3648,-0.0062865224
3649,0.0162818
3650,-0.00037581997
3651,0.010162623
3652,0.018128721
3653,-0.0032180657
3654,0.0005371636
3655,-0.0060727727
3656,-0.0029221124
3657,-0.0055168127
3658,-0.008010128
3659,-0.0059425025
3660,0.0057976125
3661,0.0013295455
3662,0.0036124613
3663,-0.0035510247
3664,0.018851995
3665,-0.0022717188
3666,0.007991818
3667,0.010195085
3668,0.01320475
3669,-0.002117607
3670,0.018270575
3671,-0.009389844
3672,-0.005840694
3673,0.008070592
3674,-0.015079627
3675,0.01061718
3676,0.0048301746
3677,0.0050400854
3678,0.002328977
3679,0.004803
3680,0.00034572082
3681,-0.0013961432
3682,0.0076619117
3683,0.007350414
3684,-0.015263622
3685,-0.013669188
3686,0.00052212167
3687,-0.0127119105
3688,-0.009214094
3689,0.0071402094
3690,-0.0011370005
3691,-0.014744061
3692,0.002902969
3693,0.006851846
3694,0.0064250957
3695,-0.00012312345
3696,0.0009677994
3697,-0.004012806
3698,0.0105938185
3699,0.018246563
3700,-0.017997831
3701,0.0027312753
3702,0.006629363
3703,0.0015725243
3704,0.009703878
3705,-0.002608683
3706,0.005495393
3707,-0.014193659
3708,0.008430485
3709,-0.013521776
3710,-0.0015861061
3711,-0.0080473
3712,0.0035771357
3713,-0.010178162
3714,0.010096994
3715,-0.01624012
3716,0.017246105
3717,0.0036244628
3718,-0.0046462193
3719,-0.008682483
3720,-0.0007468688
3721,-0.00015823769
3722,-0.014608526
3723,-0.005668279
3724,0.0020571651
3725,0.010199456
3726,0.0031758149
3727,0.014196354
3728,0.008021972
3729,0.00963701
3730,0.0061913845
3731,-0.0025543466
3732,0.008456368
3733,0.008146066
3734,-0.0063278046
3735,0.011050976
3736,-0.005596349
3737,0.009803631
3738,-0.003743917
3739,0.001307924
3740,0.0062153954
3741,-0.0051676356
3742,-0.016302634
3743,-0.005279986
3744,0.008811554
3745,0.007995119
3746,-0.005837684
3747,0.0012256346
3748,-0.007822392
3749,0.00068693026
3750,0.014757037
3751,-0.003097929
3752,-0.0041717943
3753,-0.015217038
3754,0.0063574985
3755,-0.015828852
3756,-0.01009556
3757,0.013978084
3758,-0.0007468885
3759,-0.008492843
3760,-0.0011595521
3761,0.0057537192
3762,-0.009100914
3763,-0.0022608407
3764,-0.0063752364
3765,0.012312752
3766,0.00491353
3767,0.0013037792
3768,-0.0025620037
3769,-0.0059658648
3770,0.0031465744
3771,-0.004543036
3772,0.0017511764
3773,-0.0057394877
3774,-0.011269122
3775,0.0134294415
3776,0.00089042156
3777,-0.01475669
3778,0.0016364924
3779,0.004742379
3780,-0.002751592
3781,-0.004746137
3782,0.00045172143
3783,0.0019779676
3784,-0.002498434
3785,-0.008006847
3786,0.016187117
3787,-0.0067306343
3788,-0.0014621958
3789,-0.013057208
3790,0.0011668386
3791,0.003458169
3792,0.0066496152
3793,0.003895648
3794,-0.015052534
3795,0.0018760028
3796,-0.017228661
3797,0.001699634
3798,0.00017938999
3799,-0.007343869
3800,0.012597264
3801,0.008497819
3802,-0.009043295
3803,-0.0038551618
3804,-0.009122098
3805,-0.017926108
3806,-0.008613407
3807,-0.015907682
3808,0.011140893
3809,0.0056926017
3810,-0.008047534
3811,-0.0015557922
3812,-0.0035115923
3813,3.004892e-05
3814,0.00054952723
3815,-0.01072476
3816,-0.002109816
3817,0.0025850877
3818,-0.0010473616
3819,-0.0070922473
3820,-0.013774504
3821,0.009417309
3822,0.0073729022
3823,0.0020755774
3824,-0.0024723008
3825,0.0006265789
3826,-0.0037928848
3827,-0.0040416443
3828,0.015705861
3829,0.007674203
3830,-0.00044113552
3831,0.010188153
3832,-0.010351594
3833,-0.002867045
3834,-0.009410913
3835,0.0057783513
3836,-0.012409078
3837,-0.0024492627
3838,-0.009433252
3839,-0.0068055
3840,0.013882763
3841,0.008041582
3842,0.0029414014
3843,-0.01676789
3844,-0.00453018
3845,0.005809088
3846,-0.0108551
3847,0.0039204373
3848,-0.00908819
3849,0.00832659
3850,0.0023826635
3851,0.013485756
3852,-0.005268213
3853,0.0017558008
3854,-0.0006930238
3855,-0.0014271439
3856,0.009325489
3857,0.014282367
3858,-0.005747533
3859,-0.010222033
3860,0.0020061801
3861,0.01677746
3862,-0.0063824016
3863,-0.0084710065
3864,0.0056940997
3865,-0.0017813562
3866,0.012673605
3867,0.011034159
3868,0.013557674
3869,0.004354247
3870,0.00047119262
3871,-0.001526374
3872,-0.01485694
3873,0.014721941
3874,-0.0027798691
3875,-0.0024640018
3876,-0.0026937823
3877,-0.008349521
3878,0.0005682756
3879,-0.012277448
3880,-0.001103599
3881,0.019653047
3882,0.004718468
3883,-0.010340398
3884,0.0001292635
3885,-0.0033171168
3886,0.0008785446
3887,0.01130864
3888,0.009568629
3889,0.008411088
3890,-0.0037047742
3891,0.004509855
3892,-0.011529522
3893,-0.0015864383
3894,-0.0020208284
3895,0.0052097295
3896,-0.007900156
3897,0.0057474086
3898,0.0010946657
3899,-0.018790063
3900,0.0058221524
3901,0.0040945336
3902,0.011315849
3903,0.006340726
3904,0.013967138
3905,-0.0011794583
3906,-0.017919114
3907,-7.072297e-05
3908,0.01522342
3909,-0.0055678654
3910,-0.014341759
3911,-0.0043201013
3912,-0.0111951595
3913,0.0028433066
3914,0.00027761157
3915,0.019615494
3916,0.003946385
3917,0.00034910804
3918,0.002458478
3919,-0.008300549
3920,-0.005881501
3921,0.011696485
3922,0.0011283866
3923,-0.016609987
3924,0.005031854
3925,0.013336228
3926,0.0025858474
3927,0.005411804
3928,0.008754762
3929,-0.01306972
3930,-0.004252454
3931,-0.008962351
3932,0.0036341199
3933,0.008508524
3934,-0.007913622
3935,0.008053288
3936,0.008724508
3937,0.0020188512
3938,-0.003413651
3939,0.0049704183
3940,-0.0038321125
3941,0.0076994556
3942,-0.009725058
3943,0.0052969144
3944,-0.012137701
3945,0.01142751
3946,-0.0041398457
3947,-0.010868053
3948,-0.0002311231
3949,0.0012190356
3950,-0.001102415
3951,-0.00085198676
3952,0.019412845
3953,-0.00091094663
3954,-0.014357548
3955,-0.010277736
3956,0.006361491
3957,0.0038462202
3958,0.0054016844
3959,-0.014612243
3960,0.0032223938
3961,0.0063617015
3962,-0.00502592
3963,-0.0005240922
3964,0.00057448837
3965,0.0044635283
3966,0.01319751
3967,-0.009276549
3968,0.00062502164
3969,-0.0027812626
3970,-0.014338691
3971,0.0038053056
3972,0.0034991142
3973,0.0012268596
3974,0.018802539
3975,-0.005972086
3976,-0.003997019
3977,0.005356916
3978,0.0031375163
3979,0.0031109466
3980,-0.0037234277
3981,-0.0051631443
3982,-0.00013074098
3983,-0.003491837
3984,0.005449785
3985,0.0044358303
3986,0.009445239
3987,0.0006638114
3988,-0.0037206116
3989,0.0005497495
3990,-0.005218678
3991,0.0052783242
3992,0.010951672
3993,0.008982932
3994,-0.011373269
3995,0.008633294
3996,0.01399046
3997,-0.00084912014
3998,0.0053359233
3999,0.0015453335
4000,0.012724426
4001,-0.0034393924
4002,0.013986899
4003,-0.0069990214
4004,0.008509966
4005,0.0034329924
4006,-0.012603093
4007,-0.001959484
4008,-0.005166252
4009,0.0047750296
4010,0.0020302415
4011,0.0018410566
4012,-0.00697133
4013,-0.0080013545
4014,-0.009391194
4015,-0.005669873
4016,0.015292724
4017,-0.0029941201
4018,0.0034251693
4019,-0.012414294
4020,0.009906168
4021,0.0019086248
4022,-0.0025791787
4023,-0.0037452732
4024,0.0033494057
4025,-0.0062191477
4026,0.008015371
4027,-0.013815837
4028,0.011478724
4029,-0.010439754
4030,-0.011389797
4031,-0.0047889585
4032,0.0043963087
4033,-0.011081723
4034,0.0039153243
4035,-0.011724491
4036,-0.0039034623
4037,-0.003208875
4038,0.0018876778
4039,0.0141272945
4040,-0.019373558
4041,-0.008337819
4042,-0.0028005897
4043,0.012302933
4044,0.012873461
4045,-0.012897589
4046,-0.0019943742
4047,-0.01272003
4048,-0.0048899
4049,0.016166383
4050,-0.0073767593
4051,0.0042979284
4052,-0.010535983
4053,-0.0065537416
4054,0.00034122466
4055,0.0058700615
4056,-0.0057083387
4057,-0.0033972326
4058,0.007879208
4059,-0.010284035
4060,-0.016219757
4061,0.014286759
4062,0.019129578
4063,-0.0054258374
4064,0.0055064633
4065,0.010476035
4066,0.008165141
4067,-0.003933934
4068,-0.002119205
4069,0.00775952
4070,-0.01128333
4071,-0.017655473
4072,0.0059325183
4073,0.015751382
4074,-0.0058977334
4075,0.013147639
4076,0.0074951374
4077,-0.014670207
4078,-0.01676422
4079,0.0025777703
4080,-0.00015328485
4081,0.013633604
4082,0.008245468
4083,-0.0039434806
4084,0.008437438
4085,0.00181448
4086,0.0008937861
4087,-0.0018313241
4088,0.008222456
4089,0.007087446
4090,0.017301988
4091,0.01996976
4092,9.596717e-05
4093,0.0020263523
4094,0.010440898
4095,0.003482885
