Sno,Weight
0,0.019526873
1,0.04051777
2,0.0052343365
3,0.05668859
4,0.020593312
5,0.029249042
6,-0.0045294943
7,0.029280126
8,0.03897661
9,-0.02393963
10,0.055361945
11,0.031567857
12,0.012374246
13,0.022697492
14,0.024783041
15,0.032652017
16,-0.042088423
17,0.023521978
18,-0.050958984
19,0.022505093
20,0.023215946
21,0.03625752
22,0.0035021615
23,-0.055815477
24,0.039768483
25,0.044685278
26,-0.007928001
27,0.018354889
28,0.015763123
29,0.036855355
30,0.01700127
31,0.025247144
32,0.037994873
33,-0.019989455
34,-0.05337569
35,0.0050531053
36,0.02287048
37,0.030471448
38,0.031039197
39,0.01305555
40,-0.04943067
41,0.028636836
42,0.020003235
43,0.01725642
44,0.054101784
45,0.03623393
46,0.022834327
47,0.04018901
48,0.012953379
49,0.008852226
50,0.0075650644
51,0.007849426
52,0.028181242
53,0.028689984
54,0.021519773
55,0.012446223
56,0.001211203
57,-0.022773586
58,0.05756271
59,-0.034366596
60,0.016133705
61,-0.045441724
62,-0.029129107
63,0.051799927
64,-0.0805761
65,-0.010496335
66,0.002542118
67,0.04439454
68,0.04597915
69,0.04931707
70,0.03141051
71,0.03464502
72,0.032014992
73,-0.046258625
74,0.037395187
75,0.01634451
76,-0.012349109
77,-0.02541534
78,-0.02031919
79,-0.009281792
80,0.047503915
81,0.01328166
82,-0.01890077
83,0.03164272
84,0.01696165
85,0.013876581
86,-0.01984707
87,-0.020566937
88,0.009055698
89,-0.04150883
90,0.032399517
91,-0.022683807
92,0.03875601
93,0.020301918
94,0.026587442
95,0.023468558
96,0.038591515
97,-0.04623236
98,0.04092953
99,-0.014159059
100,0.05058665
101,0.025149425
102,-0.015181255
103,-0.009116871
104,-0.0063135456
105,-0.007843156
106,0.023581577
107,0.013630218
108,-0.018968498
109,-0.06134794
110,-0.030335817
111,0.033786584
112,0.0077422597
113,0.03471528
114,-0.009406689
115,0.029205631
116,-0.007838163
117,-0.056345526
118,0.03891477
119,-0.010580769
120,0.035802092
121,0.029810647
122,-0.05064013
123,0.04171568
124,-0.0254855
125,0.0064874515
126,-0.00083988614
127,0.025525754
128,0.008979729
129,0.019029029
130,0.022802623
131,0.020475335
132,0.023035938
133,0.033986814
134,-0.06869957
135,-0.010723187
136,-0.03359378
137,0.059403345
138,0.014881658
139,0.029304005
140,0.024438119
141,0.025783576
142,-0.0012426804
143,0.01147698
144,0.045430522
145,-0.03872612
146,0.013331946
147,0.022240326
148,0.011542802
149,0.02333508
150,0.034657087
151,0.038578276
152,0.017987257
153,-0.036661483
154,-0.06612
155,0.0071228296
156,0.015971977
157,0.023210978
158,-0.062043313
159,0.009094518
160,0.021606794
161,0.03437495
162,-0.022758832
163,0.028563252
164,-0.05654906
165,-0.027764078
166,-0.059183203
167,-0.04236218
168,-0.06073116
169,0.014819029
170,0.052962486
171,0.038465943
172,0.018846683
173,0.0080268625
174,0.03938339
175,0.015476437
176,0.03163478
177,0.019465066
178,0.039551888
179,0.040808633
180,0.012001139
181,0.03847309
182,0.03636224
183,0.023740228
184,0.027088026
185,0.041869596
186,-0.01570001
187,0.03570655
188,0.021573706
189,-0.0011565811
190,0.027711464
191,0.018756013
192,0.02864253
193,0.016928984
194,0.017663602
195,0.019018833
196,0.0034769194
197,-0.0044375057
198,-0.055533513
199,0.014364378
200,-0.010333304
201,-0.01113622
202,-0.035048522
203,0.058955368
204,-0.056293193
205,-0.0673966
206,-0.037641514
207,-0.008962468
208,-0.058200218
209,0.009215932
210,-0.04590667
211,0.036291186
212,-0.06070586
213,0.025938798
214,0.042747326
215,0.06729945
216,0.034387577
217,-0.02290635
218,0.015026807
219,-0.045384556
220,0.040219165
221,0.009656885
222,0.0030059423
223,0.013811345
224,0.029074475
225,0.04318657
226,0.02540981
227,0.030299934
228,0.006569157
229,-0.0051634125
230,0.043883458
231,0.048808124
232,-0.0076098503
233,0.026299793
234,0.030817088
235,0.058065996
236,-0.037116643
237,0.047641296
238,0.024057847
239,0.02700829
240,-0.04776042
241,-0.052780103
242,0.030115942
243,0.024217663
244,0.06615599
245,0.07234671
246,0.042682946
247,-0.04351454
248,0.0121579915
249,0.033679288
250,0.022136841
251,0.0066639204
252,0.044075947
253,0.045204245
254,0.042722877
255,-0.05530029
256,0.011461874
257,-0.020937363
258,0.027897567
259,-0.0047773696
260,0.029520584
261,-0.031584196
262,0.08195374
263,0.023432957
264,0.03343508
265,0.04496542
266,0.004992394
267,0.009090262
268,0.047736593
269,0.030292766
270,0.024053592
271,0.014017603
272,0.03151462
273,0.04527169
274,0.011135987
275,0.019686012
276,0.034486637
277,-0.028996604
278,0.04642297
279,0.03395486
280,0.00020100674
281,-0.002420207
282,0.06894495
283,0.011497821
284,0.021196881
285,0.019138526
286,-0.062168606
287,0.009702248
288,0.019067863
289,0.03153782
290,-0.018914485
291,0.018421566
292,-0.055746526
293,-0.0095392335
294,0.013965784
295,0.036500122
296,-0.024160445
297,0.02749557
298,0.029047206
299,0.032859378
300,0.014346903
301,0.006846097
302,0.037012663
303,0.036150686
304,0.029580243
305,0.025447138
306,0.027314859
307,0.028704282
308,0.011230443
309,0.033341058
310,0.047876764
311,0.019440131
312,0.034775864
313,-0.04755592
314,0.0065899906
315,0.032204643
316,0.030359762
317,0.012280607
318,0.042610053
319,0.026012564
320,-0.04346526
321,0.020769272
322,0.043957263
323,0.011741182
324,0.012477376
325,0.034718942
326,0.036161415
327,0.026208447
328,0.025809254
329,-0.023513548
330,0.035227586
331,-0.07461837
332,-0.056005254
333,-0.06748724
334,0.048194688
335,-0.0070574083
336,0.06356625
337,0.031361554
338,0.039763182
339,0.039248046
340,0.06033011
341,0.03071508
342,0.04562826
343,-0.06117761
344,0.03302835
345,-0.020907447
346,0.014809235
347,0.04615483
348,0.030949114
349,0.021066839
350,0.02770304
351,0.01598316
352,0.03483845
353,0.031260196
354,0.02721094
355,0.03394922
356,0.020030381
357,0.0097521935
358,0.03641548
359,-0.045087513
360,-0.0065645613
361,0.03410992
362,0.032583673
363,-0.073990956
364,-0.026944332
365,0.047448847
366,0.022343202
367,0.00801591
368,0.05415189
369,-0.008511858
370,0.042659573
371,0.043208364
372,-0.084135264
373,-0.05529162
374,0.009076484
375,0.054988958
376,0.015430648
377,0.03265903
378,0.022159565
379,-0.0789957
380,0.041261062
381,0.034867086
382,0.028333876
383,-0.053247795
384,0.0099584395
385,0.010394116
386,0.018657891
387,-0.013056006
388,-0.0326415
389,0.022555199
390,-0.0696139
391,-0.003894922
392,0.025557866
393,-0.022147402
394,-0.032663003
395,0.008457244
396,-0.040705018
397,0.02889292
398,0.0001356363
399,-0.060392283
400,0.041118618
401,0.0233668
402,0.012924832
403,0.02124271
404,-0.027768252
405,0.0214325
406,0.014992956
407,0.001883788
408,-0.0096109845
409,-0.035472166
410,-0.066611744
411,-0.0091232965
412,0.03530413
413,0.023971302
414,0.021967407
415,0.03663875
416,0.0014786393
417,0.032808226
418,0.052792065
419,0.01966261
420,0.04272265
421,-0.0018414778
422,-0.05906707
423,0.019790865
424,0.061564088
425,0.004090226
426,0.02667351
427,0.0062499223
428,0.017296508
429,0.0073227216
430,0.010137932
431,0.015920065
432,0.011686019
433,-0.036330152
434,0.009302099
435,0.0014107181
436,0.01458194
437,0.035096154
438,-0.052370653
439,-0.01712577
440,0.019695
441,0.04792456
442,0.023032567
443,0.038866714
444,0.01625296
445,0.02390485
446,-0.033589892
447,0.010629714
448,0.05661428
449,0.022658858
450,0.014108839
451,0.019271564
452,0.011255786
453,0.018169262
454,0.03887306
455,0.005256961
456,0.0001422207
457,0.08069289
458,-0.002574692
459,-0.07388605
460,0.059559397
461,-0.06747031
462,0.042166952
463,-0.024354087
464,-0.057512138
465,0.005777103
466,0.032736797
467,0.02201781
468,0.067921504
469,0.011289302
470,-0.015905363
471,-0.060619533
472,-0.061904397
473,0.067276634
474,-0.032714274
475,0.029122835
476,0.01033392
477,-0.013350635
478,0.013461042
479,0.012247402
480,-0.0024468268
481,0.016442657
482,-0.03788316
483,0.03110492
484,0.014284956
485,-0.0013282467
486,-0.029850805
487,0.027657986
488,-0.0064671296
489,0.025101257
490,0.015987493
491,-0.08956828
492,-0.05053919
493,-0.06172876
494,0.025257923
495,0.011081379
496,0.031100165
497,0.008885959
498,-0.041361153
499,0.005214667
500,-0.08352131
501,-0.055573087
502,-0.014095882
503,0.05905749
504,0.0060825576
505,0.018035721
506,0.043183085
507,-0.07941455
508,0.015502425
509,0.021586785
510,0.040762506
511,0.054224264
512,-0.009739943
513,0.0007192008
514,-0.047277723
515,-0.003276588
516,0.026830882
517,0.005387213
518,-0.068367235
519,0.006423527
520,-0.05732993
521,0.0070693865
522,-0.0091566825
523,-0.021231057
524,-0.040441882
525,-0.038410787
526,-0.0045889067
527,0.0077376696
528,-0.03871239
529,0.00041530334
530,0.012406857
531,-0.024343478
532,-0.013529209
533,0.011161506
534,-0.039824437
535,-0.0008876069
536,-0.024947342
537,0.010381524
538,0.073107794
539,0.021024855
540,0.009978742
541,0.0012861507
542,0.020611284
543,-0.03783685
544,-0.022276256
545,-0.042129733
546,0.06218989
547,-0.032593507
548,0.045272782
549,-0.002797304
550,0.0050137453
551,-0.041032594
552,0.077874616
553,-0.039519574
554,-0.039327584
555,-0.039658766
556,-0.033201035
557,-0.0259383
558,-0.012915108
559,0.009868946
560,-0.010409864
561,0.03324904
562,-0.04735651
563,-0.007959499
564,0.0034727305
565,-0.045796048
566,-0.052137505
567,0.012356862
568,0.0069857244
569,0.02544535
570,-0.022349408
571,0.03411873
572,-0.019484209
573,-0.044605594
574,-0.03313592
575,-0.006249473
576,-0.002960648
577,-0.02939051
578,0.018434586
579,-0.03052477
580,-0.027179845
581,-0.031349577
582,-0.055425026
583,0.00026798144
584,-0.014762479
585,-0.026125165
586,-0.031777196
587,-0.074296124
588,0.06993993
589,-0.06712235
590,-0.0064240973
591,-0.0035343787
592,0.042802032
593,-0.014906574
594,0.036334425
595,-0.0032189202
596,-0.059997257
597,-0.021306846
598,0.006377869
599,0.081118844
600,0.016959442
601,-0.021585647
602,-0.009166837
603,0.0062348307
604,-0.0069589717
605,-0.025090644
606,-0.026221935
607,-0.029606115
608,-0.011589332
609,-0.041276157
610,-0.014278006
611,-0.043732777
612,-0.02658421
613,-0.004947956
614,0.046593625
615,0.031738058
616,-0.0065711234
617,-0.038010195
618,-0.011821475
619,-0.08949947
620,-0.050577555
621,-0.062312085
622,-0.029677557
623,-0.021919716
624,0.01631806
625,0.019070156
626,0.031007236
627,-0.036837008
628,-0.08433272
629,-0.055578277
630,-0.019633409
631,-0.044298954
632,-0.019859703
633,-0.014149804
634,-0.02366769
635,-0.07959792
636,-0.016164277
637,-0.03717732
638,-0.03480779
639,0.057130642
640,-0.011057502
641,-0.027032347
642,-0.04663238
643,-0.009029492
644,-0.032661624
645,-0.03626365
646,0.047624137
647,-0.032198716
648,-0.004666108
649,-0.038177162
650,-0.03263566
651,-0.021733917
652,-0.041166272
653,-0.038204856
654,-0.005969067
655,-0.012257324
656,-0.03890766
657,-0.0215755
658,0.0109657915
659,-0.033864282
660,-0.036740348
661,-0.029917138
662,-0.025824567
663,-0.007203412
664,-0.008959744
665,-0.0366007
666,-0.06706955
667,-0.044031806
668,-0.00077683525
669,-0.026586702
670,-0.053354237
671,-0.025452456
672,-0.043632552
673,-0.04096453
674,-0.025923459
675,-0.0325585
676,-0.044682007
677,-0.022486808
678,0.00018159865
679,0.024903372
680,0.042996638
681,-0.03839397
682,-0.017831363
683,-0.039634895
684,-0.033603933
685,-0.026224874
686,-0.018734032
687,-0.039671887
688,-0.02522169
689,-0.035065904
690,-0.019048057
691,-0.032112937
692,-0.020346709
693,-0.037510823
694,-0.05282354
695,-0.027300052
696,-0.021961024
697,0.020295622
698,0.0049566473
699,-0.0353342
700,-0.01432892
701,-0.04457335
702,-0.03335759
703,-0.033830825
704,-0.04676589
705,-0.031110141
706,-0.03690661
707,-0.020620944
708,-0.02886475
709,-0.031135865
710,-0.03392615
711,-0.007877683
712,-0.024337962
713,-0.035550084
714,-0.024761025
715,0.03360204
716,-0.055931587
717,0.06334233
718,-0.037367694
719,0.023171172
720,-0.0572081
721,-0.033277515
722,-0.045893937
723,-0.002796036
724,-0.060541883
725,-0.025416339
726,-0.0003302765
727,-0.062114615
728,-0.0015121232
729,0.05846712
730,-0.029571654
731,-0.031468052
732,-0.018392833
733,-0.01395485
734,-0.020638518
735,-0.00118486
736,-0.02605498
737,-0.03065147
738,-0.018137204
739,-0.014150303
740,-0.024374485
741,-0.013065779
742,-0.030437458
743,0.026934955
744,-0.009857346
745,-0.03797805
746,-0.011118034
747,-0.0891112
748,0.053058203
749,-0.06212805
750,-0.02988894
751,-0.02626127
752,-0.03354298
753,-0.010557301
754,0.01482982
755,-0.017438764
756,-0.05932332
757,0.04258553
758,-0.03845388
759,-0.04411474
760,-0.005947093
761,-0.023151822
762,-0.013454908
763,-0.078549884
764,-0.034720056
765,-0.0371324
766,-0.01291148
767,-0.054857343
768,-0.007942795
769,-0.021120412
770,-0.046493374
771,-0.03255706
772,-0.03366616
773,-0.030712517
774,-0.033848498
775,-0.03858731
776,0.0024488766
777,-0.040330604
778,-0.032108136
779,-0.048482683
780,-0.040714476
781,-0.037935756
782,-0.028284974
783,-0.016956847
784,-0.027631998
785,-0.015608451
786,0.054146867
787,-0.02818758
788,-0.02168094
789,-0.029015148
790,-0.039957754
791,0.004332247
792,-0.032784674
793,-0.026292944
794,-0.06604029
795,-0.03849089
796,-0.029806644
797,-0.030298602
798,-0.052197415
799,-0.025380284
800,-0.04417726
801,-0.041585114
802,-0.0096239885
803,-0.031966582
804,-0.05538676
805,-0.02978719
806,0.0135426605
807,-0.042903695
808,-0.009714985
809,-0.039406445
810,-0.050471462
811,-0.03952005
812,-0.034031846
813,-0.022242034
814,-0.014250705
815,-0.02291454
816,-0.030128855
817,-0.036516983
818,-0.026714433
819,-0.03166653
820,-0.041569557
821,-0.03590603
822,-0.052645393
823,-0.039881717
824,-0.034046996
825,-0.047642417
826,-0.038701087
827,-0.025464797
828,-0.031688493
829,0.039382488
830,-0.034376904
831,-0.019978328
832,-0.013980169
833,-0.030088486
834,-0.024137372
835,-0.0241675
836,-0.024453763
837,-0.031123891
838,-0.04632922
839,-0.03222558
840,-0.0139868185
841,0.08835798
842,-0.02286917
843,-0.07364815
844,-0.05541222
845,-0.06770314
846,-0.03740998
847,-0.0068979
848,-0.05721726
849,-0.034657616
850,-0.030024497
851,-0.0040573315
852,-0.061240517
853,-0.025510821
854,-0.02844345
855,-0.06173834
856,-0.0012632849
857,-0.016979098
858,-0.025457155
859,-0.045358706
860,-0.015935488
861,-0.030070942
862,-0.027562084
863,-0.025725188
864,-0.023626251
865,-0.03258716
866,-0.037005294
867,-0.0437857
868,-0.031834926
869,-0.0051423064
870,-0.029676797
871,-0.045132887
872,-0.0065832823
873,-0.037444685
874,-0.021825254
875,0.049072023
876,-0.051571026
877,-0.06225825
878,-0.016477251
879,-0.03519177
880,-0.04799575
881,-0.0103226295
882,-0.029776221
883,-0.038322728
884,-0.054907892
885,-0.033536077
886,-0.040529065
887,-0.04419962
888,-0.047623634
889,-0.03887645
890,-0.01691114
891,-0.051754113
892,-0.034718573
893,-0.037131023
894,-0.034250546
895,-0.045041356
896,-0.007683698
897,-0.018882532
898,-0.046333127
899,-0.032845743
900,-0.033210304
901,-0.030281467
902,-0.032860972
903,-0.040736057
904,-0.043618564
905,-0.039429784
906,-0.031942833
907,-0.0463288
908,-0.040399764
909,-0.037549917
910,-0.028951574
911,-0.049579713
912,-0.012692644
913,-0.03916111
914,0.021374226
915,-0.02408627
916,-0.018694302
917,-0.025107097
918,-0.040411733
919,0.0049230508
920,-0.02773162
921,-0.03212079
922,-0.049551513
923,-0.023644527
924,-0.046046507
925,-0.04147503
926,-0.0604573
927,-0.037336275
928,-0.04381965
929,-0.04117573
930,-0.00017314663
931,-0.031697296
932,-0.056579147
933,-0.028945193
934,-0.026912767
935,-0.04189161
936,0.003241794
937,-0.039478566
938,-0.02465936
939,-0.040254075
940,-0.033916235
941,-0.022982769
942,-0.025781354
943,-0.03614174
944,-0.0315235
945,-0.036594268
946,-0.03497248
947,-0.031467505
948,-0.042009808
949,-0.033885792
950,-0.052505396
951,-0.041084636
952,-0.022880292
953,-0.04775862
954,-0.039453123
955,-0.035121966
956,-0.04318095
957,0.06547566
958,-0.033837948
959,-0.03849269
960,-0.081166
961,-0.030329922
962,-0.037027314
963,-0.036181197
964,-0.024486477
965,-0.031435356
966,-0.054780066
967,-0.03252077
968,-0.01161465
969,-0.011391517
970,-0.044146
971,-0.07442351
972,-0.05526597
973,-0.06710763
974,-0.03759832
975,-0.012633149
976,-0.058482997
977,-0.032917637
978,-0.029222751
979,-0.04066465
980,-0.06083978
981,-0.026755009
982,-0.018739602
983,-0.04924737
984,-0.0493445
985,-0.016019281
986,-0.03364311
987,-0.04565699
988,-0.038422048
989,-0.03092052
990,-0.024078326
991,-0.029294668
992,-0.03587064
993,-0.030403592
994,-0.03741789
995,-0.043072145
996,-0.029764405
997,-0.0043229125
998,-0.029927699
999,-0.04482525
1000,-0.0046263346
1001,-0.03707228
1002,-0.021944765
1003,-0.08934431
1004,-0.051605977
1005,-0.061280858
1006,-0.030763626
1007,-0.03573357
1008,-0.048268203
1009,-0.026382329
1010,-0.041611325
1011,-0.0394682
1012,-0.020750634
1013,-0.023822494
1014,-0.035066273
1015,-0.04433883
1016,-0.042497188
1017,-0.04526866
1018,-0.0047709495
1019,-0.06413348
1020,-0.03566656
1021,-0.036260135
1022,-0.034873374
1023,-0.054727644
1024,-0.0076446994
1025,-0.02043438
1026,-0.04707906
1027,-0.030872658
1028,-0.033656593
1029,-0.030670866
1030,-0.024162255
1031,-0.038202543
1032,-0.052532826
1033,-0.038310815
1034,-0.032483924
1035,-0.048363578
1036,-0.040546548
1037,-0.037691034
1038,-0.025633628
1039,-0.036590815
1040,-0.018295761
1041,-0.038335845
1042,0.038036272
1043,-0.023630373
1044,-0.018916292
1045,-0.029970514
1046,-0.040123943
1047,0.0053378344
1048,-0.03734274
1049,-0.04631999
1050,-0.040121157
1051,-0.03996832
1052,-0.04606519
1053,-0.041271478
1054,-0.01658791
1055,-0.024718612
1056,-0.042585503
1057,-0.041000426
1058,-0.009907238
1059,-0.035681408
1060,-0.042365234
1061,-0.03167015
1062,-0.012046151
1063,-0.041965783
1064,-0.030692667
1065,-0.03923015
1066,-0.041807085
1067,-0.039901037
1068,-0.034128383
1069,-0.026652358
1070,-0.034467414
1071,-0.04102525
1072,-0.029360196
1073,-0.035824575
1074,-0.03375115
1075,-0.031544235
1076,-0.042405095
1077,-0.04445827
1078,-0.053012427
1079,-0.040041655
1080,-0.03371083
1081,-0.047500476
1082,-0.03835574
1083,-0.029317865
1084,-0.044120163
1085,0.035366416
1086,-0.033484474
1087,-0.042707723
1088,0.0999375
1089,-0.031317975
1090,-0.03668955
1091,-0.0362142
1092,-0.02323172
1093,-0.032031063
1094,-0.024283184
1095,-0.034592714
1096,-0.004426394
1097,0.003010817
1098,-0.0272897
1099,-0.065399446
1100,-0.050969593
1101,-0.043499507
1102,-0.03505101
1103,-0.01608595
1104,-0.042275805
1105,-0.033852953
1106,-0.033282235
1107,-0.04216226
1108,-0.056766022
1109,-0.024884837
1110,-0.028636664
1111,-0.049138665
1112,-0.03219716
1113,-0.014814757
1114,-0.03281635
1115,-0.029268308
1116,-0.036205143
1117,-0.03022835
1118,-0.029306306
1119,-0.029641017
1120,-0.036872264
1121,-0.025191933
1122,-0.0382664
1123,-0.03992762
1124,-0.029368356
1125,-0.0026590223
1126,-0.030539095
1127,-0.045102477
1128,-0.008353029
1129,-0.03738146
1130,-0.035990395
1131,-0.057430938
1132,-0.031957123
1133,-0.04025051
1134,-0.02946205
1135,-0.03580757
1136,-0.039333448
1137,-0.028319782
1138,-0.040729165
1139,-0.03972775
1140,-0.046127655
1141,-0.037579406
1142,-0.036868628
1143,-0.026004069
1144,-0.04796381
1145,-0.045614507
1146,-0.011034061
1147,-0.04762839
1148,-0.036139745
1149,-0.036626182
1150,-0.034055736
1151,-0.054240916
1152,0.020955924
1153,0.007846118
1154,0.002520105
1155,0.041072413
1156,0.0020325752
1157,-0.004394848
1158,-0.017210051
1159,-0.008289496
1160,0.0127284955
1161,0.013466456
1162,-0.001767187
1163,0.026415288
1164,-0.009729897
1165,-0.0009904816
1166,0.024029719
1167,-8.394927e-05
1168,-0.00032932847
1169,0.029174525
1170,0.020545356
1171,0.006913665
1172,0.018415356
1173,0.0010202292
1174,0.003977737
1175,0.010599367
1176,0.024878215
1177,-0.00787486
1178,0.00843618
1179,-0.006537152
1180,-0.0013630325
1181,0.0066071153
1182,0.0063776956
1183,0.007936429
1184,0.0023679794
1185,0.011224912
1186,0.00413595
1187,-0.0006449891
1188,-0.024425635
1189,-0.002973385
1190,0.040817026
1191,0.0042109005
1192,0.01965488
1193,-0.0021162385
1194,0.029050654
1195,-0.011029059
1196,0.0049536237
1197,-0.008731873
1198,0.01808306
1199,0.016098462
1200,0.014619678
1201,-0.02941287
1202,-0.002204602
1203,0.023911262
1204,0.021645932
1205,0.016514117
1206,0.005233538
1207,0.017518096
1208,0.025472622
1209,-0.017898994
1210,0.047377598
1211,0.0060212025
1212,0.03848636
1213,0.026573373
1214,0.0050091473
1215,0.026841369
1216,0.011656551
1217,0.014581076
1218,-0.001387491
1219,0.018231861
1220,0.0014693424
1221,0.002124291
1222,-0.0039393143
1223,0.0197283
1224,0.009822636
1225,0.0114624975
1226,0.03853595
1227,-0.009265227
1228,-0.011836534
1229,-0.0021599035
1230,0.0067946725
1231,0.011196555
1232,0.0039498936
1233,0.029419646
1234,0.0052736914
1235,0.02019483
1236,0.004509796
1237,0.010089314
1238,0.0145960385
1239,-0.0028708854
1240,0.0039428086
1241,-0.02006871
1242,0.024440637
1243,0.0026880857
1244,0.045003083
1245,0.021010559
1246,0.033829555
1247,0.0026536742
1248,0.0059482353
1249,-0.005439669
1250,0.028399864
1251,-0.008170511
1252,0.034513474
1253,0.021927094
1254,-0.015164901
1255,0.00084814074
1256,-0.0063316724
1257,0.00019276307
1258,0.00463478
1259,-0.013846635
1260,-0.00028023546
1261,-0.009753314
1262,-0.004785326
1263,0.008775622
1264,-0.007513994
1265,0.027703121
1266,-0.00795126
1267,0.035231423
1268,-0.014110385
1269,-0.007725993
1270,0.03410585
1271,0.013595944
1272,0.0399132
1273,0.025062129
1274,0.016394071
1275,0.009825905
1276,0.001929244
1277,-0.019387117
1278,-0.015472758
1279,-0.010190668
1280,0.011056069
1281,-0.0025604696
1282,0.0074825683
1283,-0.0052837497
1284,-0.00096744735
1285,-0.018433582
1286,-0.012652642
1287,-0.0053278324
1288,0.0043486888
1289,0.0008662272
1290,0.015921826
1291,0.00031733685
1292,0.013729126
1293,0.0041633365
1294,-0.006378251
1295,-0.017107226
1296,-0.019225359
1297,0.0033505554
1298,-0.007335821
1299,0.0074895537
1300,0.0046355226
1301,0.013693427
1302,0.00670197
1303,-0.0018675263
1304,0.00056004163
1305,-0.015564672
1306,0.0016754406
1307,0.0063032494
1308,0.0086697
1309,-0.0011016956
1310,0.012542155
1311,-0.00561621
1312,-0.015609735
1313,0.013601678
1314,0.013690779
1315,0.00092064845
1316,0.0069033406
1317,-0.013316778
1318,0.0033069188
1319,0.006281888
1320,0.007860586
1321,0.0055348077
1322,0.0014463632
1323,-0.010186129
1324,0.013214129
1325,-0.0056486637
1326,0.0048528193
1327,0.007311939
1328,0.006953958
1329,-0.013605501
1330,-0.000676914
1331,0.008435464
1332,-0.0017860716
1333,-0.0014814968
1334,0.00018853534
1335,0.0025887878
1336,0.003931534
1337,0.0058458517
1338,-0.012737655
1339,-0.0043858388
1340,0.0074936002
1341,0.005128427
1342,-0.005867769
1343,0.0049236077
1344,0.0041973693
1345,0.012141813
1346,0.0023935481
1347,-0.004815753
1348,-3.2408196e-05
1349,-0.0028635862
1350,-0.015306993
1351,-0.0076399664
1352,0.0016636617
1353,0.0049396204
1354,-0.0054231305
1355,-0.018167716
1356,-0.0045694355
1357,0.00165377
1358,0.0051359227
1359,-0.0063705305
1360,-0.008019667
1361,0.010262219
1362,-0.009418637
1363,-0.012283923
1364,0.005612229
1365,-0.00042590318
1366,0.00459355
1367,-0.0052554146
1368,0.0055646473
1369,0.0077091996
1370,-0.016463762
1371,0.016608575
1372,0.0013890999
1373,0.0099769635
1374,-0.014561564
1375,-0.00089073664
1376,0.0044692154
1377,0.0016133046
1378,0.002082265
1379,-0.008135568
1380,0.00060463004
1381,0.007024461
1382,-0.009429991
1383,-0.002869966
1384,-0.018571388
1385,0.0034966504
1386,0.00043827257
1387,-0.0024553686
1388,-0.008738233
1389,0.0048546027
1390,0.0041398085
1391,-0.0031586895
1392,0.0044827387
1393,0.0024354586
1394,0.0045469096
1395,-0.004968679
1396,-7.712182e-05
1397,0.0011806163
1398,-0.003672627
1399,-0.008950833
1400,-0.004192959
1401,-0.0023598936
1402,0.018978233
1403,-0.0023549723
1404,0.015146359
1405,-0.015499499
1406,-0.001941432
1407,0.003401732
1408,0.0039630136
1409,-0.012868253
1410,-0.012832279
1411,0.0025741062
1412,0.0013648161
1413,0.00011169795
1414,0.010730289
1415,-0.007065358
1416,0.010841612
1417,0.0024404265
1418,0.009676852
1419,-0.0011657804
1420,0.0024158722
1421,0.017779706
1422,0.0016365026
1423,-0.0025662608
1424,-0.005132567
1425,0.0026909246
1426,-0.0039193667
1427,0.008887334
1428,-0.0053188866
1429,0.013105275
1430,0.00760857
1431,-0.010043744
1432,-0.008524006
1433,-0.015614966
1434,-0.007028442
1435,0.01233422
1436,-0.0007609745
1437,-0.0011066839
1438,-0.0063647088
1439,0.0073708175
1440,-0.010179644
1441,0.002539159
1442,0.015825203
1443,-0.0087441355
1444,0.008855007
1445,0.0073473006
1446,0.01967147
1447,-4.227229e-05
1448,-0.013861979
1449,0.0031485145
1450,-0.007066985
1451,-0.0028326332
1452,0.013046596
1453,-0.006345489
1454,0.0076950174
1455,-0.0018927892
1456,0.0073388275
1457,-0.008579519
1458,0.007542909
1459,0.012342173
1460,0.007269009
1461,0.0006537928
1462,0.0010664685
1463,-0.0051277988
1464,-0.011231293
1465,0.014774003
1466,0.0031764263
1467,-0.019395608
1468,-0.0012293224
1469,-0.008960148
1470,-0.0053235097
1471,0.0062695746
1472,-0.0043025985
1473,0.019126767
1474,-0.005578733
1475,0.0016139158
1476,-0.0014668858
1477,0.014374824
1478,0.0070620645
1479,-0.011873826
1480,-0.014282023
1481,-0.010733671
1482,0.010077419
1483,-0.0065191863
1484,0.019153632
1485,-0.015380094
1486,-0.01776038
1487,0.0043664402
1488,-0.0004448182
1489,-0.0045391405
1490,0.007287769
1491,-0.0029671288
1492,-0.0016558442
1493,0.017757947
1494,3.7112142e-05
1495,0.0051306956
1496,-0.00572912
1497,0.0063410983
1498,0.012121973
1499,-0.002527934
1500,-0.012356992
1501,0.016034434
1502,-0.004300352
1503,0.0017374251
1504,0.001996961
1505,0.008620471
1506,-0.006773679
1507,-0.013328963
1508,-0.0023745294
1509,-0.015325462
1510,-0.0028001277
1511,-0.00563578
1512,0.008824488
1513,0.010752423
1514,0.007627549
1515,0.0008133493
1516,0.0014590347
1517,0.009623117
1518,0.014200876
1519,-0.0008756191
1520,-0.005274215
1521,0.0059784376
1522,4.9663e-05
1523,0.007846581
1524,0.005040723
1525,-0.0060317526
1526,0.010078272
1527,0.0019061385
1528,-0.003224702
1529,0.008668551
1530,-0.0032452242
1531,0.004394595
1532,-0.005267427
1533,0.0035228182
1534,-0.0125175
1535,-0.00079492334
1536,-0.016511304
1537,0.0025885482
1538,0.006414338
1539,-0.00048905716
1540,0.005087398
1541,0.007043577
1542,-0.0062330044
1543,-0.0011987955
1544,0.012026408
1545,-0.0036003075
1546,0.006454852
1547,-0.0012506299
1548,-0.0038364425
1549,-0.01583647
1550,0.0010702305
1551,-0.005930205
1552,-0.012865992
1553,0.015976606
1554,-0.013408419
1555,0.0064205686
1556,0.0008835385
1557,-0.013748166
1558,0.0032315522
1559,0.009716739
1560,-0.0027171685
1561,0.008329746
1562,-0.013547775
1563,-0.0005996282
1564,-0.00846533
1565,-0.012582611
1566,0.0105355475
1567,0.0015835572
1568,0.0032904707
1569,0.006268689
1570,0.014882235
1571,0.006902352
1572,0.00042339077
1573,0.0009972838
1574,-0.0025991043
1575,0.0071548778
1576,-0.002240345
1577,0.011908256
1578,-0.012411817
1579,-0.00428644
1580,0.002109499
1581,-0.008536794
1582,-0.0048677837
1583,-0.009604683
1584,-0.007514741
1585,0.001518448
1586,-0.0011889678
1587,1.9287441e-05
1588,0.006978943
1589,-0.014193369
1590,-0.014266941
1591,0.00053408823
1592,-0.012473516
1593,0.008367255
1594,0.0014775599
1595,-0.0011450751
1596,-0.0008425607
1597,0.016066462
1598,-0.0012471802
1599,-0.0026743636
1600,0.0020220778
1601,-0.00639973
1602,-0.0060923654
1603,-4.9269206e-06
1604,0.0006540237
1605,0.01160456
1606,-0.01523078
1607,0.006932989
1608,-0.0015629844
1609,-0.0038478218
1610,-0.017038295
1611,-0.0013935693
1612,-0.0039654337
1613,-0.002174374
1614,0.0004878731
1615,0.010930859
1616,0.0011486562
1617,0.0041858046
1618,-0.0005623465
1619,0.0033265725
1620,0.0076526
1621,0.002119784
1622,0.010999006
1623,-0.009646734
1624,0.0014227608
1625,-0.009954117
1626,0.002034283
1627,-0.00019325252
1628,0.008858048
1629,0.0012002494
1630,-0.0060465345
1631,-0.014893643
1632,0.01625676
1633,-0.006209998
1634,-0.006341353
1635,0.005038885
1636,-0.007748062
1637,-0.005686933
1638,-0.0052988026
1639,-0.006089865
1640,-0.00531871
1641,0.0009765253
1642,0.0002732533
1643,0.001947449
1644,-0.012087109
1645,0.0037704937
1646,0.006489507
1647,0.00076910673
1648,-0.0056134895
1649,0.01327306
1650,0.013295463
1651,0.009492099
1652,-0.009330868
1653,0.015350646
1654,-0.003160057
1655,-0.0010629884
1656,0.00012946325
1657,0.019075405
1658,-0.0015383747
1659,0.0066295033
1660,-0.008665635
1661,-0.0011857593
1662,-0.0075866943
1663,-0.0011685878
1664,0.0016548107
1665,0.007888125
1666,-0.011289235
1667,0.0071044597
1668,0.01153739
1669,0.006102581
1670,0.0037559613
1671,-0.0015233337
1672,0.0055855555
1673,0.0005081493
1674,-0.015283736
1675,0.014171338
1676,-0.012857911
1677,-0.005583251
1678,0.0015508432
1679,-0.011329082
1680,-0.0036678223
1681,-0.00047401898
1682,0.00589254
1683,0.012890177
1684,0.006377187
1685,-0.0006224028
1686,-0.009783781
1687,0.013243865
1688,0.00068986777
1689,-0.018029155
1690,0.0119255865
1691,0.015541613
1692,-0.012097696
1693,-0.015798157
1694,-0.013338737
1695,0.003463141
1696,0.0005235758
1697,0.01452031
1698,-0.017778931
1699,0.0063481913
1700,-0.008416262
1701,-0.004979614
1702,-0.0070617893
1703,-0.006297036
1704,0.002294691
1705,-0.0147082275
1706,-0.012306878
1707,-0.015113154
1708,-0.0072023515
1709,0.012504531
1710,0.0034069081
1711,0.010624374
1712,-6.1748455e-05
1713,0.005967166
1714,-0.00578914
1715,-0.0019042774
1716,-0.0069735902
1717,0.0017219937
1718,-0.0033936866
1719,-0.0009830908
1720,0.0041738395
1721,-0.017597673
1722,-0.0059801135
1723,0.0037085535
1724,0.01431822
1725,-0.0010101865
1726,0.001989934
1727,-0.01599118
1728,0.009119858
1729,-0.012104784
1730,-0.00024622164
1731,-0.018732078
1732,4.1124164e-05
1733,-0.0005039933
1734,0.0018865027
1735,-0.0037012668
1736,-0.0084048
1737,0.011812472
1738,0.0016261323
1739,-0.019775227
1740,-0.0035609638
1741,0.009596109
1742,0.009980021
1743,0.010676751
1744,-0.018417014
1745,0.006670105
1746,0.011573417
1747,-0.0075882995
1748,0.0018087239
1749,-0.0069831447
1750,0.011747174
1751,0.018893875
1752,-0.007291662
1753,0.018567119
1754,-0.00048794234
1755,-0.011221868
1756,0.004485984
1757,-0.0041156025
1758,0.008767494
1759,-0.014621963
1760,0.014184111
1761,0.0152714765
1762,0.008501808
1763,-0.014994375
1764,0.014080707
1765,0.0035413282
1766,0.0018800149
1767,0.012934031
1768,-0.0002471774
1769,-0.014737484
1770,0.0046041016
1771,-0.013398238
1772,-0.005300281
1773,-0.006980429
1774,-0.005179153
1775,0.0056587956
1776,-0.0020239912
1777,0.009840937
1778,0.012251586
1779,-0.009148622
1780,0.0014496986
1781,0.009616741
1782,0.008550114
1783,0.0013268746
1784,0.003121675
1785,0.0048683393
1786,-0.0064806524
1787,0.0025201421
1788,-0.007689511
1789,-0.004020937
1790,0.0057543004
1791,0.008605275
1792,-0.01706289
1793,0.0030364234
1794,0.00060756475
1795,0.0027074774
1796,0.0055907415
1797,0.0039133555
1798,-0.011459403
1799,-9.294587e-06
1800,0.0030416895
1801,0.00038105613
1802,0.0037469857
1803,0.011066732
1804,0.012992058
1805,0.017998965
1806,0.005195173
1807,0.0011934015
1808,0.000994807
1809,-0.006358699
1810,0.010433667
1811,0.0057738232
1812,0.004582987
1813,-0.002439578
1814,0.00039664406
1815,0.0044030957
1816,-0.0031134468
1817,0.009722518
1818,-0.00959795
1819,-0.0047192937
1820,-0.013533786
1821,-0.00391991
1822,0.00094024953
1823,-0.00023106897
1824,-0.0010723437
1825,0.0146617545
1826,0.0072966604
1827,0.0035250548
1828,-0.003972623
1829,-0.012108219
1830,0.0051265745
1831,0.010313304
1832,-0.0032891443
1833,0.004487619
1834,-0.007423996
1835,-0.008111009
1836,0.0016615711
1837,-0.004316979
1838,-0.0197123
1839,-0.0059294724
1840,0.010665269
1841,-0.012609105
1842,-0.0107407775
1843,-0.006259665
1844,0.01327874
1845,-0.00084622134
1846,0.0065475344
1847,-0.0075209346
1848,0.016096577
1849,0.0015787408
1850,-0.00061820034
1851,-0.0052283322
1852,-0.0018311033
1853,0.0040357304
1854,0.016965125
1855,0.0075077787
1856,0.0102936635
1857,0.007992047
1858,0.003682096
1859,-0.006109822
1860,-0.0007645531
1861,-0.00025492525
1862,-0.001763105
1863,-0.00354572
1864,-0.0035461034
1865,-0.008406193
1866,0.00440283
1867,0.0030563225
1868,-0.0071634576
1869,-0.0039302674
1870,-0.0012715618
1871,0.011658843
1872,-0.011102664
1873,-0.009056924
1874,0.0083067585
1875,-0.008468383
1876,0.004666156
1877,-0.00050945516
1878,0.0087313745
1879,-0.005524229
1880,-0.0007102272
1881,-0.01486692
1882,-0.0027675347
1883,-0.0016270978
1884,-0.019949831
1885,-0.018498624
1886,-0.004294839
1887,0.00976819
1888,0.014318751
1889,-0.0027403613
1890,0.0075341323
1891,-0.0017908191
1892,-0.00038462083
1893,-0.0077614
1894,-0.011842384
1895,-0.018464997
1896,-0.01717641
1897,0.010640051
1898,-0.008186164
1899,0.008094631
1900,0.0007414036
1901,0.005693882
1902,0.012346954
1903,-0.014773186
1904,0.0075675813
1905,0.004499905
1906,0.0073108003
1907,0.002617712
1908,0.0121602155
1909,0.0052086487
1910,0.006802367
1911,0.007898695
1912,0.014788588
1913,0.00020128983
1914,-0.00303421
1915,-2.2333543e-05
1916,0.003957683
1917,0.006940349
1918,0.009232817
1919,-0.011036106
1920,0.0074944203
1921,0.004135942
1922,-0.0032694591
1923,-0.015499168
1924,0.0021017971
1925,-0.009169948
1926,0.019254569
1927,0.002151893
1928,-0.0034975046
1929,0.0066064736
1930,0.005975421
1931,0.011391548
1932,-0.0035835346
1933,0.0010040739
1934,0.00011033206
1935,0.0005299239
1936,0.001865327
1937,-0.004827858
1938,0.00048669474
1939,0.018285966
1940,-0.0046593877
1941,-0.0030416413
1942,0.0056778286
1943,0.011132636
1944,-0.0081520565
1945,-0.0051079136
1946,0.014823396
1947,-0.0024733192
1948,-0.007891488
1949,-0.008211962
1950,0.0013895022
1951,-0.000913953
1952,-0.00085646845
1953,-0.007093498
1954,-0.0030102606
1955,0.013832936
1956,0.001249987
1957,0.0036703327
1958,-0.0005375277
1959,-0.0037437063
1960,0.015075869
1961,-0.006965498
1962,-0.012867899
1963,-0.0047998936
1964,0.008712834
1965,-0.0020790235
1966,0.001699234
1967,0.009156409
1968,0.01323904
1969,-0.002473607
1970,0.0070162313
1971,-0.0013245435
1972,-0.002441367
1973,-0.0044656573
1974,0.017073065
1975,0.013792626
1976,-0.009561975
1977,0.007477586
1978,0.012380563
1979,-2.1713124e-05
1980,0.015497921
1981,0.016984817
1982,0.011247516
1983,-0.01367232
1984,-0.0045939744
1985,-0.0035704589
1986,-0.014446058
1987,0.0015691235
1988,-0.0013464404
1989,-0.0071082935
1990,0.008882679
1991,0.0066407137
1992,0.014752465
1993,0.003858183
1994,-0.0023756158
1995,0.012416426
1996,-0.005107364
1997,0.007567117
1998,0.004714934
1999,-0.012819828
2000,-0.018429028
2001,0.005590459
2002,-0.0020672365
2003,-0.0122821
2004,0.008842581
2005,-0.00044749537
2006,0.010123424
2007,-0.013220298
2008,-0.009675253
2009,-0.0091017345
2010,-0.012480433
2011,0.0053070234
2012,-0.0071322457
2013,0.009504967
2014,0.011125835
2015,0.012319681
2016,-0.0007477078
2017,-0.00047593412
2018,0.012283008
2019,0.00074583146
2020,-0.014700504
2021,-0.0064826105
2022,-0.013150961
2023,0.017175402
2024,-0.010994734
2025,0.011082973
2026,0.0042263097
2027,-0.015341469
2028,0.010565357
2029,0.010657365
2030,-0.00012689365
2031,0.0071788216
2032,-0.0013427668
2033,0.01042786
2034,0.013563664
2035,-0.0050527668
2036,-0.012797872
2037,-0.0075461576
2038,-0.0017182743
2039,0.012108497
2040,0.0074268035
2041,-0.010118059
2042,0.0125624025
2043,-0.015803281
2044,-0.006615995
2045,0.0072487104
2046,0.0019055884
2047,0.0033154637
2048,0.04216026
2049,0.039069273
2050,-0.013206351
2051,0.029098587
2052,0.015457285
2053,0.041508876
2054,0.002307408
2055,0.035413917
2056,-0.03997785
2057,-0.06058634
2058,0.010331857
2059,0.029825408
2060,0.018507538
2061,0.0085371565
2062,0.013295251
2063,0.021754783
2064,0.036743656
2065,0.034230396
2066,0.05031589
2067,0.041790668
2068,0.040030144
2069,0.024638815
2070,-0.017559823
2071,0.05492128
2072,0.03604081
2073,-0.0024949117
2074,0.0060653226
2075,0.0021843333
2076,0.030690793
2077,0.030911384
2078,-0.027816016
2079,-0.038053375
2080,0.022225214
2081,-0.0006512005
2082,0.05108142
2083,0.022755269
2084,-0.04655986
2085,0.026632775
2086,-0.028539445
2087,0.0036515687
2088,-0.0053754286
2089,0.008867087
2090,-0.037798624
2091,0.02706737
2092,-0.055106085
2093,-0.038079757
2094,-0.040180758
2095,0.021947335
2096,0.02603212
2097,0.005132257
2098,-0.039927974
2099,0.02061153
2100,0.03369389
2101,0.018213565
2102,0.011958139
2103,0.026762012
2104,-0.03119396
2105,-0.03369706
2106,0.029113557
2107,-0.039010063
2108,0.024958313
2109,-0.06657614
2110,-0.0050325035
2111,0.017498387
2112,-0.100890614
2113,0.02881623
2114,0.017345786
2115,0.023367366
2116,0.05385947
2117,-0.0010029444
2118,0.004543367
2119,0.025747066
2120,0.03209718
2121,0.044153955
2122,-0.021595875
2123,-0.026301892
2124,-0.008959923
2125,-0.010143148
2126,-0.018007977
2127,0.0026723898
2128,-0.04940642
2129,0.012835082
2130,0.010729293
2131,0.029897144
2132,-0.019091973
2133,0.019498045
2134,0.0103451405
2135,0.010267336
2136,0.0014755774
2137,0.039279014
2138,0.030213881
2139,0.020077335
2140,0.027467988
2141,0.028060427
2142,0.027062831
2143,0.016026862
2144,0.023686526
2145,0.0019956627
2146,0.009785747
2147,-0.014980335
2148,0.027828744
2149,0.040381037
2150,0.003729213
2151,-0.03006702
2152,-0.0019246083
2153,0.017054724
2154,0.03416755
2155,-0.027668266
2156,-0.012291042
2157,-0.04967419
2158,-0.0016788185
2159,0.032686934
2160,-0.010592514
2161,-0.037336227
2162,0.0046955217
2163,0.016504927
2164,0.00082244514
2165,0.053660713
2166,-0.043871634
2167,0.023210194
2168,0.02026101
2169,0.04322046
2170,0.048766356
2171,-0.044051055
2172,0.0039842697
2173,-0.01419424
2174,-0.011936614
2175,-0.022598034
2176,0.005299246
2177,0.019920446
2178,0.04506997
2179,0.015958924
2180,0.03138352
2181,0.029874224
2182,-0.08294397
2183,0.027810486
2184,0.041493405
2185,-0.026651477
2186,0.028143153
2187,0.024162598
2188,0.039480425
2189,0.025417637
2190,0.009845572
2191,-0.0044803335
2192,0.025482463
2193,-0.04792558
2194,-0.054595377
2195,0.022700084
2196,0.0252941
2197,0.026895031
2198,0.02529435
2199,-0.0058630453
2200,0.015381227
2201,0.046771944
2202,-0.07466895
2203,-0.0004231196
2204,0.04472478
2205,0.039129227
2206,-0.022476075
2207,0.022910466
2208,0.0183501
2209,0.036041185
2210,-0.063644454
2211,0.02340685
2212,-0.04635075
2213,0.008060867
2214,0.054316975
2215,-0.03955709
2216,0.05902834
2217,0.028955095
2218,0.041158263
2219,0.03792584
2220,0.03203041
2221,0.02246687
2222,0.02852755
2223,0.01155183
2224,0.0065702796
2225,0.017549418
2226,0.018640172
2227,0.028888237
2228,0.0001313141
2229,0.028567443
2230,0.050964344
2231,0.017305229
2232,0.029311445
2233,0.045330666
2234,0.024004018
2235,0.030589558
2236,0.042469952
2237,-0.0032265242
2238,0.031976577
2239,0.0035612704
2240,-0.031895787
2241,0.028301137
2242,0.0350502
2243,0.03267349
2244,0.025393741
2245,0.029212717
2246,-0.03924013
2247,0.028347705
2248,-0.0067521236
2249,-0.087424904
2250,0.041672055
2251,0.07252345
2252,-0.071202554
2253,-0.065637626
2254,-0.051175445
2255,0.006214437
2256,-0.06587987
2257,0.028958278
2258,-0.041585773
2259,0.03670151
2260,-0.07021181
2261,0.022883814
2262,-0.01056281
2263,0.056356512
2264,0.04820483
2265,-0.06833457
2266,0.027221745
2267,-0.048570942
2268,0.026827566
2269,0.027576925
2270,0.010835203
2271,0.007968024
2272,0.03408379
2273,0.045213163
2274,0.033776775
2275,0.011561858
2276,0.021725697
2277,-0.0019197306
2278,0.028160278
2279,0.04353762
2280,-0.003013296
2281,0.026765192
2282,0.008212941
2283,0.07261057
2284,-0.055934183
2285,0.059196513
2286,0.027661536
2287,0.027634297
2288,-0.055649213
2289,0.055928785
2290,0.031296123
2291,0.036622208
2292,0.08247788
2293,0.04888428
2294,0.02825494
2295,-0.060517438
2296,0.017524146
2297,0.02010082
2298,0.01095667
2299,0.077633314
2300,0.029654518
2301,0.035167214
2302,0.032944128
2303,-0.05776589
2304,0.0044171126
2305,-0.020701658
2306,0.024339518
2307,0.0310732
2308,0.029840041
2309,-0.035535723
2310,0.06762895
2311,0.025583426
2312,-0.01412149
2313,-0.0031710654
2314,0.030555282
2315,0.047893047
2316,0.031628825
2317,0.033239186
2318,0.025452793
2319,0.013909995
2320,0.03414731
2321,0.037545532
2322,-0.039159838
2323,0.027301524
2324,0.017976267
2325,-0.025538785
2326,0.022698674
2327,-0.0056490037
2328,0.023566147
2329,0.0369075
2330,0.06472244
2331,0.04094261
2332,0.036172785
2333,0.023105616
2334,-0.022825833
2335,0.036362488
2336,0.041969642
2337,0.03999311
2338,-0.06300332
2339,0.030051839
2340,-0.04661166
2341,0.023798484
2342,-0.013028323
2343,0.039333053
2344,0.02075044
2345,0.03738085
2346,0.03836873
2347,0.03534193
2348,0.02859315
2349,0.02503828
2350,0.032686785
2351,0.038870584
2352,0.021052456
2353,0.029932193
2354,0.031176278
2355,0.013963661
2356,0.038943198
2357,0.043719336
2358,0.047398232
2359,0.036929145
2360,0.03609714
2361,-0.05105912
2362,0.03783381
2363,0.018031131
2364,0.035783507
2365,-0.0137567
2366,0.026973348
2367,0.040438622
2368,0.04184836
2369,0.0022004792
2370,0.032875963
2371,0.019107055
2372,0.02154257
2373,0.029910484
2374,0.05357776
2375,0.03077384
2376,0.0086919395
2377,-0.0895725
2378,0.022550613
2379,-0.061349887
2380,-0.07064236
2381,-0.06590604
2382,0.031720318
2383,0.002718113
2384,0.05606775
2385,0.031647623
2386,0.044529554
2387,0.03940221
2388,0.057538033
2389,0.005130656
2390,0.025124326
2391,-0.082007416
2392,0.008317941
2393,-0.06874205
2394,0.030990269
2395,0.043353353
2396,0.03632073
2397,0.019141585
2398,0.018003358
2399,0.027821127
2400,0.02879068
2401,0.033576366
2402,0.035650216
2403,0.033964913
2404,0.025829269
2405,0.003731949
2406,0.027176019
2407,-0.050849304
2408,-0.0027914727
2409,0.032106042
2410,0.029667942
2411,-0.05937204
2412,-0.055720676
2413,0.060128503
2414,0.028026996
2415,0.016731521
2416,0.046274997
2417,0.0068823174
2418,0.03955711
2419,0.03327251
2420,-0.06695286
2421,-0.073590085
2422,0.025483731
2423,0.042616
2424,0.047192115
2425,0.027261434
2426,0.02139627
2427,-0.007903315
2428,0.03267412
2429,0.028889174
2430,0.028323838
2431,-0.05841777
2432,-0.013059864
2433,0.018593635
2434,0.0223055
2435,0.017113457
2436,-0.031107562
2437,0.029872045
2438,-0.08288368
2439,0.0007858351
2440,-0.024396373
2441,0.035645377
2442,0.0092252195
2443,0.009035614
2444,-0.04874011
2445,0.03627802
2446,0.016290454
2447,0.06278883
2448,0.028814226
2449,0.02910213
2450,-0.055056125
2451,0.011667769
2452,0.0066306884
2453,0.027486809
2454,0.038949896
2455,-0.006843781
2456,-0.009674471
2457,0.03563087
2458,-0.07455616
2459,0.01416
2460,0.014379773
2461,0.01565051
2462,0.053940516
2463,0.023835778
2464,0.031044174
2465,0.018266354
2466,0.007931565
2467,0.027294245
2468,0.05229374
2469,-0.013762162
2470,0.05735247
2471,0.018545397
2472,-0.06100012
2473,0.010587674
2474,-0.027662875
2475,0.025632627
2476,0.027005931
2477,0.01523734
2478,0.040173553
2479,0.0266257
2480,0.020831615
2481,-0.034549534
2482,0.04594286
2483,0.0096736355
2484,0.024062006
2485,0.03327157
2486,-0.049886994
2487,0.013829284
2488,0.030149473
2489,0.028023396
2490,-0.016651554
2491,0.033206623
2492,-0.00072016334
2493,-0.025006944
2494,-0.043831985
2495,0.028210446
2496,-0.057869915
2497,-0.0050972374
2498,0.019276991
2499,0.0029359653
2500,0.012508928
2501,0.018495128
2502,0.031221762
2503,0.029924296
2504,0.0023872515
2505,0.022409825
2506,0.003788412
2507,-0.06009062
2508,0.053008232
2509,-0.06548626
2510,0.014503599
2511,-0.0068900543
2512,-0.06449525
2513,0.016127912
2514,0.011393033
2515,0.028993577
2516,0.059027378
2517,-0.0015205633
2518,0.017118815
2519,-0.08157533
2520,0.061989803
2521,0.019088626
2522,-0.017024899
2523,0.017951759
2524,0.022860285
2525,0.008046546
2526,-4.9653172e-05
2527,0.021321965
2528,0.03950673
2529,0.04254052
2530,-0.029804204
2531,0.04220832
2532,0.017893106
2533,0.001751211
2534,-0.048844837
2535,0.027630867
2536,-0.0025480287
2537,0.035987385
2538,0.0205937
2539,-0.05952404
2540,-0.05546117
2541,-0.048557468
2542,0.013167157
2543,0.02590715
2544,0.025951298
2545,-0.0076156138
2546,-0.04375231
2547,0.01627849
2548,-0.04301944
2549,-0.074380934
2550,0.038010236
2551,0.041144777
2552,0.005753955
2553,0.034765646
2554,0.0155651
2555,-0.0107473675
2556,0.027894173
2557,0.021833008
2558,0.031400476
2559,0.049303256
2560,0.005815018
2561,0.008071578
2562,-0.013363529
2563,0.0017454238
2564,0.022830524
2565,0.0129492795
2566,-0.08275109
2567,-0.0072799944
2568,0.056673903
2569,0.037768263
2570,0.012067067
2571,-0.0016061288
2572,-0.04854027
2573,-0.031672504
2574,0.0032739518
2575,-0.009027946
2576,-0.04740283
2577,-0.0024392798
2578,-0.04727993
2579,-0.024902608
2580,-0.0022994345
2581,0.020663891
2582,-0.017870512
2583,-0.005805746
2584,-0.0014256665
2585,-0.011267918
2586,0.05633725
2587,-0.022908784
2588,-0.009964482
2589,-0.0034494605
2590,0.06144386
2591,-0.038461916
2592,-0.005857601
2593,-0.03533644
2594,0.018224485
2595,-0.02031645
2596,0.052471936
2597,0.0019162556
2598,-0.006353681
2599,-0.026831439
2600,0.0003853194
2601,-0.02974567
2602,0.039012995
2603,-0.01119023
2604,-0.024387369
2605,-0.012790301
2606,0.012044215
2607,-0.010024571
2608,0.0065966262
2609,0.031080358
2610,-0.011092819
2611,-0.004970213
2612,-0.004803935
2613,-0.04038526
2614,-0.04965938
2615,-0.0134189045
2616,-0.0057288846
2617,0.02878978
2618,0.020664841
2619,0.010506886
2620,0.011599081
2621,0.043464694
2622,-0.04487508
2623,0.005021608
2624,0.0019818114
2625,-0.023866924
2626,0.019501358
2627,-0.021115119
2628,-0.013467266
2629,-0.036804233
2630,-0.0394202
2631,-0.0020524848
2632,0.013656427
2633,-0.08973858
2634,0.027776938
2635,-0.052411586
2636,0.04807883
2637,-0.06569368
2638,0.0073393034
2639,-0.024821464
2640,0.055674765
2641,0.010556077
2642,0.024190374
2643,0.0007661091
2644,-0.06582537
2645,-0.023279415
2646,-0.006819116
2647,0.05971433
2648,-0.018218689
2649,-0.06781429
2650,-0.0012585239
2651,0.0012101997
2652,0.004186145
2653,0.010997104
2654,0.001938464
2655,-0.025507178
2656,0.007918287
2657,-0.017003099
2658,0.023102932
2659,-0.03468449
2660,-0.02166491
2661,0.00074806
2662,0.014083168
2663,0.001492152
2664,-0.0042216172
2665,-0.036219917
2666,-0.008926095
2667,-0.011158753
2668,-0.03978632
2669,-0.049571685
2670,-0.028587757
2671,-0.008914833
2672,0.020820452
2673,0.009974222
2674,0.027426513
2675,-0.01187188
2676,-0.046695374
2677,-0.07441892
2678,0.019712264
2679,-0.061085872
2680,0.016658677
2681,0.011796754
2682,-0.045360588
2683,-0.015544366
2684,-0.018002935
2685,-0.0251064
2686,-0.043860435
2687,0.053080842
2688,-0.026625136
2689,-0.02142995
2690,0.00017735598
2691,0.0064573465
2692,-0.03179991
2693,-0.026395516
2694,0.031219874
2695,-0.01906744
2696,0.0010035223
2697,-0.010504332
2698,-0.009032287
2699,-0.012479299
2700,-0.022724586
2701,-0.032567274
2702,0.0018596802
2703,0.008101677
2704,-0.046923567
2705,-0.03097609
2706,-0.05504365
2707,-0.02395022
2708,-0.038646717
2709,-0.025785994
2710,-0.01820356
2711,-0.007288575
2712,-0.003398517
2713,0.00092751463
2714,-0.07456941
2715,-0.016539807
2716,0.0006640945
2717,-0.027279885
2718,-0.023177158
2719,-0.016533682
2720,-0.015831837
2721,-0.03642005
2722,-0.06298998
2723,-0.029896062
2724,-0.045901034
2725,0.00013720663
2726,-0.0070215273
2727,0.011390011
2728,0.011084682
2729,-0.0072496696
2730,0.013206636
2731,-0.010271948
2732,-0.021445034
2733,-0.010564637
2734,0.009749878
2735,-0.01872744
2736,-0.035323225
2737,-0.034776844
2738,0.018939959
2739,-0.04251661
2740,-0.00613124
2741,-0.016781794
2742,-0.049165208
2743,0.006701993
2744,-0.023896672
2745,0.023960251
2746,-0.006863727
2747,-0.035580542
2748,-0.004017247
2749,0.03731606
2750,-0.0445377
2751,-0.0050948043
2752,0.04589639
2753,-0.024323145
2754,-0.028858224
2755,-0.0140994275
2756,-0.014541355
2757,-0.0055403044
2758,-0.03948923
2759,-0.0021500317
2760,-0.002728389
2761,-0.08974088
2762,0.011246017
2763,0.059131317
2764,-0.07023054
2765,0.06658545
2766,-0.04903925
2767,-0.024387352
2768,-0.06465407
2769,-0.014486694
2770,-0.040867984
2771,-0.0006263061
2772,-0.06963718
2773,-0.0052528013
2774,-0.0022496614
2775,-0.07395613
2776,-0.0011302715
2777,0.019653035
2778,-0.008826436
2779,-0.03216147
2780,0.003380697
2781,0.009872299
2782,-0.0026413964
2783,0.0046589863
2784,-0.0020876257
2785,-0.01661823
2786,0.0008390349
2787,-0.01965911
2788,-0.016891045
2789,-0.00081570767
2790,-0.04838076
2791,0.016151331
2792,-0.006892652
2793,-0.035193216
2794,0.0084235305
2795,-0.05959401
2796,0.04909622
2797,-0.04986835
2798,-0.028544059
2799,-0.01194621
2800,-0.018958641
2801,-0.036564097
2802,0.0075088227
2803,-0.008645272
2804,-0.067823365
2805,0.039146326
2806,0.0029325753
2807,-0.060936417
2808,-0.004140114
2809,0.0051940726
2810,-0.023917327
2811,-0.011779438
2812,-0.04456234
2813,-0.024852397
2814,-0.01789005
2815,-0.0130838845
2816,-0.02263361
2817,-0.01952516
2818,0.0013895971
2819,0.015878918
2820,-0.0316603
2821,-0.030316895
2822,-0.05460368
2823,-0.029655613
2824,-0.04110638
2825,-0.007410159
2826,-0.0071468456
2827,-0.01989749
2828,-0.019037232
2829,-0.032272782
2830,0.016685043
2831,-0.015542717
2832,-0.04144692
2833,-0.0024565381
2834,-0.0140224015
2835,-0.024521261
2836,-0.01397849
2837,-0.025190637
2838,-0.017796434
2839,-0.006926218
2840,0.0046267617
2841,0.024203518
2842,-0.07469562
2843,-0.0036831335
2844,0.022988806
2845,-0.02596952
2846,-0.010975521
2847,-0.038823124
2848,-0.0042053633
2849,-0.0357446
2850,-0.06356021
2851,-0.028841665
2852,-0.046992335
2853,-0.030093366
2854,-0.020720424
2855,-0.013547979
2856,0.011738548
2857,-0.006749881
2858,0.04934203
2859,-0.019975273
2860,-0.019473732
2861,-0.009077188
2862,-0.011826812
2863,-0.0039636577
2864,-0.03475041
2865,-0.033360895
2866,-0.035095893
2867,-0.04255248
2868,0.014238205
2869,-0.0054862546
2870,-0.019533072
2871,-0.016538428
2872,-0.009216063
2873,-0.037992198
2874,0.0077455137
2875,-0.04104989
2876,-0.036596816
2877,-0.040556002
2878,-0.030392876
2879,-0.010959556
2880,0.0134348385
2881,-0.025147054
2882,-0.028345712
2883,-0.020581543
2884,-0.01348665
2885,-0.01975843
2886,-0.039542302
2887,-0.0061501255
2888,-0.012332543
2889,0.024894059
2890,0.022112992
2891,-0.047701523
2892,-0.07059379
2893,-0.06652958
2894,-0.05073109
2895,-0.024153693
2896,-0.010805803
2897,-0.03535961
2898,-0.041237857
2899,-0.0012737031
2900,-0.06964371
2901,-0.010274
2902,-0.0019595115
2903,-0.08158018
2904,-0.03843209
2905,-0.06822687
2906,-0.016034985
2907,-0.047514156
2908,0.0016281939
2909,-0.028093468
2910,-0.022399763
2911,-0.016904753
2912,-0.00012797042
2913,-0.03893155
2914,0.0021873312
2915,-0.036077242
2916,-0.01644968
2917,-0.020225968
2918,-0.048966367
2919,-0.05012596
2920,0.0013779431
2921,-0.028270544
2922,-0.00947715
2923,0.08834918
2924,-0.055516966
2925,-0.04882704
2926,-0.0052830237
2927,-0.024241626
2928,-0.04446286
2929,-0.00090853847
2930,-0.032350723
2931,-0.0074863657
2932,-0.06804119
2933,-0.055813283
2934,0.0115614375
2935,-0.039026212
2936,-0.016556907
2937,0.005760651
2938,-0.045397636
2939,0.0146355815
2940,-0.045410797
2941,-0.043091785
2942,-0.02369174
2943,-0.020729057
2944,-0.027368454
2945,-0.0028011533
2946,-0.03130484
2947,-0.008601952
2948,-0.031710815
2949,-0.036419455
2950,-0.04947256
2951,-0.036586285
2952,-0.013868163
2953,-0.00891661
2954,-0.00040491566
2955,-0.034649845
2956,-0.03780285
2957,-0.03156094
2958,-0.033230327
2959,-0.013400481
2960,-0.046915926
2961,-0.025043348
2962,-0.05503787
2963,-0.024844253
2964,-0.029373134
2965,-0.025431475
2966,-0.030741187
2967,-0.04137945
2968,-0.0128177265
2969,0.028101297
2970,-0.049946185
2971,-0.032040566
2972,-0.0381237
2973,-0.038244855
2974,-0.0039519067
2975,-0.038461257
2976,-0.017251328
2977,-0.03628744
2978,-0.06275247
2979,-0.030345917
2980,-0.046834603
2981,-0.032171637
2982,-0.015318866
2983,-0.038709164
2984,0.029828876
2985,-0.007709251
2986,-0.049291175
2987,-0.0227927
2988,-0.010769072
2989,0.0006143699
2990,-0.040413205
2991,-0.0024095275
2992,-0.0348988
2993,-0.034457233
2994,-0.0384124
2995,-0.043033488
2996,-0.030340211
2997,-0.040572528
2998,-0.049267206
2999,-0.0263856
3000,-0.03755836
3001,-0.049148794
3002,0.018430796
3003,-0.04127739
3004,-0.03403193
3005,-0.06690942
3006,-0.04417582
3007,-0.010492363
3008,0.07945619
3009,-0.02503066
3010,-0.02307731
3011,-0.017239735
3012,-0.01481036
3013,-0.020843279
3014,-0.0182642
3015,-0.0008514521
3016,-0.0035109937
3017,-0.058213796
3018,-0.04028573
3019,-0.036128554
3020,-0.06683397
3021,-0.065541394
3022,-0.050320268
3023,0.0061420207
3024,-0.043528087
3025,-0.021158572
3026,-0.04162699
3027,-0.04147562
3028,-0.036989562
3029,-0.028585616
3030,-0.013930176
3031,-0.08198089
3032,-0.002904425
3033,-0.047323223
3034,-0.013721226
3035,-0.038122345
3036,-0.04281869
3037,-0.029439528
3038,-0.033107247
3039,-0.025424622
3040,-0.00050564704
3041,-0.043618035
3042,-0.0056003714
3043,-0.035500195
3044,-0.0074855695
3045,-0.028533954
3046,-0.048173457
3047,-0.011320414
3048,-0.0056028687
3049,-0.036034353
3050,-0.03444345
3051,-0.03469611
3052,-0.055175446
3053,-0.027071007
3054,-0.028290309
3055,-0.019893743
3056,-0.033436883
3057,-0.03712501
3058,-0.044135038
3059,-0.046731804
3060,-0.023589134
3061,-0.04581012
3062,0.005844311
3063,-0.03230396
3064,-0.009536734
3065,-0.03537194
3066,-0.022773085
3067,0.022916237
3068,-0.04437286
3069,-0.046768174
3070,-0.04495389
3071,-0.040480487
3072,-0.028526545
3073,-0.0126248
3074,-0.02938533
3075,-0.015738858
3076,-0.030459736
3077,-0.035918597
3078,-0.050448257
3079,-0.03616683
3080,-0.04004497
3081,-0.016402477
3082,-0.007257823
3083,-0.034511678
3084,-0.033048436
3085,-0.032300033
3086,-0.033593174
3087,-0.015539401
3088,-0.047506038
3089,-0.020547897
3090,-0.03271739
3091,-0.024040628
3092,-0.0369484
3093,-0.023605423
3094,-0.036878973
3095,-0.041150212
3096,-0.013985453
3097,0.003289117
3098,-0.06561257
3099,-0.029210228
3100,-0.038429257
3101,-0.02548715
3102,0.007606574
3103,-0.03823237
3104,-0.014250817
3105,-0.035434503
3106,-0.062766515
3107,-0.03011318
3108,-0.03883307
3109,-0.0041195196
3110,-0.02185904
3111,-0.0388959
3112,0.030248368
3113,-0.030836836
3114,-0.026591793
3115,-0.039776586
3116,-0.019211471
3117,-0.0076953312
3118,-0.040507816
3119,-0.042764354
3120,-0.034341995
3121,-0.034630265
3122,-0.039046034
3123,-0.041960195
3124,-0.02971099
3125,-0.03968053
3126,-0.042570613
3127,-0.022158252
3128,-0.035972588
3129,-0.02758605
3130,-0.015859326
3131,-0.021570044
3132,-0.032493766
3133,0.022988101
3134,-0.02517069
3135,-0.015595959
3136,0.045001913
3137,-0.025455266
3138,-0.04628969
3139,-0.019905217
3140,-0.013597648
3141,-0.03594204
3142,-0.03968983
3143,-0.01368585
3144,-0.022888983
3145,-0.03821785
3146,-0.039437756
3147,-0.036878016
3148,-0.070652604
3149,-0.048155714
3150,-0.03862379
3151,0.026635708
3152,-0.033786453
3153,-0.03544831
3154,-0.040862516
3155,-0.04104973
3156,-0.06427483
3157,-0.036678918
3158,-0.032729816
3159,-0.05926908
3160,-0.038291205
3161,-0.06412596
3162,-0.008421461
3163,-0.040145874
3164,-0.042215027
3165,-0.029065236
3166,-0.03383045
3167,-0.017212301
3168,-0.040039152
3169,-0.04403686
3170,-0.02155244
3171,-0.035032075
3172,-0.011860172
3173,-0.018982328
3174,-0.048224725
3175,-0.022934046
3176,-0.0040799384
3177,-0.03511375
3178,-0.035083693
3179,-0.008477829
3180,-0.03995097
3181,-0.036810216
3182,-0.027045298
3183,-0.01315378
3184,-0.036980715
3185,-0.01770314
3186,-0.037416257
3187,-0.030886779
3188,-0.0056124325
3189,-0.045823243
3190,-0.0063825417
3191,-0.060986977
3192,-0.010756333
3193,-0.036285624
3194,-0.04446279
3195,-0.00422264
3196,-0.04526618
3197,-0.046834443
3198,-0.043747414
3199,-0.05129135
3200,0.033590678
3201,-0.010853933
3202,0.004589798
3203,0.010508644
3204,-0.014133863
3205,-0.012933506
3206,-0.017412635
3207,-0.013993879
3208,0.0007070025
3209,0.0001978972
3210,0.02243307
3211,-0.002704431
3212,0.011084808
3213,-0.002443241
3214,0.021205954
3215,-0.002375875
3216,-0.00830315
3217,0.009841121
3218,-0.005642493
3219,-0.018268775
3220,-0.017767895
3221,-0.014713886
3222,0.0013042567
3223,0.005842113
3224,0.020252988
3225,0.010085598
3226,0.009694843
3227,-0.0028613901
3228,0.027068047
3229,0.012830494
3230,-0.012236346
3231,-0.019944182
3232,-0.004177157
3233,-0.008432789
3234,-0.01247702
3235,-0.00012382682
3236,-0.0050567472
3237,-0.012335031
3238,0.0011715186
3239,-0.007860487
3240,0.020105442
3241,-0.006481799
3242,0.0029471104
3243,-0.010116308
3244,0.0037391307
3245,0.0033365258
3246,0.021592114
3247,0.023847003
3248,-0.026574988
3249,0.0053277016
3250,0.011429773
3251,-0.013055089
3252,-0.0049801446
3253,-0.01353612
3254,0.020894554
3255,-0.027190086
3256,0.024625512
3257,-0.008534166
3258,0.014042993
3259,-0.007972358
3260,0.003500411
3261,-0.0056648473
3262,-0.008267576
3263,0.025184803
3264,0.01591912
3265,-0.00057657214
3266,0.00038844737
3267,0.012505114
3268,-0.00051790674
3269,-0.0067356857
3270,-0.007882619
3271,0.014138209
3272,-0.023976771
3273,-0.0051243035
3274,-0.009997047
3275,0.0063004717
3276,-0.01753184
3277,-0.003976855
3278,-0.009895743
3279,0.0029709567
3280,-0.0033819561
3281,0.001227162
3282,-0.020517468
3283,0.033585545
3284,0.00439211
3285,-0.0031348327
3286,0.031468533
3287,-0.003661579
3288,0.022307007
3289,-0.011632162
3290,0.019410685
3291,-0.004697384
3292,-0.006585351
3293,-0.013448688
3294,0.0023976536
3295,-0.0040883203
3296,0.018848743
3297,-0.0069234814
3298,0.022792205
3299,1.3936224e-05
3300,0.017144829
3301,-0.0077031907
3302,-0.01839673
3303,-0.01071585
3304,0.0032600872
3305,-0.0011208901
3306,0.0033884444
3307,0.011419511
3308,-0.012052859
3309,-0.0068037207
3310,-0.004070875
3311,-0.00091836456
3312,0.007139283
3313,0.022732163
3314,-0.0043003294
3315,-0.005262045
3316,0.026628742
3317,0.00653569
3318,0.016322069
3319,-0.009017076
3320,0.018625122
3321,0.009484315
3322,-0.0026055772
3323,0.016868617
3324,-0.003445652
3325,-0.0003556891
3326,-0.0022531375
3327,-0.008060917
3328,-0.002423592
3329,0.008376054
3330,0.0052368375
3331,-0.009024244
3332,-0.0025936903
3333,0.0069401735
3334,-0.0038571914
3335,0.0038971684
3336,0.0055137435
3337,-0.0075286073
3338,-0.00894125
3339,-0.0044578123
3340,0.008578277
3341,-0.0102462005
3342,0.0048547084
3343,0.010829645
3344,-0.012522042
3345,0.008771184
3346,-0.012429242
3347,0.0041522766
3348,-0.006908191
3349,0.0056477627
3350,-0.0073418133
3351,0.001857207
3352,0.0005142545
3353,0.0055559347
3354,-0.0021873733
3355,-0.008335702
3356,-0.011561197
3357,0.0013360083
3358,0.007425699
3359,0.012672805
3360,0.0071149366
3361,-0.018549135
3362,-0.000843026
3363,0.014308659
3364,0.00055432087
3365,0.004874527
3366,0.016870547
3367,-0.012146027
3368,-0.004586246
3369,0.00804839
3370,-0.012885656
3371,0.005729737
3372,-0.0036109574
3373,-0.0078358
3374,0.0030893472
3375,0.008056853
3376,0.014481004
3377,-0.009924116
3378,0.0064842883
3379,-0.0034029156
3380,-0.0132790655
3381,0.0069226366
3382,-0.00391043
3383,-0.014787191
3384,-0.004152182
3385,-0.0028256932
3386,0.008369128
3387,-0.004308979
3388,-0.0046289996
3389,-0.0063090376
3390,-0.0048268093
3391,-0.011922268
3392,0.00845862
3393,-0.00031849675
3394,0.01367119
3395,0.0065346495
3396,0.010495901
3397,0.00031970342
3398,-0.0066889166
3399,-0.0028740221
3400,-0.006430478
3401,0.00045321631
3402,0.0029347837
3403,0.010045045
3404,0.0025087104
3405,-0.005177551
3406,0.01832559
3407,-0.0075336825
3408,0.008909477
3409,0.017178304
3410,0.010426449
3411,-0.005170121
3412,-0.0008055755
3413,-0.015691308
3414,0.009700173
3415,0.013642516
3416,0.010378157
3417,-0.0019171447
3418,0.0033998105
3419,0.014096502
3420,0.0038901656
3421,0.015775688
3422,-0.0018149707
3423,-0.0022126127
3424,-0.006769751
3425,0.0009761059
3426,0.0065018036
3427,0.011794087
3428,-0.0017354209
3429,-0.009715323
3430,-0.005460143
3431,0.010748805
3432,-0.005467007
3433,-0.013516134
3434,0.001142095
3435,0.003180042
3436,0.0020212869
3437,0.00103476
3438,0.005046896
3439,-0.0041099763
3440,-0.0028549437
3441,0.0010661752
3442,-0.0107941665
3443,-0.00043106853
3444,-0.0072609046
3445,-0.017510785
3446,0.003036813
3447,0.0023333966
3448,0.0006933256
3449,0.011578113
3450,-0.01228138
3451,0.005775712
3452,-0.010644113
3453,-0.016829357
3454,0.0026803922
3455,0.011531959
3456,0.0031885728
3457,-0.0079589095
3458,0.009131067
3459,0.0053526396
3460,-0.0055864067
3461,-0.002061928
3462,-0.016105762
3463,-0.008227038
3464,-0.019544357
3465,-0.0034878775
3466,-0.012282023
3467,0.0007876143
3468,0.0022511908
3469,-0.0032252665
3470,-0.0042992057
3471,-0.019317621
3472,-0.014923434
3473,-0.0045400383
3474,0.00026042963
3475,-0.0022532106
3476,-0.0069729025
3477,-0.010201181
3478,0.015515269
3479,0.0070559345
3480,-0.0053593665
3481,0.01994092
3482,0.006813014
3483,0.016088331
3484,-0.0057318876
3485,0.015334078
3486,-0.013161583
3487,-0.0023403475
3488,-0.0025293936
3489,0.010366636
3490,-0.012133519
3491,0.012150468
3492,-0.0018880826
3493,0.002055908
3494,-0.012990903
3495,-0.008439563
3496,0.017432924
3497,-0.0014315649
3498,0.0018195884
3499,0.008975915
3500,-0.008414036
3501,-0.0021958477
3502,0.019812448
3503,-0.007754278
3504,0.0005350685
3505,-0.01663248
3506,0.014719921
3507,-0.00079691206
3508,0.009468002
3509,0.0017369811
3510,-0.014254128
3511,-0.0057728933
3512,0.011557733
3513,-0.011183809
3514,-0.0011214956
3515,0.0047365692
3516,-0.006696583
3517,-0.0034818628
3518,-0.010382648
3519,0.0035046546
3520,-0.0010682786
3521,0.002931654
3522,0.0025512187
3523,-0.013901941
3524,0.0073135034
3525,0.015209148
3526,0.0015447201
3527,-0.00083227333
3528,-0.0041064825
3529,0.014083584
3530,0.00142339
3531,0.018973295
3532,-0.0037329441
3533,0.00050612417
3534,0.0005542945
3535,5.3353957e-05
3536,-0.0039011186
3537,-0.008100464
3538,-0.0075059603
3539,0.006825292
3540,-0.018222377
3541,-0.015877906
3542,-0.0029083076
3543,-0.011422733
3544,0.019039094
3545,-0.0072154347
3546,-0.015235029
3547,0.004680842
3548,-0.004043475
3549,-0.0030490218
3550,0.0060596727
3551,0.019926744
3552,-0.00021907705
3553,-0.0073857587
3554,0.015480626
3555,-7.3351715e-05
3556,0.00028206833
3557,-0.006510384
3558,-0.011504529
3559,-0.0033158814
3560,-0.0057950593
3561,0.013828145
3562,0.005663665
3563,0.003625867
3564,0.0067850277
3565,-0.00065262493
3566,-0.006659366
3567,-0.004163218
3568,-0.015200718
3569,6.6242515e-05
3570,0.0015833532
3571,0.0018947138
3572,0.0019179793
3573,0.013384829
3574,0.0052122474
3575,0.0011164123
3576,0.019493204
3577,-0.0039686663
3578,-0.0008201467
3579,-0.0029106294
3580,0.0017059429
3581,-0.0072768885
3582,0.014460857
3583,-0.003946639
3584,-0.0028547288
3585,-0.0063096676
3586,-0.012207576
3587,-0.010948089
3588,0.009807492
3589,-0.0053587127
3590,-0.015174801
3591,-0.01922389
3592,-0.0034764083
3593,0.007220398
3594,-0.0030131778
3595,-0.005326449
3596,0.004709231
3597,0.000114253206
3598,0.006507769
3599,0.008128093
3600,-0.004607115
3601,0.012033984
3602,5.781207e-05
3603,-0.011863202
3604,0.014211332
3605,-0.0077564847
3606,-0.0010726427
3607,-0.0076570706
3608,0.008128709
3609,-0.0024833938
3610,0.00041449102
3611,-0.003049538
3612,0.001063789
3613,0.0032982943
3614,-0.0058758915
3615,-0.0015040567
3616,0.0021234343
3617,-0.0068782703
3618,0.0034910855
3619,-0.011039046
3620,-0.0004658211
3621,-0.0027748153
3622,-0.004817847
3623,-0.0026667246
3624,-0.0026155144
3625,-0.0053684954
3626,0.007468001
3627,0.008763977
3628,0.008764594
3629,0.014802392
3630,0.012684665
3631,-0.0016343761
3632,0.0016535688
3633,-8.2843646e-05
3634,-0.01543853
3635,0.0061730575
3636,0.011975506
3637,0.008251166
3638,-0.013577281
3639,0.014186748
3640,-0.0003381786
3641,-0.012342695
3642,-0.005901335
3643,0.01033352
3644,-0.014085098
3645,0.010436165
3646,-0.00433832
3647,-0.008878307
3648,-0.0051956656
3649,-0.0028834385
3650,-0.008050694
3651,-0.0027464107
3652,-0.0026338485
3653,-0.008729644
3654,0.003935908
3655,0.016832842
3656,0.011031759
3657,0.013933442
3658,-0.003022238
3659,-0.0072797844
3660,-0.008318711
3661,-0.006928135
3662,-0.0150294155
3663,-0.00906704
3664,-0.0077830013
3665,-0.0084569305
3666,0.005277149
3667,0.00030036815
3668,-0.004021956
3669,-0.001497444
3670,0.00023317308
3671,0.010184958
3672,0.009054159
3673,0.009114842
3674,0.011326005
3675,0.011193577
3676,0.0115507245
3677,0.0021129565
3678,-0.010241201
3679,-0.0002719169
3680,0.010481206
3681,-0.01649546
3682,0.0017897856
3683,0.012592571
3684,0.0018941305
3685,0.015045892
3686,-0.006962782
3687,-0.008389308
3688,0.006002721
3689,-0.010201752
3690,-0.0030423175
3691,-0.01428557
3692,0.00037142014
3693,-0.009485632
3694,0.011836823
3695,0.018341152
3696,0.0035428717
3697,0.0014969349
3698,0.0006962013
3699,-0.012452711
3700,0.0003149724
3701,0.008472021
3702,0.017425707
3703,-0.004431138
3704,-0.0015792339
3705,-0.01046597
3706,-0.014594301
3707,-0.005427963
3708,0.0027878024
3709,-0.011842093
3710,-0.0014089895
3711,0.004396804
3712,0.0029662787
3713,0.0037030857
3714,-0.003096732
3715,-0.0062353443
3716,0.0026683738
3717,-0.016619872
3718,0.0133565515
3719,-0.005473566
3720,-0.017978407
3721,0.0007109247
3722,0.01028276
3723,0.014254909
3724,0.0010893982
3725,0.0068661463
3726,-0.012914332
3727,0.013368059
3728,-0.0022006962
3729,-0.006852127
3730,0.0023798754
3731,0.00085676875
3732,0.011700773
3733,0.009906036
3734,0.013019596
3735,-0.0018440927
3736,0.011603966
3737,0.010098849
3738,0.0036653802
3739,-0.0022523922
3740,-0.017090129
3741,0.004840694
3742,-0.018918436
3743,0.0022783335
3744,0.007402902
3745,0.0038560086
3746,0.009861154
3747,-0.002446955
3748,-0.0009653574
3749,-0.014078106
3750,-0.0021480299
3751,0.0063584447
3752,0.006641839
3753,0.014281803
3754,-0.006986644
3755,0.010025725
3756,-0.019307451
3757,-0.018641233
3758,-0.0006301472
3759,-0.009747689
3760,0.011477612
3761,0.0006794649
3762,0.0123679405
3763,0.0026581686
3764,0.0031995233
3765,-0.0018597357
3766,-0.0067247143
3767,-0.008163828
3768,0.0049196826
3769,-0.011978265
3770,-0.005358671
3771,0.0061347727
3772,0.0066688554
3773,0.00025466268
3774,0.014666221
3775,0.009787709
3776,0.0069742245
3777,-0.0077406815
3778,0.015692435
3779,0.010839119
3780,0.0026084431
3781,0.010113612
3782,0.014644343
3783,-0.0023546745
3784,-0.003856815
3785,-0.0009026054
3786,-0.0024156736
3787,0.0026200498
3788,0.0061919442
3789,-0.0107339425
3790,-0.0017527578
3791,-0.0043857875
3792,-0.014719375
3793,0.00074784417
3794,-0.0073731584
3795,0.010555657
3796,0.014159659
3797,-0.0028883552
3798,-0.01763801
3799,0.014535442
3800,0.0027815227
3801,-0.016093638
3802,-0.001955813
3803,-0.0058395127
3804,-0.0015651493
3805,-0.019383945
3806,0.012840279
3807,-0.001499784
3808,-0.008162416
3809,0.004576985
3810,-0.0070816963
3811,0.0015293643
3812,-0.005493958
3813,-0.019043101
3814,0.010164207
3815,-0.003743519
3816,0.012930809
3817,-0.0137917735
3818,-0.0066361944
3819,0.0029865007
3820,-0.005940637
3821,-0.0020843046
3822,-0.00483558
3823,-0.001326155
3824,-0.012700106
3825,0.0013153724
3826,0.014397862
3827,-0.0019226891
3828,0.008314932
3829,-0.0010629438
3830,0.010706826
3831,0.0017368472
3832,-0.017615423
3833,-0.0074231504
3834,0.0012617297
3835,-0.0020388763
3836,0.00021863653
3837,-0.00026518232
3838,-0.006448629
3839,0.0022390967
3840,-0.0035935992
3841,-0.0012255422
3842,-0.0051582432
3843,-0.015282542
3844,0.0011188665
3845,0.0012767109
3846,0.0045239264
3847,-0.0032691944
3848,0.015830321
3849,-0.012471286
3850,0.019380875
3851,0.013915165
3852,-0.004188914
3853,-0.0040012808
3854,-0.004157301
3855,0.0010269671
3856,-0.011616538
3857,-0.0022362683
3858,0.013467964
3859,0.0011487968
3860,-0.0072650593
3861,-0.0026053938
3862,-0.0050990116
3863,-0.014187437
3864,0.013409772
3865,0.0019772972
3866,0.0054080663
3867,0.010217856
3868,-0.007233457
3869,0.005201513
3870,-0.012024045
3871,0.016510503
3872,-0.003147577
3873,0.0064725345
3874,-0.0069243377
3875,-0.01073247
3876,-0.007148184
3877,-0.0021350246
3878,-0.008879779
3879,-6.1020033e-05
3880,-0.002889334
3881,0.014225372
3882,-0.015767654
3883,-0.010565342
3884,0.015332149
3885,-0.014879761
3886,-0.005402619
3887,9.781791e-06
3888,-0.011955733
3889,0.014025452
3890,-0.017508488
3891,-0.0036631066
3892,-0.0070737223
3893,0.004899807
3894,0.005159864
3895,-7.8623954e-05
3896,0.007977879
3897,0.0023859753
3898,0.010856113
3899,0.0064944527
3900,-0.001613059
3901,-0.002987702
3902,-0.0046645096
3903,0.003938669
3904,-0.00060160283
3905,-0.00441983
3906,-0.0036037087
3907,-0.004131192
3908,0.00620157
3909,-0.007438449
3910,-0.012748431
3911,-0.013389091
3912,0.0056664203
3913,-0.003842663
3914,0.0022496816
3915,0.0028234904
3916,0.014163964
3917,-0.0038433003
3918,1.3553664e-06
3919,-0.008376864
3920,0.0034289663
3921,-0.005772632
3922,-0.008578551
3923,0.0039404873
3924,-0.0100337695
3925,-0.0013209485
3926,-0.0005592943
3927,0.0020648006
3928,-0.0027586988
3929,0.0053796433
3930,-0.0057854555
3931,-0.009973164
3932,-0.0037764912
3933,-0.01691447
3934,-0.007735902
3935,0.013065432
3936,0.002511205
3937,-0.0068839747
3938,0.00056567
3939,0.005850971
3940,0.00061148347
3941,-0.015313244
3942,0.0005447644
3943,0.0035579246
3944,0.017109526
3945,0.009598798
3946,0.002430079
3947,0.016126415
3948,-0.003981876
3949,0.004571476
3950,0.004544357
3951,0.016728621
3952,0.010226902
3953,0.006045602
3954,-0.013547749
3955,-0.008736439
3956,-0.002830514
3957,-0.0032854953
3958,0.014558363
3959,0.0039140647
3960,0.008646981
3961,0.0022657397
3962,6.510481e-05
3963,-0.012595114
3964,-0.009628008
3965,-0.010312886
3966,0.006061606
3967,-0.013612219
3968,0.0066175982
3969,0.0147572085
3970,-0.011356721
3971,-0.014803979
3972,0.005702532
3973,-0.005315447
3974,0.00052818964
3975,0.0015358203
3976,0.002226555
3977,-0.0012418741
3978,0.0069048097
3979,0.0039047732
3980,-0.0017641261
3981,0.007494757
3982,-0.004969748
3983,0.014045894
3984,0.00029154881
3985,-0.012826809
3986,-3.945304e-05
3987,0.015477837
3988,-0.008041147
3989,-0.011600405
3990,-0.0078018266
3991,0.0034177306
3992,-0.0070506763
3993,-0.01018732
3994,0.0011260945
3995,0.00938431
3996,-0.0025796196
3997,-0.00862896
3998,-0.0073633646
3999,0.0116243195
4000,-8.146322e-05
4001,0.008272239
4002,0.00094428676
4003,-0.0016903555
4004,0.0058371425
4005,-0.008912175
4006,0.004986961
4007,0.00035209017
4008,-0.0043214164
4009,-0.017687261
4010,0.0007100591
4011,-0.014169418
4012,0.0011712078
4013,-0.008242507
4014,-0.01058228
4015,-0.0030888617
4016,-0.008913302
4017,0.01908371
4018,0.0076314337
4019,0.017693345
4020,0.018848682
4021,-0.01268042
4022,-0.0037300463
4023,-0.011475434
4024,0.012762667
4025,-0.008056848
4026,0.013569138
4027,-0.004364378
4028,-0.012266236
4029,-0.009674859
4030,-0.004410054
4031,0.0020882753
4032,0.008808753
4033,-0.0030739298
4034,-0.012118755
4035,-0.0126026375
4036,0.008989906
4037,0.0008325014
4038,-0.009931219
4039,-0.0049233427
4040,-0.009310419
4041,0.00477053
4042,-0.019988326
4043,-0.00012292762
4044,0.0027568096
4045,-0.01241163
4046,-0.00054079265
4047,0.009675718
4048,-0.01771493
4049,-0.0056821425
4050,-0.009972191
4051,-0.004525497
4052,-0.0062551415
4053,-0.008524443
4054,0.010826792
4055,-0.0019209988
4056,-0.0128535805
4057,-0.014419591
4058,0.0073851934
4059,0.0028291584
4060,0.015154683
4061,0.013232183
4062,-0.0013006802
4063,-0.0081470795
4064,-0.00793701
4065,-0.008210107
4066,-0.004072225
4067,0.0042653936
4068,0.0042558727
4069,0.0070400634
4070,-0.003116378
4071,0.009512835
4072,0.007401452
4073,0.006555083
4074,-0.005263797
4075,0.0033659758
4076,0.0017072614
4077,0.013792702
4078,0.0032219354
4079,-0.0029241114
4080,-0.017370857
4081,-0.010345995
4082,-0.0036895268
4083,0.015455918
4084,-0.0065296507
4085,0.011089049
4086,0.00046427242
4087,-0.004494447
4088,0.010027128
4089,-0.007804676
4090,-0.0039228383
4091,0.00887435
4092,0.00800725
4093,0.0027097457
4094,0.004331169
4095,0.010798881
