Sno,Weight
0,0.011870101
1,-0.009719236
2,-0.097716264
3,-0.010828524
4,-0.049482916
5,-0.03081549
6,0.0033635062
7,-0.022825088
8,-0.063609384
9,-0.030382
10,0.025869317
11,-0.007054605
12,-0.01205359
13,-0.010199053
14,0.0021030358
15,-0.014234715
16,-0.0438249
17,-0.035653964
18,-0.00561957
19,-0.015204592
20,-0.054279935
21,0.0060218917
22,-0.012881115
23,-0.01612721
24,-0.030918816
25,-0.042988867
26,-0.002847754
27,0.011132673
28,-0.042380795
29,-0.006052717
30,-0.029274894
31,0.0071318327
32,-0.0056344625
33,0.00019987929
34,-0.00843966
35,-0.005464105
36,0.003918088
37,-0.015063431
38,-0.0023157122
39,-0.033987917
40,-0.031223405
41,-0.00062841584
42,-0.07017748
43,-0.028036071
44,-0.02421035
45,-0.021880243
46,0.006531735
47,0.018629132
48,-0.001920898
49,-0.011687313
50,0.011492981
51,-0.012790297
52,0.007876345
53,-0.01614288
54,-0.039266493
55,0.003190437
56,-0.026924985
57,-0.025350075
58,-0.022316668
59,-0.03157898
60,-0.027489878
61,-0.007868992
62,-0.029057203
63,-0.01692206
64,-0.0017000653
65,0.027614992
66,0.009034575
67,-0.010270807
68,-0.041449912
69,0.017471869
70,-0.038126968
71,0.010028474
72,0.00010112976
73,-0.01773813
74,0.0028632379
75,-0.08651754
76,-0.022337383
77,-0.00074341916
78,0.017954819
79,-0.023938427
80,0.0047545317
81,-0.010125867
82,-0.011620659
83,0.010600273
84,-0.023372313
85,-0.0119723575
86,0.008019875
87,0.0060249213
88,-0.011133111
89,-0.020838896
90,0.00953809
91,-0.05935366
92,-0.040071655
93,-0.0025665374
94,-0.038143568
95,-0.10316708
96,0.0066858362
97,0.007850913
98,0.0047172178
99,-0.010464851
100,0.006682279
101,0.0030062732
102,-0.036047798
103,-0.01648276
104,-0.027172845
105,-0.011405698
106,-0.013456809
107,-0.10842243
108,-0.04748672
109,-0.0071617295
110,-0.004042203
111,-0.05175767
112,-0.010734705
113,-0.019463297
114,-0.031973407
115,-0.06355754
116,-0.013873614
117,-0.01884366
118,0.0046557733
119,-0.014615854
120,-0.030299246
121,-0.0325253
122,0.002165742
123,-0.013916976
124,-0.03773344
125,0.0010284644
126,-0.042303912
127,-0.032792278
128,-0.04273676
129,0.014525829
130,-0.030541407
131,-0.07548359
132,-0.010045268
133,-0.060972143
134,0.006982162
135,0.018026374
136,-0.004087876
137,0.0061874064
138,0.017638115
139,0.0065250234
140,0.004454948
141,-0.014097461
142,0.03496636
143,0.0023263018
144,0.0023291504
145,0.001633091
146,0.0066645425
147,-0.0008207002
148,-0.009934872
149,0.009347379
150,-0.0447188
151,0.013388111
152,-0.041340064
153,-0.0005677615
154,0.0029304696
155,-0.039357338
156,-0.017155198
157,-0.022837188
158,-0.011927522
159,-0.06663152
160,-0.009859791
161,-0.027602894
162,-0.0122092
163,-0.00849357
164,0.017111376
165,-0.011963769
166,-0.005271153
167,0.01022739
168,-0.07857017
169,-0.004191781
170,-0.03937141
171,-0.013729425
172,0.0067212144
173,-0.0029561468
174,-0.022659719
175,-0.016280845
176,0.0033405267
177,-0.03628717
178,0.0071009994
179,-0.10772572
180,-0.07592766
181,0.015960978
182,0.00513653
183,-0.010353451
184,-0.0014451309
185,-0.03811642
186,-0.00029565633
187,0.0025084405
188,-0.03316231
189,-0.051130302
190,-0.00010540482
191,0.011669319
192,-0.008439055
193,0.017448
194,-0.011686723
195,0.0015265443
196,0.021764118
197,-0.0052417405
198,-0.010916839
199,-0.0012768767
200,0.015060616
201,-0.008048381
202,-0.11601209
203,-0.014964049
204,-0.016984692
205,0.03094766
206,-0.0028356656
207,-0.07217318
208,0.0037066464
209,-0.016079513
210,0.008208231
211,-0.03865787
212,-0.023403773
213,0.019099362
214,-0.0008746528
215,-0.08352912
216,-0.04857777
217,-0.009650128
218,0.017072706
219,-0.005435202
220,-0.0039067296
221,-0.006429714
222,0.0055685197
223,-0.012169218
224,0.012925344
225,-0.006655385
226,-0.008110505
227,0.0069186864
228,0.011188794
229,-0.03621999
230,-0.014703556
231,-0.0080422135
232,-0.044723425
233,-0.011235801
234,0.03139676
235,-0.034788
236,-0.020213086
237,-0.007470623
238,-0.006186837
239,-0.0067475587
240,-0.09847436
241,0.043124877
242,-0.010799565
243,-0.0038582697
244,0.024463622
245,-0.022823323
246,0.013876727
247,0.0134812845
248,-0.0018794518
249,0.0026852596
250,-0.0048720147
251,-0.002797424
252,0.0005460305
253,-0.006785126
254,-0.008933378
255,-0.03422932
256,0.04210099
257,-0.0075755627
258,0.007483435
259,-0.015855754
260,-0.004397352
261,0.0014849178
262,0.010013823
263,0.004108959
264,0.015016467
265,-0.01928629
266,0.007793099
267,0.034712784
268,-0.0039150063
269,0.00042314007
270,-0.014382918
271,0.012382225
272,-0.009950726
273,-0.00072959054
274,-0.007362765
275,-0.013111109
276,0.019499425
277,0.016180785
278,0.015102078
279,0.0051167565
280,0.008399664
281,0.014745212
282,-0.006683161
283,-0.035419904
284,0.017863445
285,-0.0077080554
286,-0.0048926463
287,-0.026717234
288,-0.0324173
289,-0.013849291
290,-0.02400918
291,-0.008972532
292,0.023263283
293,-0.0070564947
294,-0.008290838
295,0.028418528
296,-0.00069676334
297,0.024427423
298,0.014804092
299,-0.0263273
300,0.008641944
301,0.03431781
302,0.006120244
303,-0.024775468
304,-0.006638095
305,-0.009721784
306,0.011628937
307,-0.033907015
308,-0.014317152
309,0.0236505
310,-0.014743684
311,-0.0140580535
312,-0.003980734
313,-0.045599755
314,0.0030447324
315,-0.026116535
316,-0.0010280549
317,0.008970129
318,0.017858513
319,-0.014361732
320,0.0042643514
321,0.006101644
322,-0.009399031
323,0.028724097
324,-0.022125337
325,0.020591153
326,0.0133380545
327,-0.018906195
328,0.027985368
329,0.030434199
330,-0.045405634
331,0.048446666
332,0.009257711
333,-0.008664344
334,0.0035870527
335,-0.026714565
336,0.026625846
337,-0.0009398367
338,0.011479414
339,-0.025852976
340,-0.009826536
341,-0.011698514
342,-0.019413946
343,-0.004160452
344,-0.016314283
345,0.021107916
346,-0.006459648
347,0.01986349
348,0.025758786
349,0.0015816032
350,0.0009218086
351,0.034554526
352,0.03773982
353,-0.0020464973
354,-0.0029560542
355,0.032919772
356,0.022170587
357,0.008910663
358,0.0033826535
359,0.007609463
360,-0.027844347
361,-0.005207828
362,0.005095109
363,0.036950566
364,0.017601818
365,-0.0060243215
366,0.042085987
367,0.010424292
368,-0.0075985864
369,0.030410858
370,0.030195232
371,0.0066733784
372,0.024963059
373,0.015920125
374,0.025174093
375,-0.009304957
376,-0.0017499819
377,0.021535844
378,-0.013676059
379,-0.016330013
380,-0.0108787
381,0.011139833
382,0.048844356
383,0.011800778
384,-0.0050714808
385,-0.0048542703
386,-0.083251
387,-0.059157837
388,0.0049654357
389,-0.01599407
390,-0.023046289
391,-0.052646335
392,-0.09091609
393,-0.011530274
394,-0.023755172
395,0.0031043934
396,-0.03714127
397,0.00047694665
398,-0.0211704
399,0.0023528445
400,-0.0029538884
401,-0.015692674
402,-0.0014986666
403,-0.025983721
404,-0.056783814
405,0.005522972
406,0.0016198223
407,-0.0066135693
408,-0.030007258
409,-0.0121159265
410,-0.005996838
411,-0.016331377
412,-0.021431293
413,0.004649875
414,-0.021596225
415,-0.008637252
416,-0.00881784
417,0.0029606794
418,-0.017587518
419,0.0032263277
420,0.011592393
421,0.004811665
422,-0.030337283
423,-0.04139329
424,-0.08327066
425,0.014778391
426,-0.040529672
427,-0.03218032
428,-0.015067503
429,-0.03068971
430,-0.00983924
431,0.001823795
432,-0.012660782
433,-0.008254722
434,0.006569099
435,-0.034285612
436,-0.007630891
437,-0.0068360716
438,-0.010143422
439,0.0055672964
440,-0.022005752
441,0.0323792
442,-0.00826386
443,-0.0015468383
444,-0.013248357
445,-0.050913148
446,-0.03205625
447,-0.0055922503
448,0.0038842815
449,-0.014631413
450,-0.013225131
451,-0.015090272
452,-0.03070483
453,0.004695628
454,-0.022958888
455,0.0014431681
456,-0.014913018
457,0.00445734
458,0.014239304
459,-0.052991204
460,-0.01998784
461,0.005215889
462,4.9532217e-05
463,-0.02272637
464,0.017812107
465,0.0021268972
466,-0.0160825
467,-0.0026811147
468,-0.033152875
469,-0.028278204
470,0.0041687754
471,0.013504128
472,-0.015349376
473,-0.042910513
474,0.0041723023
475,-0.039506093
476,-0.023068244
477,-0.0131086465
478,-0.030477338
479,-0.055378355
480,0.021801312
481,0.00615519
482,-0.0059905006
483,-0.0062796865
484,-0.0139900595
485,-0.010904571
486,-0.061663654
487,-0.01059626
488,-0.046258103
489,-0.001231744
490,-0.011573292
491,-0.06371711
492,-0.020613791
493,-0.042774227
494,0.012929017
495,-0.03541818
496,-0.039983418
497,-0.01984574
498,-0.019248057
499,-0.065986454
500,-0.021578591
501,0.004207325
502,0.009281805
503,-0.02198316
504,-0.0022812623
505,-0.010583544
506,0.004428561
507,0.01626584
508,-0.032987967
509,0.005069874
510,-0.01982805
511,-0.039530654
512,-0.006978127
513,0.0017258535
514,0.03226021
515,-0.025564265
516,0.0042928727
517,-0.011571032
518,0.010742545
519,0.018815335
520,0.021733567
521,-0.00993506
522,0.0020967652
523,0.008892396
524,0.019229664
525,0.00852551
526,-0.0034437755
527,0.037439216
528,-0.0030098096
529,-0.0012777881
530,0.02519865
531,0.018755583
532,0.006325531
533,0.0028226888
534,-0.007774622
535,0.018582227
536,-0.0098470915
537,0.034026854
538,0.019023923
539,-0.01619108
540,0.0062039793
541,-0.01204657
542,0.016958619
543,-0.019999754
544,-0.01852727
545,0.004849881
546,-0.025805576
547,-0.005726647
548,0.0057359342
549,-0.006658882
550,-0.023086254
551,0.04528974
552,-0.022147328
553,0.021773342
554,0.023321472
555,0.034846947
556,-0.012745791
557,0.020413341
558,0.0022345523
559,-0.019606574
560,-0.005818226
561,-0.00080959144
562,0.0019726767
563,-0.037606936
564,-0.011867032
565,0.008475482
566,0.018062817
567,-0.01469881
568,-4.962657e-05
569,-0.054465774
570,0.000539824
571,0.00987894
572,-0.028961891
573,-0.024182498
574,0.021214616
575,0.013219172
576,0.0010526406
577,0.00887738
578,-0.023766883
579,0.03501343
580,-0.012118798
581,-0.0024456182
582,0.027001133
583,0.013680889
584,-0.005707955
585,0.0068915393
586,-0.045148436
587,0.035556547
588,0.025060799
589,0.020801235
590,0.011037825
591,-0.028497886
592,-0.0003501633
593,0.00012286437
594,0.018222366
595,-0.015680669
596,-0.014870345
597,0.0021031082
598,0.0041411947
599,-0.036648586
600,-0.014365595
601,0.04015805
602,-0.017508946
603,0.03809119
604,0.021490926
605,-0.01108942
606,0.011356976
607,0.008900526
608,0.0075389883
609,5.1076197e-05
610,-0.0031901798
611,0.0141671505
612,0.0027426076
613,-0.016290016
614,0.031054687
615,0.0011524039
616,-0.022559153
617,-0.00451543
618,0.013255915
619,0.028214397
620,0.019104768
621,0.01824478
622,0.038325522
623,0.021019405
624,-0.025776582
625,0.033806633
626,0.036414932
627,0.025054658
628,0.02155305
629,-0.014397713
630,0.028275715
631,0.009072658
632,-0.02881974
633,0.022776794
634,-0.0012047511
635,0.0063187433
636,0.011437496
637,0.010407189
638,0.042750433
639,-0.044464067
640,-0.006315005
641,-0.020220455
642,-0.008888682
643,-0.00614051
644,-0.019940192
645,-0.044595096
646,0.009039628
647,0.007909319
648,-0.017085897
649,-0.00683478
650,0.010793423
651,0.008726193
652,-0.013296203
653,-0.012135498
654,0.0018351399
655,0.008770006
656,0.0120949745
657,0.0023168959
658,0.010579732
659,-0.015804889
660,-0.02052113
661,0.01058315
662,-0.008974903
663,-0.045557223
664,-0.046954114
665,-0.012502031
666,-0.023684008
667,0.008560067
668,-0.02854583
669,-0.0061563407
670,-0.012429138
671,-0.0021347345
672,-0.016718265
673,0.017740833
674,-0.012060671
675,-0.01345307
676,0.015066129
677,0.0014954193
678,-0.020905675
679,0.07865589
680,-0.051724903
681,-0.002057054
682,0.0077874633
683,-0.0037865795
684,0.0061778296
685,-0.014346824
686,-0.005870574
687,0.036890127
688,-0.010802202
689,-0.014455133
690,-0.018584842
691,-0.016245529
692,0.0013447746
693,0.000964521
694,-0.0070218747
695,-0.0029118995
696,-0.006880106
697,0.0071996497
698,-0.031311795
699,-0.010718338
700,-0.00052323367
701,-0.027455114
702,-0.0038711086
703,0.023073807
704,-0.007865036
705,0.006733117
706,-0.015328538
707,-0.018317914
708,-0.026778916
709,0.0050326935
710,-0.0340118
711,0.020372258
712,0.0074157994
713,0.0044691623
714,0.0158246
715,-0.014260671
716,-0.0134648485
717,-0.03676267
718,-0.0031236128
719,-0.015317718
720,0.017515853
721,-0.0028575398
722,-0.010352867
723,0.00917426
724,-0.015753584
725,-0.0120519325
726,-0.01279328
727,-0.013711345
728,-0.0058676554
729,-0.03889249
730,-0.009945721
731,0.0020944234
732,-0.031801607
733,-0.021248981
734,0.015006266
735,0.024034265
736,0.030280465
737,0.014654512
738,0.00669476
739,0.0029406818
740,-0.020528084
741,-0.0077176336
742,0.008466767
743,-0.015186923
744,-0.01593916
745,0.016192388
746,0.0054628886
747,-0.025600845
748,-0.024018334
749,0.007998056
750,0.019958718
751,-0.008010327
752,-0.032506168
753,0.058601238
754,-0.011792274
755,0.00473491
756,-0.02794213
757,-0.0025879648
758,0.028458076
759,-0.03577542
760,-0.012738904
761,-0.016851772
762,-0.00735923
763,0.0011254147
764,0.0039344253
765,0.018653343
766,0.0052403966
767,-0.037981663
768,-0.106783494
769,0.004165649
770,0.038135383
771,0.060392287
772,0.009327726
773,-0.03624848
774,0.03894047
775,0.08556673
776,0.03977544
777,0.060508616
778,0.036896206
779,0.017064003
780,-0.0034746085
781,0.005125303
782,0.06950044
783,0.031976026
784,-0.016484603
785,0.104507506
786,0.058752894
787,0.09009921
788,0.078845695
789,0.016742988
790,-0.041643955
791,-0.0060643917
792,-0.070291504
793,0.01769722
794,0.07088804
795,0.040072747
796,-0.046587948
797,-0.007101705
798,0.08597323
799,0.047893275
800,-0.025395187
801,0.040945984
802,0.009992347
803,-0.018407729
804,0.010792349
805,-0.0033086524
806,0.045665238
807,0.08155405
808,-0.00705304
809,0.015059955
810,-0.028988395
811,-0.028097684
812,-0.007416399
813,0.043160643
814,0.0049750977
815,0.025424415
816,0.0068309875
817,0.03880092
818,0.006537606
819,0.03835686
820,0.037307415
821,0.050899707
822,0.08147237
823,-0.006339078
824,0.06833161
825,-0.031076552
826,0.07335072
827,-0.011032793
828,-0.036181048
829,-0.034054555
830,0.042651363
831,-0.01423274
832,-0.0016917082
833,0.03890592
834,-0.011279769
835,-0.0046779774
836,0.03910437
837,0.02392085
838,0.025222244
839,-0.020716289
840,0.003804957
841,0.03102694
842,0.04621526
843,0.046120618
844,-0.008577809
845,0.036417104
846,-0.0014508714
847,0.04813403
848,0.02051535
849,-0.005209511
850,0.0010539449
851,0.037931778
852,0.01616388
853,0.09175781
854,-0.005058391
855,-0.0468037
856,0.051730156
857,0.02925502
858,0.01214182
859,0.045088645
860,0.0015423544
861,0.036233183
862,0.12067731
863,0.07504617
864,0.01871684
865,0.00501527
866,0.028215455
867,0.014475584
868,0.041429248
869,0.049380977
870,0.07235004
871,0.10039318
872,0.033437263
873,0.064747855
874,0.096389726
875,0.0013420669
876,0.032886036
877,0.055660605
878,0.02276669
879,0.08116167
880,0.020829236
881,0.059314754
882,0.054309312
883,0.038397815
884,0.01719601
885,0.010106615
886,0.027216434
887,0.008582557
888,0.01810625
889,0.016508453
890,-0.0016242249
891,-0.0009905425
892,0.08083031
893,0.0122968415
894,-0.021868574
895,-0.018405382
896,-0.0054158657
897,-0.019962462
898,-0.019198675
899,0.058478147
900,-0.016473563
901,-0.0034603458
902,-0.010203001
903,-0.006817067
904,-0.02882455
905,-0.017987661
906,0.0028960602
907,-0.049746837
908,-0.03943823
909,-0.00058594014
910,0.07182893
911,-0.042931017
912,-0.015599057
913,-0.008726049
914,-0.013430165
915,0.0067574144
916,-0.0043165507
917,-0.062955886
918,0.0024605016
919,0.13098964
920,0.051377337
921,-0.07297334
922,0.07067799
923,-0.025995117
924,-0.0049246
925,0.0042939065
926,0.013175749
927,-0.037869412
928,-0.015859284
929,-0.02124996
930,-0.0101388935
931,-0.009703833
932,-0.048259296
933,-0.0037658606
934,-0.009971658
935,-0.034712903
936,0.026705755
937,-0.09474828
938,-0.07178268
939,-0.040839992
940,-0.03982777
941,-0.06258679
942,0.0016332802
943,-0.014039948
944,0.0020679394
945,0.03259553
946,-0.013573054
947,0.06223558
948,-0.024239296
949,-0.045498308
950,0.03149178
951,0.0012933505
952,0.006615233
953,-0.07423729
954,0.012181785
955,-0.005769976
956,-0.009930294
957,-0.024058813
958,-0.049153782
959,-0.0016980558
960,-0.014066628
961,0.00033444678
962,-0.0066775
963,-0.053770177
964,-0.04973275
965,-0.016313447
966,-0.067785144
967,-0.026846156
968,-0.0077265017
969,-0.04833116
970,0.039709147
971,-0.021567378
972,-0.026424749
973,0.14366576
974,-0.013457687
975,0.056856465
976,-0.036254305
977,-0.0023990811
978,-0.008885659
979,-0.028666927
980,0.04946474
981,0.01465957
982,-0.0025478299
983,-0.00026403557
984,-0.022357821
985,-0.08258811
986,0.0050425204
987,-0.03700974
988,-0.05071964
989,-0.005671729
990,0.012594058
991,-0.030640969
992,-0.069099106
993,-0.012271061
994,-0.008943344
995,-0.029019864
996,-0.036922064
997,0.03510548
998,-0.016946027
999,-0.009774748
1000,0.060368452
1001,0.0014876606
1002,-0.026419176
1003,-0.028739091
1004,-0.051746648
1005,0.0027050623
1006,-0.05242948
1007,0.0054406594
1008,0.06320643
1009,-0.027529614
1010,-0.06877677
1011,-0.0135979615
1012,-0.06170738
1013,0.0056348364
1014,-0.06410495
1015,-0.03965131
1016,-0.02363436
1017,-0.05632724
1018,0.015370243
1019,-0.0075448644
1020,0.0037253012
1021,-0.048161004
1022,-0.0505189
1023,-0.013586907
1024,0.04953318
1025,0.0041243965
1026,-0.03475539
1027,-0.016738761
1028,-0.004022136
1029,-0.02813053
1030,-0.032831267
1031,-0.060803354
1032,-0.039299507
1033,-0.013454567
1034,-0.02290919
1035,0.030969812
1036,0.003211824
1037,-0.011623515
1038,-0.0092171915
1039,-0.0048560444
1040,-0.0023879146
1041,-0.03902512
1042,-0.01559008
1043,-0.03976492
1044,-0.041787196
1045,0.036481295
1046,0.039646365
1047,-0.010067264
1048,-0.013430509
1049,0.011852627
1050,0.0015606841
1051,-0.04339395
1052,-0.020393683
1053,-0.021664754
1054,-0.028675634
1055,-0.047496993
1056,-0.02258518
1057,-0.02438086
1058,-0.0025239985
1059,-0.016277445
1060,0.026376255
1061,0.004930974
1062,-0.0047090445
1063,0.0039755404
1064,0.028501522
1065,0.035305962
1066,-0.015392756
1067,-0.026227618
1068,0.025208933
1069,0.0039736666
1070,-0.01537917
1071,0.00030584238
1072,0.0022186835
1073,-0.025567552
1074,0.0118632745
1075,-0.009133721
1076,-0.013233756
1077,0.027289655
1078,-0.033429213
1079,-0.009867987
1080,-0.028120516
1081,0.031859983
1082,-0.015564742
1083,-0.015490653
1084,-0.00065360835
1085,0.0142247435
1086,-0.0094533255
1087,0.013685067
1088,0.005885244
1089,-0.039055265
1090,0.004739046
1091,0.00036964822
1092,-0.0120904
1093,0.01924502
1094,-0.013521958
1095,-0.006312316
1096,0.051373277
1097,0.022975305
1098,0.00093043916
1099,-0.04419128
1100,-0.018533397
1101,0.0036567017
1102,0.017737295
1103,-0.03175706
1104,0.027514732
1105,-0.012906235
1106,0.007189774
1107,-0.0344521
1108,-0.034728486
1109,-0.029918555
1110,0.009372957
1111,0.04084685
1112,-0.043214034
1113,0.0062928093
1114,0.009171368
1115,-0.033832636
1116,0.016511414
1117,-0.006888501
1118,-0.042708956
1119,-0.03510846
1120,0.012984192
1121,-0.021319093
1122,-0.02976702
1123,0.005604499
1124,0.008652731
1125,-0.021818902
1126,-0.083525166
1127,-0.020338075
1128,-0.029423108
1129,-0.0087228315
1130,0.01632512
1131,-0.013482012
1132,-0.0074827154
1133,-0.058842942
1134,0.036391508
1135,-0.04722944
1136,-0.014462524
1137,-0.020053783
1138,-0.0011964373
1139,-0.055851366
1140,0.007819287
1141,0.010754401
1142,0.020002535
1143,0.0042047217
1144,0.012659954
1145,0.014913531
1146,-0.004900696
1147,0.004129841
1148,-0.03803173
1149,0.025358947
1150,0.02958855
1151,0.028103087
1152,0.041259907
1153,0.0031082034
1154,0.02853894
1155,-0.00077483954
1156,-0.026039228
1157,0.023764042
1158,-0.018861882
1159,-0.015227814
1160,0.02503197
1161,9.581476e-06
1162,-0.0069991453
1163,-0.005902108
1164,-0.033905227
1165,-0.017863886
1166,-0.037598457
1167,-0.0043638744
1168,-0.016305342
1169,-0.01198076
1170,-0.010001326
1171,-0.020901982
1172,0.0016531368
1173,-0.013623317
1174,0.04116671
1175,-0.025701083
1176,0.028900422
1177,0.0073359646
1178,-0.007078341
1179,0.012356023
1180,-0.044004694
1181,0.009408249
1182,-0.011013104
1183,-0.0040158075
1184,-0.013226809
1185,0.007858487
1186,-0.0237707
1187,0.0058877026
1188,-0.00621141
1189,0.01443538
1190,-0.0015723894
1191,-0.025924107
1192,-0.002638219
1193,-0.014801695
1194,0.000530342
1195,0.040077467
1196,0.0019074536
1197,-0.00039480987
1198,-0.0009672471
1199,0.039015304
1200,-0.022908596
1201,-0.008452808
1202,0.004457075
1203,0.018934282
1204,0.00940585
1205,-0.009897043
1206,-0.006227626
1207,-0.004003733
1208,-0.012402265
1209,0.03142961
1210,-0.025613425
1211,-0.004155628
1212,-0.038176276
1213,-0.0041888095
1214,0.0051027494
1215,-0.020584518
1216,-0.009210242
1217,-0.0051810844
1218,0.0013022432
1219,0.011567626
1220,-0.01159414
1221,-0.022836482
1222,0.027274147
1223,0.031100292
1224,-0.006419113
1225,-0.0067357426
1226,0.06893931
1227,0.010009446
1228,-0.0060267816
1229,-0.02467038
1230,-0.036327288
1231,-0.007830065
1232,-0.00078629167
1233,-0.012298839
1234,-0.024595328
1235,0.015464364
1236,-0.04306805
1237,-0.027731054
1238,0.003689908
1239,0.03757938
1240,0.01893729
1241,0.0039194818
1242,-0.006160819
1243,-0.015818875
1244,0.011432087
1245,-0.017436223
1246,-0.026656406
1247,0.0071038827
1248,-0.0017372931
1249,0.014653781
1250,-0.010571954
1251,-0.005387307
1252,-0.016599359
1253,-0.066765174
1254,0.00770333
1255,-0.010769078
1256,-0.0061214655
1257,-0.023346074
1258,0.01434066
1259,0.015834061
1260,0.03630378
1261,-0.0002282486
1262,-0.006178942
1263,-0.0051656794
1264,0.025976403
1265,-0.042185634
1266,-0.032815978
1267,0.026149908
1268,-0.017085152
1269,0.02665242
1270,-0.016097207
1271,-0.0320584
1272,-0.018913556
1273,-0.032862503
1274,-0.025097732
1275,-0.0084973825
1276,-0.019728377
1277,-0.009775135
1278,-0.045763813
1279,0.0069870185
1280,-0.00881608
1281,-0.0118122725
1282,-0.054865103
1283,-0.027835516
1284,0.002143242
1285,-0.04805664
1286,-0.006015144
1287,-0.029759662
1288,-0.06136789
1289,0.000433053
1290,-0.019991852
1291,0.019964939
1292,-0.02366566
1293,0.0028697578
1294,-0.01262048
1295,-0.008497804
1296,-0.018515177
1297,-0.017610684
1298,-0.0027501243
1299,-0.026080044
1300,-0.019146197
1301,0.017709749
1302,-0.008818915
1303,-0.011949179
1304,0.0010998204
1305,-0.013529342
1306,-0.014792558
1307,-0.04999309
1308,-0.018378735
1309,-0.0030950927
1310,-0.035181858
1311,-0.030571058
1312,-0.0035254387
1313,-0.042499784
1314,-0.011595375
1315,-0.02070285
1316,0.023913937
1317,-0.010104462
1318,-0.024186479
1319,0.0009812503
1320,-0.049539495
1321,0.025289156
1322,-0.008210276
1323,0.014459547
1324,-0.015226709
1325,0.001509889
1326,0.0056233266
1327,0.016157178
1328,0.008052741
1329,-0.031475864
1330,-0.006538986
1331,-0.031816877
1332,-0.03363426
1333,0.01351002
1334,-0.036438867
1335,-0.02385284
1336,-0.028744921
1337,0.0096923895
1338,-0.014726345
1339,0.011229612
1340,-0.028872943
1341,-0.05761703
1342,-0.009695741
1343,-0.006875511
1344,-0.014838202
1345,-0.020516003
1346,0.009712515
1347,0.006283098
1348,-0.008074855
1349,0.0047554323
1350,-0.0054608816
1351,-0.019594973
1352,0.026597878
1353,0.0042656576
1354,-0.010970168
1355,-0.043427136
1356,0.013672649
1357,-0.018336594
1358,0.010084428
1359,-0.047408517
1360,0.0053296103
1361,-0.012694641
1362,0.009400496
1363,-0.009466182
1364,-0.027840547
1365,-0.027831232
1366,-0.0057005603
1367,-0.003823602
1368,-0.03406868
1369,-0.017502515
1370,-0.012353612
1371,-0.010281849
1372,-0.021237347
1373,-0.018043615
1374,-0.031596173
1375,-0.041714597
1376,0.027081935
1377,-0.0055070147
1378,-0.024210077
1379,0.016355857
1380,0.0034258396
1381,-0.02576004
1382,-0.049828764
1383,-0.00040096874
1384,-0.06099043
1385,0.0069291517
1386,0.021667317
1387,-0.024948651
1388,-0.011738896
1389,-0.053284876
1390,0.021076808
1391,-0.037204392
1392,-0.056488678
1393,0.018615786
1394,0.0065052663
1395,-0.06336139
1396,0.0023295044
1397,-0.0028358905
1398,0.015820576
1399,0.0019234519
1400,-0.025496967
1401,-0.013133328
1402,-0.0021239258
1403,-0.0056298515
1404,-0.013805254
1405,0.0061712386
1406,0.014029618
1407,-0.039597623
1408,0.002677044
1409,0.005938171
1410,-0.016786765
1411,0.11775482
1412,-0.024572851
1413,0.016651614
1414,-0.011929808
1415,0.0017105413
1416,-0.009512464
1417,-0.0084425965
1418,0.009749737
1419,-0.035100345
1420,-0.054181438
1421,0.003234367
1422,-0.021216666
1423,-0.010722154
1424,-0.008519832
1425,-0.011547833
1426,-0.007750242
1427,-0.007773674
1428,-0.012979478
1429,-0.025641823
1430,0.008668903
1431,-0.0017493211
1432,0.00666621
1433,0.0077068564
1434,-0.027306503
1435,0.058461588
1436,-0.023630012
1437,-0.001414057
1438,-0.006329099
1439,0.08463094
1440,0.036277995
1441,0.03722501
1442,-0.0031044856
1443,0.04133276
1444,-0.021809489
1445,-0.0014631981
1446,-0.008776646
1447,-0.010089545
1448,0.008342814
1449,-0.017776236
1450,-0.026407182
1451,-0.01711307
1452,0.0065000034
1453,-0.04241866
1454,0.012261621
1455,0.045965325
1456,-0.003151886
1457,0.06827361
1458,-0.010816269
1459,0.08633804
1460,0.09153169
1461,-0.04587506
1462,-0.009523153
1463,0.0011775072
1464,-0.00843505
1465,0.07565083
1466,-0.0038604497
1467,-0.009888519
1468,0.0059976326
1469,-0.023602275
1470,-0.0032644093
1471,-0.012913285
1472,0.026300617
1473,-0.0021949625
1474,-0.00936746
1475,-0.0077155754
1476,-0.0051313993
1477,-0.025901845
1478,-0.011658103
1479,0.035685744
1480,-0.017183453
1481,-0.0010519357
1482,0.115254626
1483,-0.02078843
1484,0.04422149
1485,0.0072301235
1486,-0.03410886
1487,0.07382942
1488,-0.023413725
1489,0.010893956
1490,-0.020732556
1491,0.07753278
1492,0.027573362
1493,-0.021106116
1494,0.0066468893
1495,0.012948571
1496,0.098383315
1497,-0.012663613
1498,0.0037250018
1499,0.0063041127
1500,-0.0006736561
1501,0.0031985953
1502,-0.0014514284
1503,-0.010961423
1504,-0.009300339
1505,0.04529795
1506,0.03949152
1507,-0.0709244
1508,-0.033397987
1509,0.03015725
1510,-0.013112035
1511,-0.02000622
1512,0.032305215
1513,-0.0018273212
1514,-0.027928479
1515,-0.0042159217
1516,-0.021331916
1517,-0.022556078
1518,-0.04813522
1519,0.004488851
1520,0.06724345
1521,-0.0029378214
1522,-0.077580735
1523,-0.011944095
1524,-0.07551633
1525,0.02356254
1526,-0.016418105
1527,-3.552498e-05
1528,0.015843784
1529,-0.077852696
1530,-0.018417783
1531,0.00016545385
1532,0.00430682
1533,-0.036090918
1534,0.0031131394
1535,0.007480874
1536,-0.036079697
1537,-0.008887737
1538,0.043978423
1539,-0.06654294
1540,-0.0006701229
1541,-0.02505747
1542,0.043493222
1543,0.028657937
1544,0.013323326
1545,0.0103990445
1546,0.030938914
1547,0.026173845
1548,0.010732005
1549,-0.023702122
1550,0.011083387
1551,0.0068117217
1552,-0.027969437
1553,0.025110686
1554,0.040999893
1555,0.010330309
1556,0.01851227
1557,0.015418699
1558,-0.0800415
1559,-0.01027435
1560,-0.015650697
1561,0.0098500885
1562,0.010039111
1563,0.00129828
1564,0.009501647
1565,-0.012985147
1566,0.03211581
1567,0.0011629375
1568,0.0024652793
1569,-0.0025962878
1570,-0.00777617
1571,-0.0045869458
1572,0.007979374
1573,0.0051701516
1574,-0.033025295
1575,0.056608636
1576,-0.037878834
1577,0.016894786
1578,0.037051316
1579,-0.0026463766
1580,-0.0039990977
1581,-0.0013810402
1582,-0.012750334
1583,-0.02170538
1584,0.0045199525
1585,-0.01866456
1586,-0.011771815
1587,-0.05496495
1588,-0.005605775
1589,0.0071090097
1590,0.020051636
1591,-0.007155437
1592,0.016348153
1593,-0.10223555
1594,0.010322444
1595,-0.01170995
1596,-0.013805548
1597,-0.04702871
1598,0.013733248
1599,-0.01720701
1600,0.011978078
1601,0.017254395
1602,0.0040693157
1603,-0.0016746623
1604,-0.020879133
1605,-0.0021128128
1606,-0.020597633
1607,-0.004438668
1608,-0.0124164
1609,0.015724849
1610,-0.06683542
1611,0.048438843
1612,0.007450357
1613,0.008489316
1614,-0.013876017
1615,-0.009712605
1616,-0.0051919497
1617,-0.014435709
1618,0.0050570862
1619,-0.023370048
1620,-0.014660415
1621,0.020981213
1622,-0.0018191008
1623,-0.055643972
1624,-0.007707218
1625,0.01897121
1626,-0.021365812
1627,0.06325053
1628,0.0032499686
1629,0.00068294443
1630,0.029066537
1631,0.03680008
1632,0.03262677
1633,0.009325368
1634,-0.012508257
1635,0.0037887204
1636,-0.012723001
1637,-0.009549034
1638,0.041473337
1639,0.012746313
1640,0.011955348
1641,0.0002378674
1642,-0.009070204
1643,-0.007503064
1644,-0.013290915
1645,0.018610716
1646,0.014217196
1647,0.031093406
1648,-0.05445155
1649,0.05696245
1650,0.009776016
1651,0.018274222
1652,-0.004656264
1653,-0.009524008
1654,0.031151222
1655,-0.004471484
1656,-0.006625736
1657,0.015696224
1658,-0.00026295002
1659,0.003821236
1660,0.010097027
1661,0.022504639
1662,0.025634486
1663,-0.027894769
1664,-0.012859342
1665,-0.011044184
1666,0.02107084
1667,-0.12112156
1668,-0.0017192968
1669,-0.005867679
1670,0.0004988252
1671,0.02528077
1672,0.03677492
1673,-0.0068423958
1674,0.020372773
1675,-3.1114934e-05
1676,-0.02386156
1677,-0.00043647594
1678,-0.0058067003
1679,0.0013247295
1680,-0.011446488
1681,0.00020791023
1682,0.012119049
1683,-0.002048184
1684,0.020669563
1685,-0.008417251
1686,-0.0041821613
1687,0.00087068183
1688,-0.030949496
1689,-0.0017685171
1690,0.010162423
1691,-0.009835916
1692,-0.028368838
1693,-0.009058722
1694,0.018825522
1695,-0.028570542
1696,-0.011996071
1697,0.018940168
1698,-0.024011973
1699,-0.0122733675
1700,0.005527593
1701,-0.004804524
1702,-0.032447755
1703,0.0254636
1704,-0.033679217
1705,0.0018224198
1706,-0.011297214
1707,0.0070615406
1708,-0.021721305
1709,-0.0024765225
1710,0.0030525522
1711,0.011196782
1712,0.0129157975
1713,-0.030227615
1714,-0.010664747
1715,-0.06456388
1716,-0.030800575
1717,0.001819798
1718,0.016166428
1719,-0.012766723
1720,0.020015925
1721,-5.014737e-05
1722,0.001274482
1723,-0.016543612
1724,-0.023891287
1725,-0.038760263
1726,0.000832996
1727,-0.01276359
1728,-0.0030389845
1729,0.01808837
1730,-0.00062992406
1731,-0.009514403
1732,0.0035592478
1733,-0.009516213
1734,0.023314795
1735,0.007379259
1736,-0.040124044
1737,0.0026579015
1738,-0.047282204
1739,0.026798949
1740,0.008299102
1741,0.018285189
1742,-0.025438221
1743,-0.02090925
1744,0.0019078426
1745,0.004334353
1746,-0.017526988
1747,-0.029532872
1748,-0.0059777154
1749,0.008236249
1750,0.016960029
1751,-0.034002036
1752,-0.0472081
1753,0.0069157295
1754,-0.007848813
1755,0.025647974
1756,0.0005754266
1757,0.0028284225
1758,0.016385343
1759,0.038406953
1760,0.005330034
1761,-0.010204992
1762,0.009673655
1763,-0.0042178635
1764,-0.01353869
1765,-0.047721744
1766,0.03563137
1767,-0.005630551
1768,-0.031521067
1769,0.007859249
1770,-0.029689781
1771,0.016243543
1772,0.01310396
1773,0.018869469
1774,-0.013210982
1775,0.029196505
1776,-0.031175118
1777,0.01570503
1778,-0.0063791694
1779,0.036651984
1780,0.0056066103
1781,-0.020572102
1782,0.0031942034
1783,-0.023291353
1784,-0.00074704154
1785,-0.019581776
1786,0.0020233488
1787,0.012135419
1788,-0.003999168
1789,-0.010148397
1790,-0.012468074
1791,-0.035443366
1792,0.008184006
1793,0.0014922819
1794,-0.00021027858
1795,-0.012750777
1796,-0.015478214
1797,-0.00050092227
1798,-0.0080262385
1799,-0.015812071
1800,-0.02359202
1801,0.009723778
1802,-0.010842797
1803,-0.0067926226
1804,-0.027347721
1805,0.00526913
1806,-0.042314418
1807,-0.009443291
1808,-0.01665663
1809,-0.026345447
1810,-0.0012947243
1811,-0.021179382
1812,-0.012160334
1813,-0.017475322
1814,0.009623663
1815,-0.015102828
1816,-0.0014358613
1817,-0.026673507
1818,-0.031776525
1819,-0.00496018
1820,-0.023703055
1821,-0.008360159
1822,-0.010952203
1823,-0.013175662
1824,-0.029126829
1825,-0.008179413
1826,-0.0031293144
1827,-0.013938276
1828,-0.011541398
1829,0.0015147922
1830,-0.023279587
1831,-0.022667384
1832,-0.011148978
1833,-0.0031345328
1834,-0.006609637
1835,-0.033637397
1836,0.013591798
1837,-0.031944882
1838,-0.017297901
1839,0.024643965
1840,-0.0013859777
1841,-0.025534075
1842,-0.0017415794
1843,0.01212239
1844,-0.0005714257
1845,-0.048396777
1846,-0.024053063
1847,-0.0117894085
1848,-0.017235253
1849,0.0025886612
1850,0.0012125343
1851,-0.029620992
1852,-0.026725603
1853,0.0023612748
1854,-0.022539828
1855,-0.009567324
1856,-0.011993543
1857,-0.018882945
1858,-0.013682396
1859,-0.019832572
1860,-0.023608336
1861,-0.02190871
1862,-0.03091773
1863,-0.023076618
1864,-0.013883174
1865,-0.025211928
1866,0.009474579
1867,-0.011936603
1868,0.009243245
1869,-0.010524543
1870,-0.02537338
1871,-0.019622743
1872,-0.017287323
1873,0.0020916022
1874,-0.0034191315
1875,-0.016892571
1876,-0.01161825
1877,0.0067618373
1878,0.017857032
1879,0.014845922
1880,-0.012364922
1881,-0.032066662
1882,0.007705661
1883,-0.015434371
1884,-0.021383528
1885,0.010253384
1886,-0.012871748
1887,-0.042298783
1888,0.0032205181
1889,-0.025753574
1890,-0.0126745505
1891,-0.007965112
1892,-0.024644058
1893,-0.020317921
1894,-0.011390413
1895,0.0041636713
1896,-0.0112384865
1897,-0.005740901
1898,-0.02942792
1899,-0.025377195
1900,-0.033416916
1901,-0.02705479
1902,0.0018453231
1903,-0.012288851
1904,-0.003142693
1905,-0.01444635
1906,0.003677913
1907,-0.015720643
1908,-0.0051178583
1909,-0.001769438
1910,-0.023295904
1911,-0.023110107
1912,0.0019742656
1913,-0.0047391825
1914,-0.0012184671
1915,-0.009002455
1916,-0.011898748
1917,-0.027978344
1918,-0.019771142
1919,-0.0059484597
1920,0.017696852
1921,-0.007888256
1922,-0.051143944
1923,-0.035492662
1924,0.0060814186
1925,0.008367974
1926,-0.030889446
1927,-0.05022673
1928,-0.061000504
1929,-0.028821293
1930,-0.0308105
1931,-0.0044786334
1932,-0.030830616
1933,0.012839106
1934,-0.010069781
1935,0.0055731977
1936,0.022164807
1937,-0.033699155
1938,-0.037696254
1939,-0.028085813
1940,-0.041668184
1941,-0.0073354053
1942,0.025258213
1943,-0.010760589
1944,-0.013025135
1945,-0.020092085
1946,-0.00028624653
1947,0.0066976575
1948,-0.0041270256
1949,0.0076438184
1950,-0.016256135
1951,-0.014512512
1952,-0.009839612
1953,0.002369968
1954,-0.0013755469
1955,-0.010241361
1956,0.019058088
1957,-0.001471133
1958,-0.016334279
1959,-0.050650332
1960,-0.019701444
1961,0.010867179
1962,-0.017551903
1963,-0.028128488
1964,0.008671629
1965,-0.005335858
1966,-9.160883e-05
1967,0.0032942481
1968,-5.900443e-05
1969,-0.010982245
1970,0.0048449566
1971,7.9774545e-05
1972,-0.00707417
1973,0.015007417
1974,-0.027411506
1975,-0.0047026705
1976,-0.026265766
1977,0.04043081
1978,-0.015941944
1979,0.017809402
1980,-0.023281267
1981,-0.027468873
1982,-0.026440982
1983,-0.012687454
1984,0.00049892114
1985,-0.031503174
1986,-0.01055028
1987,0.0003322559
1988,0.004635785
1989,0.0035699848
1990,-0.0018030084
1991,0.005620316
1992,-0.0026764604
1993,0.0114055
1994,0.0077604377
1995,-0.034146134
1996,-0.0051543457
1997,-0.011622396
1998,-0.0056117885
1999,-0.01727868
2000,0.008888153
2001,0.0030414728
2002,0.0031467476
2003,-0.00823255
2004,-0.055700507
2005,-0.035007987
2006,-0.011278595
2007,0.02145903
2008,-0.00482684
2009,-0.02512911
2010,0.009852382
2011,-0.0331543
2012,-0.032940436
2013,-0.014347477
2014,-0.04331919
2015,-0.046253473
2016,0.01991376
2017,-0.0015390905
2018,-0.017608093
2019,0.013898902
2020,-0.016980978
2021,-0.024348956
2022,-0.072481066
2023,-0.028432617
2024,-0.0038273712
2025,-0.014634411
2026,-0.029703157
2027,-0.020494523
2028,-0.0010548327
2029,-0.0360678
2030,0.01938672
2031,-0.03036006
2032,0.0070282314
2033,-0.028388154
2034,-0.0049461606
2035,-0.09561675
2036,-0.015809864
2037,0.016970795
2038,0.006464026
2039,0.023246843
2040,0.0338045
2041,-0.015941128
2042,0.0012669854
2043,0.009372599
2044,-0.025473572
2045,0.019152155
2046,-0.016844448
2047,0.0035395394
2048,0.001452829
2049,-0.0026425647
2050,0.033020537
2051,-0.06669501
2052,-0.003654043
2053,0.0030326305
2054,0.008701678
2055,0.030525373
2056,0.03894113
2057,0.0141748
2058,0.023959676
2059,-0.0069431704
2060,-0.056393422
2061,-0.009392125
2062,0.022646928
2063,-0.003251654
2064,-0.00022720019
2065,0.034307376
2066,0.02538645
2067,0.037166987
2068,0.038054913
2069,-0.026227556
2070,0.0015387126
2071,0.036237802
2072,0.03442689
2073,-0.02172387
2074,0.03584228
2075,0.00013135094
2076,0.0018391344
2077,0.0041475724
2078,0.034430996
2079,-0.0015212782
2080,0.0002661841
2081,0.006352945
2082,-0.025790015
2083,-0.019535689
2084,-0.0028210992
2085,-0.00849977
2086,-0.005871409
2087,-0.011025414
2088,-0.028086042
2089,0.008236801
2090,-0.008917955
2091,-0.0015725492
2092,-0.006131289
2093,-0.012657543
2094,-0.0010176682
2095,0.01168053
2096,-0.0042742025
2097,-0.019985765
2098,-0.015640482
2099,-0.044747293
2100,-0.0038494887
2101,-0.007927883
2102,0.03504326
2103,-0.00013891785
2104,0.021266814
2105,-0.029047968
2106,0.021248447
2107,-0.013569596
2108,0.0014506546
2109,-0.0066209855
2110,0.0005443761
2111,-0.00327938
2112,-0.016045839
2113,0.019837664
2114,-0.007493912
2115,-0.030942714
2116,0.010935092
2117,-0.0048356084
2118,0.001298113
2119,-0.008298148
2120,-0.0020042316
2121,-0.045385674
2122,-0.0063264566
2123,0.007933706
2124,-0.030322952
2125,-0.02866285
2126,-0.023030674
2127,-0.011226747
2128,-0.010287009
2129,0.0031265018
2130,-0.015824586
2131,-0.011123853
2132,0.015114836
2133,0.039262906
2134,-0.0057070754
2135,-0.021177627
2136,0.0055109365
2137,-0.022988368
2138,-0.0017488757
2139,-0.00010928279
2140,-0.0034710306
2141,-0.008765241
2142,0.035254776
2143,0.017599495
2144,-0.021555474
2145,-0.018846318
2146,0.002182482
2147,-0.01146155
2148,-0.0047221705
2149,0.0021187903
2150,0.02804307
2151,0.028420182
2152,-0.013203336
2153,0.018606845
2154,-0.031246074
2155,0.020439144
2156,-0.007092499
2157,0.029037606
2158,-0.010161768
2159,0.046698373
2160,-0.037546847
2161,-0.0040211137
2162,-0.012337298
2163,0.033254594
2164,-0.025979808
2165,-0.034638017
2166,-0.014032035
2167,-0.018296901
2168,-0.0038436183
2169,-0.010143454
2170,7.440862e-05
2171,0.0014230177
2172,0.02399312
2173,-0.03952582
2174,-0.024374658
2175,-0.0088243745
2176,-0.0013700018
2177,0.005177711
2178,-0.027498292
2179,0.0022622435
2180,0.004319766
2181,-0.0047091483
2182,0.001075301
2183,-0.012244168
2184,-0.043420333
2185,-0.004327721
2186,0.009129707
2187,0.029051876
2188,0.016348535
2189,0.004686295
2190,-0.008277654
2191,0.011831248
2192,-0.019969834
2193,-0.013450934
2194,-0.010693761
2195,-0.003735609
2196,-0.03154224
2197,0.024415124
2198,0.042216785
2199,-0.015682857
2200,-0.011707803
2201,0.013709565
2202,-0.016864963
2203,-0.004690189
2204,0.0027804403
2205,-0.016705872
2206,-0.0155020375
2207,-0.021343904
2208,-0.026908806
2209,-0.017904136
2210,-0.00905344
2211,-0.026203752
2212,0.0077634994
2213,-0.0074255588
2214,-0.0098059485
2215,0.04179543
2216,0.0021818336
2217,0.023722516
2218,-0.0039056193
2219,-0.04492749
2220,0.02318001
2221,0.01671957
2222,0.004228809
2223,0.006136041
2224,-0.012274468
2225,-0.0110739255
2226,-0.008364034
2227,-0.0037639465
2228,-0.008024757
2229,0.016757293
2230,-0.015729288
2231,-0.021598717
2232,-0.015327718
2233,0.011636759
2234,-0.013909628
2235,-0.0077946144
2236,-0.005852719
2237,-0.00140969
2238,-0.015420866
2239,-0.017420525
2240,-0.0067191245
2241,-0.010976571
2242,-0.016654959
2243,0.010827238
2244,0.033268336
2245,0.024283264
2246,0.00022619312
2247,-0.028265787
2248,0.027269408
2249,0.00419855
2250,-0.0066971127
2251,-0.013881293
2252,0.0044492777
2253,-0.009547157
2254,0.026019372
2255,-0.026561065
2256,0.021220138
2257,-0.0004375938
2258,-0.0004243119
2259,-0.004520529
2260,-0.0040423
2261,-0.033950604
2262,-0.0036349497
2263,-0.016193982
2264,-0.009819796
2265,0.020920789
2266,-0.017334376
2267,0.017328912
2268,-0.011694171
2269,-0.0024142421
2270,0.0025905047
2271,-0.009762375
2272,0.026783107
2273,-0.01429238
2274,-0.013722313
2275,0.032571994
2276,0.0196229
2277,-0.012408232
2278,-0.021629171
2279,-0.018410414
2280,-0.014161948
2281,-0.0044093477
2282,-0.0015807168
2283,-0.046497606
2284,-0.027349848
2285,-0.0051077036
2286,0.01127269
2287,-0.026478259
2288,-0.009591329
2289,0.04066026
2290,0.009780142
2291,-0.03108878
2292,0.01656588
2293,-0.006581653
2294,0.029034084
2295,0.025822498
2296,0.018284269
2297,0.0017297707
2298,0.004420373
2299,-0.015203242
2300,-0.018671596
2301,0.037211288
2302,0.00047732727
2303,-0.00580974
2304,-0.056487687
2305,-0.006111358
2306,-0.018928722
2307,-0.0039261067
2308,-0.041496504
2309,-0.007867847
2310,0.017730901
2311,-0.03943888
2312,-0.0012891402
2313,0.01317914
2314,0.04417158
2315,-0.009322138
2316,-0.03321444
2317,-0.0011713386
2318,-0.017996272
2319,0.015533938
2320,-0.02575373
2321,0.019129843
2322,0.0665984
2323,0.013764186
2324,-0.04118413
2325,0.00657527
2326,-0.013376564
2327,0.012835998
2328,0.024494959
2329,-0.023372639
2330,-0.0006747091
2331,0.007925682
2332,-0.025141133
2333,0.010376811
2334,0.014460194
2335,-0.001055662
2336,-0.025012236
2337,0.014098008
2338,-0.018480025
2339,-0.010275835
2340,-0.020189067
2341,0.0021368652
2342,0.049737226
2343,-0.029884811
2344,-0.0110428305
2345,-0.005664801
2346,-0.0023596066
2347,0.043153554
2348,-0.010550787
2349,-0.014817652
2350,-0.012411509
2351,-0.0057422747
2352,-0.008987297
2353,-0.010687333
2354,0.007415019
2355,-0.02413442
2356,-0.001873054
2357,-0.034532424
2358,0.009522064
2359,-0.0064365305
2360,0.032810714
2361,-0.02077747
2362,0.029545212
2363,0.005058089
2364,-0.050761692
2365,-0.10532038
2366,-0.024196986
2367,-0.00723144
2368,0.002500742
2369,0.11239775
2370,-0.016309598
2371,-0.0106912255
2372,-0.018827746
2373,-0.012937408
2374,0.011948907
2375,0.0055639455
2376,-0.012533803
2377,-0.014171432
2378,-0.008961753
2379,-0.02513631
2380,-0.026657483
2381,-0.08385046
2382,-0.011182003
2383,-0.0031314609
2384,-0.018551044
2385,0.0014952987
2386,-0.027896905
2387,0.014055473
2388,-0.001863153
2389,0.023569038
2390,-0.0075494843
2391,-0.015996614
2392,0.0029112438
2393,-0.019194478
2394,0.011137341
2395,-0.010544109
2396,-0.025218794
2397,0.0026499599
2398,-0.012951687
2399,-0.044662196
2400,-0.029777227
2401,0.011448732
2402,0.008198707
2403,-0.01789746
2404,-0.0007227447
2405,-0.004964889
2406,-0.013518612
2407,0.0021209337
2408,-0.025852019
2409,0.033347167
2410,-0.01495187
2411,-0.030216526
2412,0.042070065
2413,0.06476032
2414,-0.008313271
2415,-0.034900058
2416,-0.013606543
2417,-0.024775444
2418,-0.014959094
2419,-0.0036066556
2420,-0.0010449162
2421,-0.036730256
2422,-0.0205018
2423,-0.021691797
2424,-0.005111293
2425,-0.023024824
2426,-0.0030031374
2427,-0.007859779
2428,0.013990987
2429,-0.031127693
2430,-0.014773941
2431,-0.1341619
2432,-0.004272314
2433,0.0034797445
2434,-0.00845998
2435,-0.017897494
2436,-0.014884724
2437,-0.018697958
2438,0.008582976
2439,0.007663731
2440,-0.0045247423
2441,-0.011924266
2442,0.00780861
2443,0.025686163
2444,-0.02854749
2445,-0.0048180395
2446,-0.0016227582
2447,0.023063438
2448,-0.022721289
2449,-0.005975485
2450,0.004045356
2451,-0.015103378
2452,-0.021561163
2453,0.020537695
2454,-0.020502793
2455,-0.0071951584
2456,-0.0019161273
2457,-0.0004895829
2458,0.009401136
2459,-0.028757539
2460,0.0061549386
2461,-0.012296698
2462,-0.01415361
2463,-0.018525215
2464,-0.009463347
2465,-0.00225745
2466,0.0024875705
2467,-0.013447728
2468,0.014662486
2469,-0.00826434
2470,0.0030246475
2471,0.03442311
2472,-0.016461395
2473,0.023962848
2474,0.0030457773
2475,-0.022604974
2476,0.0012111627
2477,0.0073589967
2478,-0.010095763
2479,0.005898104
2480,-0.013616993
2481,-0.05246702
2482,-0.0023627293
2483,-0.064221635
2484,-0.031240432
2485,-0.013663189
2486,-0.0001307136
2487,-0.00070989353
2488,-0.013159425
2489,0.016809316
2490,-0.015682323
2491,-0.020327978
2492,-0.014974361
2493,-0.036112826
2494,-0.007470078
2495,0.013362783
2496,0.00085172814
2497,0.0090299845
2498,-0.009146032
2499,0.013635463
2500,-0.023588479
2501,0.010321055
2502,-0.0013677295
2503,-0.012138632
2504,-0.0023301544
2505,0.018426633
2506,-0.006409968
2507,-0.0070193713
2508,-0.0067932582
2509,-0.034298033
2510,-0.015394683
2511,-0.03082107
2512,0.001415465
2513,0.008092032
2514,-0.02531995
2515,-0.007239244
2516,-0.0056754863
2517,-0.024595615
2518,0.00055067963
2519,-0.030696012
2520,-0.035043612
2521,0.0047432864
2522,0.0002142254
2523,0.021795562
2524,-0.0056513236
2525,0.0014991437
2526,-0.0033532092
2527,-0.0030229776
2528,0.028774625
2529,0.0081517985
2530,-0.0047127674
2531,0.013442793
2532,-0.019643005
2533,-0.019967608
2534,-0.010291174
2535,-0.028404472
2536,-0.02993954
2537,0.00089097954
2538,-0.057654694
2539,-0.020137085
2540,-0.0064284503
2541,0.0013567903
2542,0.0073487335
2543,-0.012566008
2544,-0.06817939
2545,0.031122513
2546,0.0072446126
2547,-0.0070187203
2548,-0.0021848292
2549,-0.037122022
2550,0.024708232
2551,-0.015155169
2552,0.00039131433
2553,0.01719984
2554,0.0017548514
2555,-0.006799758
2556,-0.005945206
2557,0.03850379
2558,0.010221378
2559,-0.035233922
2560,0.010974633
2561,-9.774244e-05
2562,-0.015384302
2563,0.20439602
2564,-0.055858146
2565,0.032116983
2566,-0.00415287
2567,0.00061282585
2568,-0.011069626
2569,0.008398105
2570,-0.012532243
2571,-0.014273684
2572,-0.07750246
2573,-0.007268111
2574,0.04004552
2575,0.0072843726
2576,-0.006671162
2577,-0.008411917
2578,-0.0027795518
2579,0.0033484655
2580,-0.0054643126
2581,-0.0667267
2582,-0.004715067
2583,0.017507313
2584,0.018535016
2585,-0.019588262
2586,0.05092191
2587,0.1364171
2588,-0.027692463
2589,-0.00931735
2590,-0.005866088
2591,0.15773833
2592,-0.013703664
2593,0.08037665
2594,0.00092679646
2595,-0.015755627
2596,-0.047155704
2597,-0.011555027
2598,0.018907186
2599,0.0044637495
2600,0.04326863
2601,-0.088465
2602,0.0054183113
2603,0.0048254747
2604,-0.007171954
2605,-0.0400221
2606,0.008945828
2607,0.11067005
2608,0.0012070828
2609,0.090245545
2610,0.0046116086
2611,0.18199769
2612,0.19300058
2613,-0.09382202
2614,0.02282217
2615,-0.0026463943
2616,-0.0032881973
2617,0.12329293
2618,0.013914428
2619,-0.005120978
2620,-0.046969637
2621,-0.013888293
2622,0.0013566648
2623,-0.009056433
2624,-0.0143893175
2625,0.016909726
2626,-0.0048456416
2627,-0.023720447
2628,-0.034490023
2629,-0.059457883
2630,-0.0050812233
2631,-0.031146923
2632,-0.05856815
2633,0.008111363
2634,0.14360394
2635,-0.019716023
2636,-0.031986237
2637,0.03101109
2638,-0.050331894
2639,0.18070336
2640,-0.07355632
2641,-0.006765071
2642,-0.06660371
2643,0.15239349
2644,0.092457406
2645,0.00031956556
2646,-0.020040266
2647,-0.009492027
2648,0.2010651
2649,-0.037358724
2650,-0.010995998
2651,-0.013315452
2652,-0.048982363
2653,0.06878398
2654,0.0035277829
2655,-0.01094434
2656,0.027437128
2657,-0.03586402
2658,0.064147614
2659,-0.04001948
2660,-0.084650256
2661,0.07725129
2662,-0.017034803
2663,-0.0051782597
2664,0.1251429
2665,0.007265746
2666,-0.037326492
2667,-0.01859778
2668,-0.01745199
2669,0.017743465
2670,-0.06887401
2671,-0.017596276
2672,0.15930471
2673,-0.005365208
2674,-0.11428191
2675,-0.012651018
2676,-0.044436976
2677,0.028154235
2678,-0.052147336
2679,-0.058976654
2680,-0.025498344
2681,-0.061318394
2682,-0.013210058
2683,-0.0066202404
2684,-0.004993664
2685,-0.008466596
2686,-0.010466816
2687,-0.03373116
2688,-0.023408482
2689,-0.010743606
2690,0.017533008
2691,-0.05054914
2692,-0.020950327
2693,-0.035731304
2694,0.010045956
2695,0.01635473
2696,-0.0046830843
2697,0.00641175
2698,0.009114679
2699,-0.018026112
2700,-0.05144448
2701,-0.013775581
2702,-0.024489848
2703,-0.015686525
2704,0.0033760853
2705,-0.00080779614
2706,0.02176901
2707,-0.0036110168
2708,-0.016905664
2709,-0.025165832
2710,-0.021707121
2711,-0.04449961
2712,-0.04667499
2713,-0.034670413
2714,-0.031580962
2715,0.010019329
2716,-0.033279143
2717,0.013822849
2718,-0.0009345228
2719,-0.02951622
2720,-0.021467792
2721,-4.0018742e-05
2722,-0.019969808
2723,-0.017920904
2724,-0.011730862
2725,0.011181633
2726,-0.029191833
2727,0.03245078
2728,-0.072712414
2729,-0.020203652
2730,-0.032260142
2731,0.018644799
2732,-0.009376267
2733,-0.02642223
2734,-0.014339305
2735,0.020649374
2736,-0.0107386615
2737,-0.00049553957
2738,-0.0074178497
2739,-0.043419626
2740,-0.0024353608
2741,-0.006235253
2742,-0.008965306
2743,-0.0008762665
2744,-0.008156955
2745,0.025356626
2746,-0.010993761
2747,0.0028685748
2748,-0.020189727
2749,-0.0372546
2750,-0.013080776
2751,-0.0065165493
2752,0.0050311945
2753,-0.0062768986
2754,-0.012911774
2755,-0.017693415
2756,-0.06802137
2757,-0.022828666
2758,-0.020561239
2759,0.016105112
2760,-0.02850077
2761,-0.017115355
2762,-0.006901895
2763,0.004430037
2764,0.005682872
2765,-0.008471242
2766,-0.0122012
2767,-0.024036484
2768,-0.0024838967
2769,-0.020444863
2770,-0.024968212
2771,-0.0020709932
2772,0.0001677536
2773,-0.0013953053
2774,0.007875298
2775,-0.041046485
2776,-0.0008002887
2777,-0.046042196
2778,-0.0054631266
2779,0.015114242
2780,-0.023801884
2781,-0.011924426
2782,-0.0051676882
2783,0.023611996
2784,-0.027356988
2785,-0.0082481075
2786,0.011623618
2787,-0.038823556
2788,-0.0023054294
2789,-0.024919095
2790,0.010008956
2791,-0.009438688
2792,-0.002996541
2793,0.0048279623
2794,0.031303316
2795,-0.022201382
2796,-0.010456715
2797,-0.008289171
2798,-0.044311512
2799,0.009300517
2800,-0.027260058
2801,0.02853541
2802,-0.018749287
2803,0.0038537537
2804,-0.03471449
2805,-0.01174352
2806,-0.024728548
2807,-0.012510139
2808,-0.03248735
2809,-0.019948158
2810,0.0020371228
2811,0.0071431817
2812,0.0124312015
2813,-0.029605303
2814,-0.026874917
2815,-0.054243296
2816,0.035172135
2817,-0.000919116
2818,0.037149888
2819,-0.049869787
2820,0.016559899
2821,0.032075636
2822,0.011672522
2823,0.019622575
2824,0.024594877
2825,-0.017816197
2826,0.00783205
2827,0.010163031
2828,0.0028392978
2829,-0.00961655
2830,0.0026182039
2831,0.018297223
2832,0.00013654435
2833,0.009150457
2834,-0.0044502984
2835,-0.012122064
2836,0.018693661
2837,0.028305562
2838,0.032033384
2839,-0.005018504
2840,0.02163974
2841,0.013426592
2842,0.012364513
2843,-0.007675997
2844,0.0031599023
2845,-0.004483832
2846,0.0014834021
2847,-0.021159496
2848,-0.026560653
2849,-0.009804256
2850,-0.030627234
2851,-0.023723753
2852,0.02713293
2853,-0.0086475015
2854,-0.005250552
2855,0.0248359
2856,0.008856017
2857,0.028575454
2858,0.04125849
2859,0.010383675
2860,0.031858217
2861,0.037326537
2862,-0.00396868
2863,-0.028295612
2864,-0.0034618543
2865,-0.042530175
2866,-0.0018578148
2867,-0.023882654
2868,7.3739066e-05
2869,0.014017936
2870,-0.0068370546
2871,0.015279506
2872,-0.00083318667
2873,0.006054366
2874,-0.013011196
2875,-0.011102054
2876,-0.03873345
2877,-0.0008245443
2878,0.04323345
2879,-0.0072088772
2880,-0.002318991
2881,0.002357334
2882,-0.019294906
2883,0.034576524
2884,0.0005578373
2885,0.020078162
2886,0.046315666
2887,-0.016231133
2888,0.049821325
2889,0.018123081
2890,-0.03902311
2891,0.027574904
2892,-0.0018141702
2893,-0.025237259
2894,0.009054805
2895,-0.082506016
2896,0.031557206
2897,-0.0029222155
2898,0.025806589
2899,-0.008611645
2900,-0.027670223
2901,0.003619577
2902,-0.015077642
2903,0.021228326
2904,-0.020458907
2905,0.031737506
2906,0.006651188
2907,0.016503157
2908,0.04181685
2909,-0.015151558
2910,-0.0076681566
2911,0.024101926
2912,0.038798988
2913,-0.019025918
2914,-0.014631115
2915,0.030804366
2916,0.03762346
2917,-0.046569757
2918,0.039547328
2919,-0.0027914592
2920,-0.04251594
2921,-0.013482117
2922,-0.015708635
2923,0.065039255
2924,0.023846226
2925,-0.0030112723
2926,0.041001633
2927,0.017408244
2928,-0.032523196
2929,0.0063741244
2930,0.01672798
2931,0.04232061
2932,0.015836494
2933,-0.011148762
2934,0.03879301
2935,0.027654989
2936,0.0143512385
2937,0.0026525552
2938,-0.016625
2939,-0.0114955595
2940,0.008751298
2941,0.029480053
2942,0.026672276
2943,0.003528284
2944,0.03893693
2945,-0.010055603
2946,-0.024190642
2947,-0.0035314173
2948,-0.014761248
2949,0.007858081
2950,0.013451719
2951,-0.013746638
2952,-0.0062094145
2953,-0.021309042
2954,0.02508611
2955,0.006593772
2956,-0.0059360606
2957,-0.0057661836
2958,-0.026390716
2959,0.024374165
2960,0.006157794
2961,-0.010275378
2962,-0.0009941694
2963,-0.0021516292
2964,-0.027991248
2965,-0.010965665
2966,0.019078359
2967,0.0060864324
2968,0.015405943
2969,0.023091944
2970,-0.02641361
2971,-0.01057834
2972,0.008724989
2973,-0.016500076
2974,-0.0035926502
2975,-0.021767538
2976,-0.018601576
2977,-2.0717547e-05
2978,-0.015773414
2979,-0.005123534
2980,-0.015808903
2981,-0.018022297
2982,0.016553747
2983,-0.038699724
2984,0.019687586
2985,0.0070194025
2986,0.0073272064
2987,-0.012977832
2988,-0.01610482
2989,0.010640749
2990,0.0010648975
2991,-0.026107928
2992,-0.015343327
2993,0.0019463536
2994,0.002758578
2995,0.02165337
2996,0.0024478103
2997,0.0077025658
2998,-0.01540883
2999,0.00419723
3000,-0.0020189236
3001,-0.00072895974
3002,-0.006745122
3003,-0.028958008
3004,-0.006505125
3005,-0.008862099
3006,-0.021077018
3007,-0.0022394294
3008,1.0258403e-05
3009,0.01527383
3010,-0.00056431146
3011,0.029032132
3012,-0.0328914
3013,-0.012305003
3014,-0.0013407052
3015,-0.017443739
3016,-0.026797043
3017,0.037849866
3018,-0.021832395
3019,-0.026847215
3020,0.0031201774
3021,-0.03307481
3022,-0.019353865
3023,-0.013317442
3024,-0.009605351
3025,0.00017859269
3026,-0.00016814398
3027,-0.005338201
3028,-0.010147508
3029,-0.023762874
3030,0.010059375
3031,0.0025446643
3032,-0.011881234
3033,0.024216846
3034,0.0003115956
3035,-0.007484031
3036,0.017445987
3037,-0.0038135345
3038,-0.03592185
3039,-0.023724264
3040,0.016396804
3041,-0.004678717
3042,-0.011438194
3043,0.012218787
3044,-0.0076034036
3045,0.013500019
3046,-0.013175681
3047,-0.0056806607
3048,-0.0017678096
3049,0.0028202925
3050,-0.0054429225
3051,-0.018261533
3052,-0.00474731
3053,0.004975656
3054,0.021340575
3055,-0.0027630255
3056,0.011463768
3057,-0.010178294
3058,0.01502652
3059,-0.0031522838
3060,-0.0064288
3061,0.033064708
3062,0.020330286
3063,-0.018522043
3064,-0.0069889617
3065,0.033458613
3066,-0.008347784
3067,0.009982673
3068,-0.01041799
3069,0.0125471465
3070,0.046147313
3071,0.0046534403
3072,-0.021336824
3073,-0.002930888
3074,-0.043727707
3075,-0.00010117059
3076,-0.024224104
3077,-0.012154414
3078,0.024399381
3079,-0.022650788
3080,-0.036040835
3081,-0.016446581
3082,-0.0065257126
3083,0.019404795
3084,-0.028399821
3085,-0.009344063
3086,-0.030901754
3087,-0.014026476
3088,-0.015063403
3089,-0.026646102
3090,0.0022178167
3091,-0.02435155
3092,-0.009587945
3093,0.032829575
3094,-0.02726406
3095,-0.021889417
3096,-0.027261525
3097,-0.028696273
3098,-0.030469755
3099,-0.022222713
3100,-0.010036555
3101,-0.0022871974
3102,-0.031329002
3103,-0.016485117
3104,0.0014289181
3105,-0.0032541577
3106,-0.0029850535
3107,-0.021050023
3108,0.012357527
3109,-0.012908295
3110,-0.018523745
3111,0.01806613
3112,-0.023565106
3113,0.006497928
3114,-0.016538613
3115,-0.005348198
3116,0.006983872
3117,-0.00067927886
3118,-0.01870348
3119,-0.034740675
3120,-0.020557983
3121,-0.018613622
3122,-0.014061965
3123,0.0017206992
3124,-0.057486497
3125,-0.012019469
3126,-0.023132447
3127,-0.014523223
3128,-0.017069684
3129,-0.049090277
3130,-0.0072175865
3131,-0.017775089
3132,-0.03318168
3133,-0.05836942
3134,-0.017508056
3135,0.016745083
3136,-0.011582818
3137,-0.00785002
3138,-0.011596895
3139,0.012081774
3140,-0.022805644
3141,0.012402162
3142,-0.03556636
3143,-0.022752311
3144,0.004961804
3145,-0.0012555356
3146,-0.017626278
3147,-0.05696703
3148,-0.005143905
3149,-0.009232455
3150,0.004307835
3151,0.021213451
3152,0.003902734
3153,0.00021907847
3154,-0.0052942694
3155,-0.0049156663
3156,0.0030394974
3157,-0.013369029
3158,-0.003560156
3159,-0.051688306
3160,-0.031728987
3161,-0.025255464
3162,0.010591525
3163,-0.008350303
3164,-0.01811951
3165,-0.00527853
3166,-0.01684139
3167,-0.054724462
3168,0.046602484
3169,-0.014544499
3170,0.0004662587
3171,0.028271265
3172,-0.01692577
3173,-0.00020605235
3174,-0.03920689
3175,-0.03811408
3176,0.0031880464
3177,-0.0022030286
3178,-0.03514679
3179,-0.0795362
3180,-0.061345145
3181,-0.018124875
3182,0.022481736
3183,-0.02574435
3184,-0.0027087764
3185,0.043511435
3186,-0.0056086243
3187,-0.04467363
3188,-0.020521564
3189,0.005657271
3190,0.012428533
3191,-0.0038019673
3192,0.016486743
3193,-0.009432118
3194,0.014571383
3195,-0.0044870353
3196,-0.027484406
3197,0.018148556
3198,0.0025835286
3199,-0.029465389
3200,-0.015275212
3201,0.008703862
3202,-0.08383664
3203,0.008677181
3204,-0.006538085
3205,-0.006511405
3206,-0.003666621
3207,-0.05906503
3208,-0.06366206
3209,-0.007927278
3210,-0.029594105
3211,0.014183577
3212,-0.013149746
3213,0.0027691326
3214,0.0013534526
3215,-0.01777522
3216,-0.024151394
3217,0.00075288065
3218,-0.0009422818
3219,-0.007318318
3220,-0.023491375
3221,0.003448423
3222,0.004516178
3223,-0.0011824609
3224,-0.026871985
3225,-0.017548338
3226,0.008995237
3227,0.015674006
3228,0.021914368
3229,-0.0029156622
3230,-0.01567553
3231,0.033507474
3232,-0.012855093
3233,0.02768506
3234,0.0067726034
3235,-0.011546617
3236,0.026472617
3237,0.007159609
3238,-0.021574369
3239,-0.013402183
3240,3.7804268e-05
3241,0.01825385
3242,-0.0042884666
3243,-0.042166535
3244,-0.018452771
3245,-0.01663701
3246,7.001755e-05
3247,-0.0051109195
3248,-0.008585233
3249,0.01842368
3250,0.0010381427
3251,-0.008248671
3252,0.019484343
3253,-0.009542636
3254,-0.026037639
3255,0.0023862643
3256,-0.014297471
3257,-0.038277555
3258,-0.009023968
3259,0.008330559
3260,-0.019144729
3261,-0.039331783
3262,-0.04372853
3263,0.007830512
3264,0.010866816
3265,-0.033419788
3266,0.0014267925
3267,0.0010847702
3268,-0.017913174
3269,-0.008102195
3270,-0.049834937
3271,-0.025231058
3272,-0.0020684632
3273,0.019567082
3274,-0.034704015
3275,-0.06827549
3276,0.004171822
3277,0.024016263
3278,0.0027342674
3279,0.0029581413
3280,0.012724949
3281,-0.013869408
3282,-0.005901428
3283,0.021576308
3284,0.038420666
3285,-0.011077002
3286,-0.013108254
3287,-0.018061627
3288,0.01986602
3289,-0.006231675
3290,0.0046874247
3291,-0.0612686
3292,-0.016958967
3293,0.0055802767
3294,-0.021097796
3295,-0.09054524
3296,0.017016856
3297,-0.0067295106
3298,0.03604461
3299,0.0017187042
3300,-4.399466e-05
3301,0.036866173
3302,-0.04052935
3303,0.009681702
3304,0.043123182
3305,0.0038947188
3306,-0.026449695
3307,-0.08313317
3308,-0.075307734
3309,-0.056187227
3310,-0.00023846986
3311,-0.052503422
3312,-0.0063833105
3313,-0.019086177
3314,-9.8291595e-05
3315,-0.04865291
3316,0.0054480657
3317,-0.005819608
3318,0.022307046
3319,-0.009896153
3320,0.007488335
3321,-0.0048428136
3322,-0.0074616293
3323,-0.013395837
3324,-0.022688944
3325,0.012949388
3326,-0.016777795
3327,-0.039070938
3328,-0.034111686
3329,0.013258025
3330,0.07543895
3331,-0.048043054
3332,-0.01295232
3333,-0.040966183
3334,0.04117412
3335,0.08404898
3336,0.070597894
3337,0.04619528
3338,0.051556252
3339,0.0036586
3340,-0.018426051
3341,0.0027348904
3342,0.031302005
3343,0.02074684
3344,-0.00052883185
3345,0.076314226
3346,0.06394262
3347,0.084367536
3348,0.08835884
3349,-0.010550773
3350,-0.0070888554
3351,-0.04889083
3352,-0.029342523
3353,0.028729348
3354,0.03628426
3355,-0.075525284
3356,0.005926093
3357,0.009633108
3358,0.081330195
3359,-0.025990171
3360,0.00068207603
3361,-0.023525326
3362,0.000587943
3363,-0.021172209
3364,-0.016806176
3365,-0.013371467
3366,-0.012336277
3367,0.06173937
3368,-0.07452516
3369,0.010103346
3370,0.043251052
3371,0.07859594
3372,-0.023401836
3373,-0.0037612107
3374,-0.008256853
3375,-0.018871123
3376,-0.0055933585
3377,-0.045914594
3378,0.012250955
3379,-0.039563246
3380,-0.0042231404
3381,-0.022717817
3382,0.05066489
3383,0.015333398
3384,0.05171384
3385,-0.06842346
3386,0.038826816
3387,-0.011414902
3388,-0.06790785
3389,-0.020056289
3390,0.062912166
3391,-0.023185574
3392,0.00090381503
3393,0.061606504
3394,0.0036955513
3395,0.017171757
3396,-0.0064372104
3397,-0.020896144
3398,0.072250366
3399,-0.024042774
3400,0.019676615
3401,-0.034890644
3402,-0.085227855
3403,0.07363169
3404,-0.014498225
3405,-0.040989652
3406,-0.0073648514
3407,-0.034757525
3408,-0.016848844
3409,0.0066355565
3410,-0.012733495
3411,0.007484086
3412,0.007705004
3413,0.09262701
3414,0.008719205
3415,-0.021892374
3416,-0.039622087
3417,-0.010068088
3418,0.00083836075
3419,0.078961186
3420,0.015424163
3421,-0.0011902864
3422,0.089074604
3423,0.07791617
3424,0.01709415
3425,-0.0050522108
3426,-0.026172552
3427,-0.008540313
3428,-0.016462326
3429,-0.009792758
3430,0.09622638
3431,0.06192925
3432,-0.02502874
3433,0.032609116
3434,-0.0036419898
3435,0.08745632
3436,0.056118265
3437,0.07971327
3438,0.007480245
3439,0.09954922
3440,-0.052978855
3441,0.055536173
3442,0.0061376123
3443,0.11673858
3444,0.0026951265
3445,-0.00019836923
3446,-0.00780683
3447,-0.006839091
3448,-0.008854755
3449,-0.009146568
3450,-0.0071086776
3451,0.000418169
3452,0.075560026
3453,0.01530616
3454,0.007755922
3455,-0.046781562
3456,0.0070405058
3457,-0.010441612
3458,-0.030961568
3459,0.06478888
3460,0.006444405
3461,0.0036860004
3462,-0.034817897
3463,-0.0029438303
3464,-0.036741156
3465,-0.007878159
3466,-0.0209003
3467,-0.07258476
3468,-0.042191837
3469,-0.007931888
3470,-0.02312915
3471,-0.06083421
3472,-0.014976066
3473,0.002799458
3474,0.009889621
3475,-0.006679195
3476,-0.010774883
3477,-0.05764485
3478,-0.017051063
3479,-0.0499117
3480,-0.0044981623
3481,-0.10152456
3482,-0.035785846
3483,0.012128158
3484,-0.008333433
3485,-0.0035214145
3486,-0.0091637615
3487,0.028247824
3488,-0.024973532
3489,0.014314893
3490,-0.044977553
3491,-0.003135215
3492,-0.06328117
3493,0.0024629913
3494,-0.030266851
3495,-0.070955426
3496,0.036604013
3497,-0.077162504
3498,-0.08223894
3499,-0.030519858
3500,-0.047618423
3501,-0.06996087
3502,-0.016982434
3503,0.036678527
3504,-0.0062622866
3505,0.021159187
3506,-0.02006189
3507,0.038018823
3508,0.011499606
3509,-0.05015343
3510,-0.010612404
3511,-0.010504432
3512,0.010761792
3513,0.04479109
3514,-0.002293712
3515,-0.025555566
3516,0.00050451944
3517,-0.016455669
3518,-0.074726805
3519,-0.0041719875
3520,-0.0060505522
3521,-0.02012915
3522,-3.5802834e-05
3523,-0.1058153
3524,-0.023490487
3525,-0.03265675
3526,-0.09618458
3527,0.016446209
3528,-0.024986856
3529,-0.10325366
3530,0.08049727
3531,-0.03684205
3532,-0.01014325
3533,-0.012019339
3534,-0.015863037
3535,0.039426003
3536,-0.040642478
3537,-0.0030846093
3538,-0.024376635
3539,0.019680882
3540,0.020185392
3541,0.007310614
3542,0.0019667423
3543,0.021376297
3544,0.021100363
3545,-0.09330421
3546,0.009396097
3547,-0.04263099
3548,-0.118704595
3549,-0.0006935964
3550,-0.0058904896
3551,-0.0039518774
3552,-0.107637614
3553,0.007815669
3554,-0.008578666
3555,-0.06716494
3556,-0.0049878317
3557,-0.0023407987
3558,-0.008636221
3559,-0.004280239
3560,0.016274361
3561,0.014753682
3562,-0.036316074
3563,-0.065929696
3564,-0.033395663
3565,-0.018647084
3566,-0.04118497
3567,-0.013971587
3568,0.040252697
3569,-0.04595833
3570,-0.06390105
3571,-0.030342305
3572,-0.050297085
3573,-0.008927864
3574,-0.0717648
3575,-0.029521279
3576,-0.0320943
3577,-0.086852334
3578,0.00650217
3579,-0.0051610167
3580,-0.0014820416
3581,-0.104151726
3582,-0.12499939
3583,-0.0144325
3584,0.009438573
3585,0.005537784
3586,-0.022827268
3587,-0.017584197
3588,0.026088228
3589,-0.008728711
3590,-0.009796899
3591,-0.019250471
3592,-0.026527567
3593,-0.02728598
3594,-0.012897736
3595,0.027793294
3596,0.00016753876
3597,-0.009507401
3598,-0.0048452504
3599,0.0010466109
3600,0.004199551
3601,-0.01029155
3602,-0.027524397
3603,-0.0015563256
3604,-0.0075804396
3605,0.030122694
3606,0.034227487
3607,-0.014326345
3608,-0.00607331
3609,0.0029270255
3610,-0.011408421
3611,-0.05081557
3612,0.01126819
3613,0.0011088231
3614,-0.000108792476
3615,-0.032424454
3616,-0.035698265
3617,-0.038044352
3618,0.01488936
3619,-0.017894883
3620,0.03453655
3621,-3.7813603e-05
3622,-0.016174586
3623,0.011871807
3624,0.029627372
3625,0.018866267
3626,0.0056330273
3627,-0.045601618
3628,0.007850711
3629,0.02261225
3630,0.00085093855
3631,-0.025246402
3632,0.0051975413
3633,-0.011423946
3634,0.002142638
3635,-0.015365213
3636,-0.058577355
3637,0.025148328
3638,-0.014735833
3639,0.0017816416
3640,-0.011178188
3641,-0.015564325
3642,-0.02201155
3643,-0.0020756037
3644,0.018724581
3645,0.025035428
3646,-0.012667671
3647,-0.0106973145
3648,-0.0036743036
3649,0.004756982
3650,-0.002210513
3651,0.015604658
3652,-0.01677241
3653,0.04326239
3654,-0.016199319
3655,-0.011746886
3656,0.03968191
3657,0.013762695
3658,-0.022489212
3659,-0.01696177
3660,0.012912749
3661,-0.04540462
3662,0.0242479
3663,-0.0160806
3664,0.03337386
3665,0.008097234
3666,0.00090172933
3667,-0.06086709
3668,-0.014338488
3669,-0.0067719733
3670,-0.011596667
3671,-0.0037757782
3672,-0.026911763
3673,0.027403552
3674,-0.007394295
3675,-0.0015380755
3676,0.010089915
3677,-0.023827938
3678,-0.025133178
3679,-0.025710916
3680,0.03875155
3681,-0.021596301
3682,-0.010931969
3683,0.038696047
3684,0.0054755374
3685,0.009598006
3686,-0.02174653
3687,-0.014230855
3688,-0.0076146866
3689,0.001853754
3690,-0.025397133
3691,-0.035298076
3692,-0.045644354
3693,-0.02299274
3694,0.014513868
3695,-0.017933154
3696,-0.0009573255
3697,0.01492817
3698,0.02176076
3699,-0.012945571
3700,0.006966216
3701,-0.0028459532
3702,0.019846343
3703,0.018442182
3704,0.025985554
3705,-0.0029924575
3706,-0.002020515
3707,-0.0004750408
3708,-0.031650532
3709,0.021071644
3710,0.0027757627
3711,-0.005841367
3712,0.028373884
3713,-0.0032745902
3714,-0.004556459
3715,-0.021834234
3716,-0.010459839
3717,0.0013088369
3718,0.016372645
3719,-0.019000918
3720,-0.010036676
3721,-0.011955
3722,-0.026405925
3723,0.0073771905
3724,0.0100863585
3725,-0.009349467
3726,-0.031815022
3727,0.021312341
3728,-0.015310646
3729,-0.009687444
3730,-0.009755915
3731,0.0020068444
3732,0.00069568865
3733,0.015665762
3734,0.019654129
3735,-0.019985849
3736,0.000627082
3737,0.010127785
3738,-0.020886226
3739,0.0041718013
3740,0.010677889
3741,-0.00039605325
3742,-0.013406178
3743,-0.00024504954
3744,0.0033839885
3745,0.012190401
3746,-0.003508553
3747,-0.00391958
3748,0.024279732
3749,-0.010452048
3750,-0.016454712
3751,0.017924149
3752,-0.002003186
3753,-0.0024149541
3754,0.026643753
3755,-0.035974126
3756,-0.017710807
3757,0.007586521
3758,-0.010703299
3759,-0.009217933
3760,0.0099255
3761,0.015830183
3762,0.001434926
3763,-0.010228909
3764,-0.0013175993
3765,-0.009184544
3766,-0.015591132
3767,-0.00040469706
3768,-0.016257634
3769,-0.037321556
3770,0.008140141
3771,-0.003534786
3772,0.0022484884
3773,-0.015820272
3774,0.027561441
3775,-0.0064644883
3776,-0.010901855
3777,-0.0027883952
3778,-0.02440456
3779,0.0287863
3780,-0.030641628
3781,0.0029729218
3782,0.01319911
3783,0.015290905
3784,0.0156164365
3785,0.03899477
3786,-0.06265562
3787,-0.0049038203
3788,-0.0046149455
3789,0.002557467
3790,0.0023616687
3791,0.011363916
3792,0.01508025
3793,-0.013638078
3794,0.0048298175
3795,0.0023174444
3796,0.0064782547
3797,-0.020088999
3798,0.010340554
3799,-0.006915252
3800,0.00022901561
3801,0.0248971
3802,-0.0159537
3803,0.028998928
3804,0.02886104
3805,0.0014867831
3806,-0.009815807
3807,-0.019392785
3808,0.053720687
3809,-0.019640533
3810,0.009921553
3811,0.041423585
3812,-0.006956226
3813,-0.0129041625
3814,-0.023676686
3815,-0.012820168
3816,0.0030667468
3817,-0.0006045152
3818,-0.025919273
3819,-0.0023495173
3820,-0.041892618
3821,-0.015675785
3822,0.036333032
3823,0.004172743
3824,-0.0051751193
3825,0.027904108
3826,0.015296464
3827,0.0063466057
3828,0.015569306
3829,0.011538488
3830,0.04128579
3831,-0.022784717
3832,-0.009880071
3833,0.026298732
3834,-0.015354004
3835,0.005798638
3836,-0.007135121
3837,0.037274785
3838,0.04743049
3839,-0.0031823844
3840,-0.036941886
3841,-0.016917303
3842,0.0036456515
3843,0.08277162
3844,-0.032051586
3845,0.0029555808
3846,0.019144697
3847,0.01921417
3848,0.018226806
3849,0.060107958
3850,0.030906033
3851,-0.040660866
3852,-0.10201078
3853,-0.009297946
3854,0.1022674
3855,-0.06233618
3856,0.008683149
3857,0.05679153
3858,0.012374012
3859,0.10050534
3860,0.042904835
3861,-0.030001903
3862,-0.013438195
3863,0.093657
3864,0.03866133
3865,-0.16078822
3866,0.08351577
3867,0.08837902
3868,-0.07988065
3869,-0.0022858346
3870,0.05476308
3871,0.06391576
3872,0.01413771
3873,0.029002443
3874,0.0041255024
3875,-0.016933402
3876,-0.043827802
3877,0.0072982325
3878,-0.022517346
3879,-0.09379645
3880,0.017219033
3881,-0.067087725
3882,-0.06790797
3883,0.045084707
3884,-0.016629983
3885,-0.108789206
3886,0.0012604166
3887,0.03942143
3888,0.0059348806
3889,0.047432095
3890,-0.007722808
3891,0.075752124
3892,0.08846084
3893,-0.07877097
3894,0.061963785
3895,-0.0004916468
3896,0.05371453
3897,0.061741028
3898,0.052174333
3899,-0.013231597
3900,-0.024647528
3901,-0.028554637
3902,-0.06891551
3903,-0.003502708
3904,-0.0035186927
3905,0.032182474
3906,-0.00015996191
3907,-0.124609746
3908,-0.01620141
3909,-0.013611354
3910,-0.046779502
3911,-0.0037826637
3912,-0.026482565
3913,-0.13854781
3914,0.069707066
3915,-0.0041900976
3916,-0.03837655
3917,0.06588206
3918,0.019606926
3919,0.0746986
3920,-0.01566057
3921,-0.0095444415
3922,-0.004655608
3923,0.07227864
3924,0.043357052
3925,0.08319464
3926,0.004650926
3927,0.03691298
3928,0.08020083
3929,-0.14159578
3930,-0.0076202755
3931,-0.045394003
3932,-0.1652183
3933,0.038506232
3934,0.03265225
3935,0.009325501
3936,-0.10196127
3937,-0.0027441075
3938,0.022165576
3939,-0.081134886
3940,-0.0101768
3941,0.0098566385
3942,0.037661806
3943,0.06158957
3944,0.04760595
3945,0.044595376
3946,-0.019472878
3947,-0.019315906
3948,-0.018078128
3949,0.018476278
3950,-0.019442149
3951,0.035138447
3952,0.074718714
3953,-0.06650835
3954,-0.084790275
3955,0.016861688
3956,-0.079605706
3957,0.003874902
3958,-0.03188239
3959,0.002497349
3960,-0.016935162
3961,-0.11364939
3962,-0.001963479
3963,-0.0061144372
3964,0.07059016
3965,-0.08517664
3966,-0.14260565
3967,-0.015401486
3968,0.0075904974
3969,-0.023652397
3970,0.059585538
3971,-0.003556407
3972,0.010522463
3973,-0.0016883363
3974,0.023505054
3975,0.030874891
3976,0.047988165
3977,-0.0134494575
3978,-0.01862905
3979,0.026044602
3980,0.0036785854
3981,-0.009037342
3982,0.0065723667
3983,0.002573628
3984,-0.0072675715
3985,0.010003049
3986,0.01720445
3987,-0.0026039996
3988,0.016883774
3989,0.038620763
3990,-0.016535405
3991,0.013300712
3992,0.024780221
3993,0.02327228
3994,-0.007392486
3995,-0.008817931
3996,0.009222477
3997,0.0021090158
3998,0.012255393
3999,-0.0330804
4000,-0.02084446
4001,-0.0001503205
4002,0.009191155
4003,-0.024331149
4004,0.029455727
4005,-0.013567989
4006,0.0222106
4007,0.060430013
4008,0.018910173
4009,0.03212396
4010,0.05713827
4011,-0.008844523
4012,0.0040314835
4013,0.012025461
4014,-0.01819616
4015,-0.025370123
4016,-0.01113293
4017,0.0012114824
4018,0.0038775194
4019,-0.027436696
4020,-0.0214188
4021,-0.00043648342
4022,0.005945997
4023,-0.006188791
4024,0.014652344
4025,-0.079266146
4026,0.009288883
4027,0.008493763
4028,0.02432677
4029,0.0083399685
4030,0.024418922
4031,0.009018054
4032,-0.023398599
4033,-0.0038518773
4034,-0.015397934
4035,0.016366977
4036,-0.0093917465
4037,0.004032195
4038,0.036604576
4039,-0.01516736
4040,0.019414725
4041,0.009919556
4042,-0.042548954
4043,0.054494865
4044,0.0032349068
4045,-0.018400103
4046,0.004292719
4047,0.002944365
4048,0.009087881
4049,0.00024516598
4050,0.00712264
4051,-0.036312632
4052,-0.0013178857
4053,-0.010624613
4054,-0.0025355658
4055,-0.06747452
4056,-0.023288667
4057,0.019748764
4058,0.0062580043
4059,0.04206126
4060,0.037748694
4061,-0.01714975
4062,0.0022059267
4063,0.05050848
4064,0.0472296
4065,0.0031766577
4066,-0.0097034285
4067,0.036922105
4068,-0.0065803216
4069,0.010029004
4070,0.055624936
4071,0.0017037938
4072,-0.004194351
4073,-0.0007858883
4074,-0.010879817
4075,0.056083083
4076,0.0031516533
4077,0.008169006
4078,0.038044762
4079,0.01616491
4080,-0.021384275
4081,0.07108933
4082,0.005540641
4083,0.075452596
4084,0.024488246
4085,-0.030118829
4086,0.009723759
4087,-0.013014109
4088,0.011560936
4089,0.01634351
4090,-0.01679531
4091,0.004202615
4092,0.01726881
4093,0.02774034
4094,0.048823096
4095,0.0010399199
4096,0.00564519
4097,-0.01414847
4098,-0.012595876
4099,-0.00063385244
4100,0.004113078
4101,-0.004191662
4102,-0.004376755
4103,-0.023403522
4104,-0.0028467937
4105,-0.004869627
4106,0.0054417723
4107,0.0288667
4108,-0.0001346754
4109,-0.0036313145
4110,-0.004811263
4111,0.012662548
4112,-0.011891623
4113,-0.0010960175
4114,-0.0018533213
4115,-0.020005414
4116,-0.01145985
4117,0.028312383
4118,0.022598736
4119,-0.0054718126
4120,0.0011663513
4121,0.012498811
4122,-0.007120846
4123,-0.064011045
4124,0.010587567
4125,-0.021622442
4126,-0.015443504
4127,-0.04999099
4128,0.01739382
4129,-0.029377466
4130,-0.044678017
4131,-0.0218429
4132,0.02761668
4133,0.00028333563
4134,0.002439239
4135,0.030638507
4136,-0.01508023
4137,0.020993069
4138,0.03365599
4139,-0.013231291
4140,0.0014641986
4141,0.02187427
4142,-0.010317746
4143,-0.03244565
4144,-0.01965166
4145,-0.016737275
4146,-0.0100662
4147,-0.013263534
4148,-0.07246357
4149,0.0039637657
4150,-0.013579239
4151,-0.010790291
4152,0.00265664
4153,-0.043510854
4154,0.0010639613
4155,0.016988434
4156,-0.020438537
4157,-0.016340548
4158,0.015127237
4159,-0.012258795
4160,0.007943065
4161,-0.016005516
4162,-0.0022896484
4163,0.022329343
4164,0.030057251
4165,0.027623083
4166,0.015191974
4167,-0.009362758
4168,0.044353046
4169,0.022886693
4170,-0.027371382
4171,-0.0016102825
4172,-0.008039746
4173,0.015868407
4174,0.014238211
4175,-0.014202937
4176,0.025152266
4177,-0.00030921213
4178,0.0069492236
4179,-0.037411228
4180,-0.00952056
4181,0.0068050246
4182,0.013254892
4183,-0.026462996
4184,-0.053994138
4185,0.0062240264
4186,-0.0063902205
4187,0.0038111089
4188,0.034166474
4189,-0.039411608
4190,-0.0072752032
4191,-0.009545903
4192,0.037748307
4193,-0.0054245023
4194,-0.004452643
4195,0.03152361
4196,0.024404159
4197,-0.0017847233
4198,-0.008599874
4199,0.00262633
4200,0.0018822637
4201,0.0011925919
4202,0.012413685
4203,-0.007885286
4204,-0.03840554
4205,-0.004857719
4206,0.028994858
4207,-0.019230468
4208,-0.020165654
4209,0.030157203
4210,0.014105746
4211,-0.007520921
4212,0.0342481
4213,0.008042204
4214,0.026069049
4215,0.012131267
4216,-0.006120966
4217,0.018099276
4218,-0.005312367
4219,0.013391909
4220,-0.010818767
4221,0.037045155
4222,0.02802302
4223,-0.01992776
4224,0.0017707634
4225,0.0027530163
4226,0.0232181
4227,-0.056665536
4228,0.041153565
4229,-0.0107674925
4230,0.009193955
4231,0.019401493
4232,0.031089704
4233,-0.009807233
4234,0.013421417
4235,0.028725771
4236,0.0322641
4237,-0.005347192
4238,0.0025382685
4239,0.03605838
4240,0.022610689
4241,0.018520689
4242,0.011891778
4243,0.019983785
4244,0.03932477
4245,0.0011063816
4246,-0.0010429323
4247,-0.010632938
4248,-0.008287935
4249,0.10114766
4250,-0.004558703
4251,-0.037753657
4252,0.011638819
4253,-0.013682826
4254,0.024830168
4255,-0.033302274
4256,-0.003241084
4257,-0.033032417
4258,-0.0040753055
4259,-0.001976079
4260,0.010445775
4261,-9.8867196e-05
4262,-0.010188828
4263,0.020340057
4264,-0.02390831
4265,0.027215889
4266,0.020472696
4267,0.012608375
4268,-0.02522247
4269,0.046503387
4270,0.002897604
4271,-0.052955072
4272,0.0048354333
4273,-0.035991337
4274,-0.00694631
4275,-0.08189908
4276,-0.050601274
4277,0.06755073
4278,0.015141053
4279,0.014814706
4280,0.0014643748
4281,-0.07835395
4282,-0.002974129
4283,0.010912994
4284,0.0068850657
4285,-0.026087739
4286,0.034734234
4287,0.027061582
4288,-0.02337578
4289,0.022099437
4290,-0.004249978
4291,0.078258105
4292,0.053558942
4293,0.028540382
4294,0.06846412
4295,-0.00053675286
4296,0.0040213433
4297,0.009879724
4298,-0.102836385
4299,0.01684245
4300,-0.027828244
4301,-0.03044742
4302,-0.026722351
4303,-0.057422686
4304,0.0017914013
4305,0.0016764633
4306,-0.006356094
4307,-0.036754116
4308,-0.041953836
4309,0.01010373
4310,-0.0023924713
4311,-0.015411362
4312,-0.03089876
4313,0.086009614
4314,-0.014757037
4315,0.0045569204
4316,0.04966669
4317,-0.039192308
4318,0.032546036
4319,0.032195292
4320,0.020362945
4321,-0.011994239
4322,-0.0339008
4323,0.01846935
4324,0.022599097
4325,-0.04137364
4326,0.02322225
4327,0.027419606
4328,-0.04099411
4329,0.0012264427
4330,0.010957262
4331,0.029092975
4332,0.018303605
4333,0.036459047
4334,0.018485913
4335,0.01886358
4336,-0.055746518
4337,0.006856504
4338,0.037906222
4339,0.0075293537
4340,0.043463953
4341,-0.014672994
4342,0.023147998
4343,0.03629647
4344,-0.013167916
4345,0.034690447
4346,-0.00268261
4347,-0.010116199
4348,0.017216427
4349,0.019476471
4350,0.039310142
4351,-0.0037481515
4352,-0.036801726
4353,-0.0173862
4354,0.054689907
4355,-0.034635235
4356,-0.06113105
4357,-0.017448688
4358,0.06369925
4359,0.04376096
4360,0.07426997
4361,0.0064842594
4362,0.043892328
4363,-0.008404956
4364,-0.06100053
4365,0.003961514
4366,-0.029501235
4367,0.0088574905
4368,0.006406263
4369,0.00012792702
4370,0.07066078
4371,0.033272695
4372,0.027341608
4373,-0.015749017
4374,-0.013078657
4375,-0.009234862
4376,0.020179112
4377,-0.036482308
4378,-0.01102585
4379,0.023126664
4380,-0.04435283
4381,-0.0033963965
4382,0.033927917
4383,-0.03853654
4384,-0.01766159
4385,-0.019376101
4386,-0.021456653
4387,-0.010958029
4388,-0.019331573
4389,-0.016501868
4390,0.012746785
4391,-0.009014224
4392,-0.039068427
4393,-0.031109042
4394,0.009919333
4395,0.032788973
4396,-0.041994832
4397,-0.020359822
4398,3.150816e-05
4399,0.017193832
4400,-0.012757863
4401,-0.009273672
4402,-0.0023640587
4403,-0.02888515
4404,-0.0056646066
4405,-0.02682017
4406,0.011882225
4407,-0.009873495
4408,0.011040734
4409,0.04363793
4410,0.013914399
4411,-0.05133721
4412,0.004029154
4413,-0.004933545
4414,-0.009855224
4415,-0.027066657
4416,-0.0053066947
4417,0.058773186
4418,0.0040659755
4419,-0.022280807
4420,-0.06476976
4421,-0.017445194
4422,0.02980698
4423,-0.023061544
4424,-0.007093137
4425,-0.025463508
4426,0.016299147
4427,0.03266176
4428,-0.027036607
4429,-0.058487296
4430,0.0005869287
4431,-0.015911145
4432,-0.015514263
4433,-0.0030447312
4434,-0.008846968
4435,-0.009091604
4436,-0.037679695
4437,0.04026274
4438,-0.0068265325
4439,0.004415494
4440,0.0013171918
4441,-0.04093992
4442,0.0017521824
4443,0.035813753
4444,-0.028663713
4445,-0.0075853285
4446,0.013259265
4447,0.0251435
4448,-0.035176136
4449,-0.0058125397
4450,-0.016147366
4451,-0.03754436
4452,0.0052465852
4453,-0.038510587
4454,0.034020253
4455,0.030572277
4456,-0.0040943706
4457,0.027859876
4458,-0.010164358
4459,0.032930724
4460,0.04514168
4461,0.03321723
4462,-0.028862927
4463,0.021390561
4464,-0.007192011
4465,-0.0013812778
4466,-0.038911495
4467,0.061009698
4468,-0.0308152
4469,0.015065592
4470,-0.026962845
4471,0.0052651823
4472,-0.03862451
4473,-0.038157605
4474,0.008302186
4475,-0.004282333
4476,0.022658112
4477,-0.027932271
4478,-0.06049732
4479,-0.0109631
4480,0.007633649
4481,0.009729403
4482,-0.03912047
4483,-0.043732204
4484,-0.021199528
4485,-0.019002166
4486,-0.002550032
4487,0.022759395
4488,-0.0026302869
4489,0.0010310063
4490,-0.0031149578
4491,-0.027952038
4492,-0.05992067
4493,0.0017036162
4494,0.041553907
4495,-0.029420828
4496,-0.012445174
4497,0.015563278
4498,0.021116551
4499,0.024411112
4500,0.012612796
4501,-0.045052476
4502,-0.012341134
4503,0.099924915
4504,-0.0032176073
4505,-0.055770725
4506,0.0382996
4507,-0.019951623
4508,0.0084552495
4509,-0.010340068
4510,0.01905419
4511,-0.03411754
4512,-0.003215258
4513,0.012499826
4514,-0.008656937
4515,0.005990543
4516,-0.028936522
4517,-0.0023807946
4518,-0.02617519
4519,-0.064785905
4520,-0.021157887
4521,-0.0050572073
4522,-0.03775024
4523,-0.011151273
4524,-0.013467107
4525,-0.030969052
4526,0.0020980202
4527,0.016446115
4528,-0.009757419
4529,-0.022351187
4530,-2.664617e-05
4531,-0.0424629
4532,-0.06408578
4533,-0.005594286
4534,0.011465937
4535,-0.014484557
4536,0.023062129
4537,-0.063269086
4538,0.032542102
4539,-0.03191184
4540,-0.013577049
4541,-0.042228445
4542,-0.063024275
4543,0.014171445
4544,0.0026072226
4545,0.017415589
4546,-0.0028007915
4547,-0.061009753
4548,0.004985742
4549,-0.010705592
4550,-0.061103538
4551,-0.012953754
4552,-0.035344597
4553,-0.027167978
4554,-0.018550545
4555,-0.021382473
4556,-0.020033265
4557,0.101749815
4558,0.010877102
4559,-0.011263556
4560,-0.0120147355
4561,-0.0065845056
4562,-0.028293094
4563,-0.018849233
4564,-0.03239463
4565,0.025223723
4566,0.0059577837
4567,0.0063873613
4568,-0.055273667
4569,-0.05851239
4570,0.008270219
4571,-0.038021304
4572,-0.092426494
4573,-0.011486706
4574,0.0047795833
4575,-0.0024817958
4576,-0.03445439
4577,-0.019042326
4578,0.010636574
4579,-0.053206507
4580,0.0007722069
4581,-0.05354463
4582,-0.010137162
4583,0.023826208
4584,-0.009639878
4585,-0.00022130783
4586,-0.012433725
4587,-0.033731174
4588,-0.038962547
4589,0.024387669
4590,-0.03336031
4591,0.01111356
4592,-0.008661833
4593,-0.05442264
4594,-0.035939123
4595,-0.0085409
4596,-0.02774082
4597,-0.01505457
4598,-0.016418332
4599,0.009335686
4600,-0.0074668936
4601,-0.021189623
4602,0.0009860954
4603,0.011155055
4604,0.023498489
4605,-0.03438961
4606,-0.0952126
4607,-0.01177396
4608,-0.03144935
4609,-0.008632398
4610,0.033492107
4611,0.029171614
4612,0.017470362
4613,-0.02005751
4614,0.04781492
4615,0.047459204
4616,0.04070099
4617,0.034606814
4618,0.06629088
4619,-0.0030760686
4620,-0.026854007
4621,-0.0037160031
4622,0.077964894
4623,0.0035610278
4624,-0.027273837
4625,0.06780241
4626,0.03267483
4627,0.083222106
4628,0.067668095
4629,0.011139273
4630,0.008175127
4631,0.048006456
4632,0.018638179
4633,-0.051597364
4634,0.054185316
4635,-4.047298e-05
4636,-0.019678885
4637,-0.0028047515
4638,0.05602767
4639,-0.014320088
4640,0.00041933544
4641,-0.010458437
4642,-0.013938722
4643,-0.0063941134
4644,0.001649203
4645,-0.0027870235
4646,-0.02779122
4647,0.005141576
4648,0.013414018
4649,-0.025610318
4650,-0.014748193
4651,0.028601835
4652,0.0061728056
4653,-0.026397692
4654,-0.008096552
4655,-0.003293256
4656,-0.005121832
4657,-0.0056135445
4658,-0.010399831
4659,-0.01084992
4660,-0.013983983
4661,0.02218036
4662,0.05961035
4663,-0.004222953
4664,0.05793048
4665,-0.040579792
4666,0.056076508
4667,-0.007893546
4668,-0.015956076
4669,-0.020614777
4670,-0.024820594
4671,-0.043583427
4672,0.00036104978
4673,0.043277048
4674,-0.011964494
4675,-0.027942408
4676,0.004834015
4677,0.02188599
4678,0.0045481883
4679,-0.025559226
4680,0.0060358453
4681,-0.08796692
4682,0.006704434
4683,0.029732179
4684,-0.021169234
4685,0.045773815
4686,0.021611664
4687,0.026098037
4688,0.013960944
4689,0.0036733989
4690,0.033714183
4691,-0.033442516
4692,0.011242173
4693,0.088766605
4694,-0.012625412
4695,0.007193643
4696,-0.00859461
4697,-0.040079013
4698,0.0072651356
4699,0.024618946
4700,-0.038956545
4701,-0.018306404
4702,0.08082705
4703,0.045465097
4704,-0.015509801
4705,-0.027643567
4706,-0.0049393103
4707,-0.013192284
4708,0.0417623
4709,0.011600662
4710,0.049820498
4711,0.07213414
4712,0.009051181
4713,0.053502943
4714,0.020055167
4715,0.0199707
4716,0.011986167
4717,0.033369742
4718,0.031277314
4719,0.06122049
4720,0.011491013
4721,0.008553323
4722,-0.015078609
4723,0.038179602
4724,-0.010907916
4725,-0.004902644
4726,0.008288017
4727,0.026092933
4728,0.004691917
4729,-0.040765826
4730,-0.01620381
4731,-0.014482297
4732,0.073714316
4733,-0.011878904
4734,-0.0529992
4735,-0.0149447005
4736,-0.032411817
4737,-0.00054513064
4738,-0.05238069
4739,-0.041999858
4740,-0.019934509
4741,0.037230954
4742,-0.025803875
4743,-0.0019328643
4744,-0.05228991
4745,0.019665873
4746,-0.025549257
4747,-0.122529015
4748,-0.10749582
4749,-0.014538347
4750,0.02205128
4751,-0.10413155
4752,0.019584075
4753,0.03315149
4754,0.0063811797
4755,0.023456475
4756,-0.008647308
4757,-0.10838698
4758,-0.033714097
4759,0.18976793
4760,0.13964237
4761,-0.16745764
4762,0.111233816
4763,-0.041405577
4764,-0.025445122
4765,0.013265659
4766,0.0034028802
4767,-0.030886194
4768,-0.0035159462
4769,-0.025933044
4770,0.0061492445
4771,-0.014677928
4772,-0.06997497
4773,-0.006154931
4774,-0.00060287945
4775,-0.06561921
4776,-0.027078062
4777,-0.12807618
4778,-0.053515963
4779,-0.018597811
4780,-0.007835715
4781,-0.13071293
4782,-0.020365302
4783,0.013419713
4784,-0.011212723
4785,-0.04964294
4786,-0.01157606
4787,-0.038446933
4788,-0.045570124
4789,-0.020570967
4790,0.028641462
4791,0.015036339
4792,0.031054588
4793,-0.0073183244
4794,0.022091096
4795,-0.017543329
4796,-0.014892727
4797,-0.0553778
4798,-0.13480857
4799,0.02164582
4800,-0.02013801
4801,-0.034311444
4802,0.0057995287
4803,-0.13915238
4804,-0.009105748
4805,-0.030843645
4806,-0.13572423
4807,-0.002099901
4808,-0.039001726
4809,-0.07111539
4810,-0.041544586
4811,-0.05976401
4812,-0.028155962
4813,0.0021681634
4814,-0.02395649
4815,-0.03115367
4816,-0.038218345
4817,-0.010058806
4818,-0.029768111
4819,-0.011389497
4820,-0.030239426
4821,0.017768746
4822,-0.0047996757
4823,-0.02083138
4824,-0.031731218
4825,-0.13102858
4826,-0.003218427
4827,-0.039545245
4828,-0.12142008
4829,-0.00833929
4830,0.009900493
4831,-0.03388063
4832,-0.1227372
4833,-0.0004363224
4834,-0.024813049
4835,-0.18226194
4836,0.011593547
4837,-0.028561557
4838,-0.023274632
4839,0.0076504597
4840,-0.028240833
4841,0.01293509
4842,-0.02803828
4843,-0.07285278
4844,-0.06374335
4845,0.016872494
4846,-0.079654194
4847,-0.0056656543
4848,-0.044625353
4849,-0.046947632
4850,-0.14399688
4851,-0.04544217
4852,-0.093045145
4853,-0.027727045
4854,-0.07970302
4855,0.025685165
4856,-0.030688265
4857,-0.13598944
4858,0.0067978515
4859,-0.010623494
4860,0.010060057
4861,-0.1647262
4862,-0.115540095
4863,-0.044346157
4864,0.045997687
4865,-0.01476014
4866,-0.09505706
4867,-0.06131002
4868,0.00354171
4869,0.012410646
4870,-0.056527402
4871,-0.0737141
4872,-0.0701853
4873,-0.026864385
4874,-0.05713944
4875,0.0075121326
4876,-0.014022643
4877,-0.0156054795
4878,0.0009332355
4879,-0.014778508
4880,0.0033257217
4881,-0.01508082
4882,-0.04264647
4883,-0.009640547
4884,-0.03295465
4885,0.021209415
4886,0.02371086
4887,0.021329708
4888,0.011941805
4889,-0.0049232733
4890,0.015511525
4891,-0.025137162
4892,0.007768616
4893,-0.0007734371
4894,-0.014410911
4895,-0.015473
4896,0.008738392
4897,-0.02915803
4898,0.017743608
4899,-0.010117139
4900,0.00050403137
4901,0.0027147247
4902,-0.012724256
4903,-0.021248357
4904,-0.013815733
4905,0.017599324
4906,-0.015117815
4907,-0.03831578
4908,0.0055014957
4909,0.019606896
4910,-0.007616335
4911,-0.0010335157
4912,0.012523381
4913,0.008152873
4914,-0.0047179037
4915,-0.005235146
4916,-0.0076489253
4917,-0.003544345
4918,0.002864651
4919,-0.004431607
4920,-0.025512053
4921,-0.043588217
4922,0.010561035
4923,0.012141718
4924,-0.013641823
4925,0.008097237
4926,-0.012825874
4927,0.010417955
4928,0.019485982
4929,-0.07248395
4930,-0.0037872435
4931,-0.011336717
4932,0.021469625
4933,0.026561888
4934,-0.017468471
4935,-0.00795575
4936,-0.020917423
4937,0.027741656
4938,-0.014940463
4939,-0.06569793
4940,0.013469037
4941,0.016571289
4942,0.0065310765
4943,-0.016424356
4944,0.011284648
4945,-0.0014731603
4946,0.020972507
4947,-0.040755626
4948,0.010123806
4949,-0.006067669
4950,-0.017948538
4951,0.021313349
4952,-0.020787606
4953,0.011315028
4954,-0.002999748
4955,-0.044021934
4956,0.0062246397
4957,0.004127242
4958,-0.02092647
4959,-0.0927348
4960,0.01770306
4961,-0.01809465
4962,0.007205817
4963,0.01062
4964,-0.009281565
4965,-0.0036499659
4966,-0.09266131
4967,-0.022418154
4968,0.012832245
4969,-0.015059636
4970,-0.008738745
4971,-0.047542065
4972,-0.020335415
4973,-0.07729917
4974,0.0021907245
4975,-0.07055734
4976,-0.0154436985
4977,-0.0060911607
4978,0.0057589943
4979,-0.09994206
4980,0.009266254
4981,0.0032053154
4982,0.011688318
4983,0.0038375475
4984,0.012561041
4985,0.008415558
4986,0.010821959
4987,-0.0049706153
4988,-0.020213507
4989,0.025211172
4990,0.011598882
4991,-0.008035482
4992,-0.0136672435
4993,0.014297635
4994,-0.020210328
4995,0.045465272
4996,-0.01834514
4997,0.031123115
4998,0.0045446716
4999,0.019045625
5000,0.018125294
5001,-0.0076660314
5002,-0.00074344326
5003,-0.019212427
5004,-0.012218394
5005,0.0004529084
5006,0.044372637
5007,-0.009219533
5008,-0.023377243
5009,0.014498641
5010,-0.0014238318
5011,0.007099254
5012,0.026509114
5013,-0.011400178
5014,0.015107697
5015,0.13413608
5016,0.052091476
5017,-0.06345208
5018,0.07306331
5019,-0.019833848
5020,-0.022669712
5021,-0.004693326
5022,0.011435771
5023,-0.049622953
5024,-0.040845092
5025,-0.005590962
5026,-0.006133084
5027,-0.009559609
5028,-0.017574606
5029,-0.0061527877
5030,0.02750358
5031,-0.01919238
5032,0.053678215
5033,-0.0077120825
5034,-0.014749508
5035,-0.04071075
5036,0.024432447
5037,-0.03031456
5038,0.008085869
5039,-0.020663211
5040,-0.00798628
5041,0.020298537
5042,0.006987353
5043,0.035680175
5044,-0.06442311
5045,-0.024052804
5046,0.025792398
5047,0.00428996
5048,0.01681149
5049,-0.006270756
5050,0.004798047
5051,-0.017389547
5052,-0.019156074
5053,0.01686803
5054,-0.016144201
5055,-0.0016267061
5056,-0.0035400717
5057,0.0069659264
5058,0.0053247693
5059,-0.056140002
5060,-0.021619903
5061,0.02068917
5062,-0.0011048128
5063,-0.007696932
5064,-0.016133353
5065,-0.004064225
5066,0.04856898
5067,0.0026394636
5068,-0.011056166
5069,0.01002781
5070,0.008880558
5071,0.046451863
5072,-0.0010358162
5073,-0.012118846
5074,-0.025678346
5075,-0.031058932
5076,0.0076481467
5077,0.01803348
5078,0.0022472683
5079,0.020142917
5080,-0.052501168
5081,-0.071957
5082,-0.014823929
5083,0.0077989427
5084,-0.043129716
5085,0.009317329
5086,0.012219823
5087,0.0026424131
5088,-0.018823087
5089,0.0064188065
5090,-0.020643573
5091,-0.020618306
5092,-0.023934705
5093,0.0031715268
5094,0.006788255
5095,0.012817059
5096,0.01637222
5097,0.00974775
5098,0.037028953
5099,-0.026541313
5100,0.004246294
5101,0.010648222
5102,0.005563636
5103,0.011166921
5104,0.029487597
5105,-0.007785074
5106,-0.027250363
5107,-0.0026341386
5108,-0.038468625
5109,9.7445154e-05
5110,-0.00264467
5111,-0.024722423
5112,0.03696309
5113,-0.04529636
5114,-0.003418642
5115,0.002357443
5116,0.025105273
5117,-0.036402863
5118,-0.08034036
5119,-0.01241953
5120,0.046484243
5121,-0.014757859
5122,-0.0010688817
5123,0.050850157
5124,0.048241887
5125,0.0662102
5126,-0.0092904745
5127,-0.08271546
5128,-0.0007432972
5129,-0.027455261
5130,-0.015417327
5131,0.076661855
5132,0.02918614
5133,-0.02077916
5134,-0.034946896
5135,0.024017503
5136,0.0052957158
5137,-0.06121565
5138,-0.029982647
5139,-0.05687177
5140,-0.034420416
5141,0.08549231
5142,0.050750345
5143,0.018055828
5144,0.025697296
5145,0.04327489
5146,-0.014722869
5147,0.0011540833
5148,0.036891334
5149,0.01278902
5150,-0.058082853
5151,0.0034522056
5152,-0.014940452
5153,-0.0009025055
5154,0.021772778
5155,-0.029477205
5156,0.08836676
5157,-0.013311074
5158,-0.0046399147
5159,0.05813813
5160,0.066278644
5161,0.097287394
5162,0.055472657
5163,-0.0030482055
5164,0.03573054
5165,0.047810588
5166,-0.0047314162
5167,-0.00661151
5168,-0.023122534
5169,0.016753318
5170,-0.0051279953
5171,0.0410146
5172,0.0022446522
5173,0.07536705
5174,-0.04660424
5175,0.005771531
5176,-0.053477775
5177,0.005967307
5178,-0.04671831
5179,0.03550852
5180,0.05315357
5181,0.068605624
5182,0.02845638
5183,0.03779254
5184,-0.015973616
5185,-0.013265682
5186,0.008842589
5187,0.049928777
5188,0.03519821
5189,0.066144474
5190,0.04128066
5191,-0.021167224
5192,0.075528316
5193,0.07188124
5194,0.020766692
5195,-0.01112766
5196,-0.004562713
5197,-0.008843468
5198,0.035432585
5199,0.022479888
5200,0.060315553
5201,-0.0031408805
5202,0.003143993
5203,0.0036419276
5204,0.0066493843
5205,-0.065165095
5206,-0.018704426
5207,0.019395547
5208,0.0017907808
5209,0.03932541
5210,-0.013699873
5211,0.00027007656
5212,0.06456402
5213,0.00025603976
5214,-0.0713464
5215,-0.026932357
5216,0.06331572
5217,-0.016908959
5218,0.008260677
5219,0.07507382
5220,0.042248238
5221,0.00029256384
5222,-0.03580912
5223,-0.05613889
5224,0.02700907
5225,-0.04924574
5226,0.008506844
5227,0.020482227
5228,0.016564723
5229,-0.014754975
5230,0.059962943
5231,-0.047394115
5232,0.059508175
5233,0.04730322
5234,0.040989574
5235,-0.0076298555
5236,0.037251715
5237,0.016603947
5238,0.06736179
5239,0.059721906
5240,0.03876542
5241,0.034656584
5242,-0.008713773
5243,-0.010226912
5244,-0.064389914
5245,0.08213772
5246,0.041914668
5247,0.027929215
5248,-0.0079157455
5249,-0.010235643
5250,-0.0063009034
5251,-0.027024852
5252,-0.022995247
5253,-0.017519165
5254,0.0018949793
5255,-0.0061492026
5256,-0.01078072
5257,-0.008592204
5258,0.012139608
5259,0.0026711093
5260,-0.005298643
5261,-0.007074132
5262,-0.010586095
5263,-0.007602022
5264,-0.0029669802
5265,-0.012996818
5266,0.020054396
5267,-0.026417462
5268,-0.016291142
5269,-0.008444444
5270,-0.017902745
5271,-0.0021046167
5272,-0.03493782
5273,-0.019005468
5274,-0.010193347
5275,-0.049240407
5276,-0.019037068
5277,0.0077668778
5278,-0.017088065
5279,-0.032197483
5280,-0.018135678
5281,-0.039948005
5282,-0.015037326
5283,-0.0008040803
5284,0.02099763
5285,-0.003450095
5286,-0.019405447
5287,0.023151826
5288,-0.030441072
5289,-0.014507363
5290,-0.019582672
5291,-0.003956553
5292,-0.017228948
5293,-0.0022617895
5294,-0.001288398
5295,-0.00043927305
5296,-0.00016015668
5297,-0.02309217
5298,0.006834833
5299,-0.03926499
5300,-0.040217422
5301,-0.019045223
5302,-0.013995895
5303,-0.007585324
5304,-0.026514702
5305,0.007510416
5306,-0.001380028
5307,-0.0530536
5308,-0.019248275
5309,-0.028665047
5310,0.0031147255
5311,-0.012432876
5312,-0.010412196
5313,0.0086055705
5314,-0.018257735
5315,-0.006638143
5316,-0.046487197
5317,-0.014079192
5318,-0.0026152418
5319,-0.011661528
5320,0.017546229
5321,-0.012558797
5322,0.009631032
5323,-0.012752281
5324,0.012156138
5325,0.01697614
5326,-0.003835013
5327,-0.027004799
5328,-0.009020932
5329,-0.010090191
5330,-0.009986322
5331,-0.020106168
5332,-0.020641467
5333,-0.023359763
5334,-0.012973388
5335,-0.015513801
5336,-0.04271908
5337,0.0059258887
5338,-0.003740368
5339,0.005209061
5340,-0.013455392
5341,-0.017027453
5342,0.00022622861
5343,-0.0039159493
5344,0.020477882
5345,-0.01729161
5346,-0.03827361
5347,0.01229943
5348,-0.0008611105
5349,-0.026369149
5350,-0.023681272
5351,-0.011409679
5352,-0.021196986
5353,0.002403284
5354,-0.011523034
5355,-0.026356328
5356,-0.009591976
5357,0.0031717627
5358,0.006288277
5359,-0.009885082
5360,-0.044169437
5361,0.017706312
5362,0.0035966812
5363,-0.05120124
5364,-0.009453666
5365,-0.02198538
5366,0.022528794
5367,-0.0144667635
5368,-0.018455256
5369,-0.0068446896
5370,-0.0128505975
5371,-0.0055490667
5372,-0.01296075
5373,0.0054199193
5374,-0.020191185
5375,-0.017911568
5376,0.030397013
5377,-0.0123229
5378,-0.025077887
5379,-0.0036848707
5380,-0.008788015
5381,0.014675885
5382,-0.027056765
5383,-0.038475677
5384,-0.026596008
5385,-0.0030142008
5386,-0.028799132
5387,0.0168485
5388,0.008633693
5389,-0.020346256
5390,0.005428095
5391,-0.022843702
5392,0.014090661
5393,-0.028340824
5394,-0.023635566
5395,-0.022974815
5396,-0.02661366
5397,0.026607245
5398,0.009693228
5399,0.0032609787
5400,0.009290673
5401,0.0032518965
5402,-0.01310597
5403,-0.02944098
5404,-0.014169179
5405,-0.00619415
5406,-0.023116998
5407,-0.035412103
5408,-0.034612354
5409,-0.036352754
5410,0.012674954
5411,-0.0073285177
5412,0.010791575
5413,-0.008576424
5414,-0.010797231
5415,0.0035276138
5416,0.012950596
5417,0.023281712
5418,-0.021941794
5419,-0.034779854
5420,0.0044301855
5421,-0.007956335
5422,-0.008569723
5423,0.011197965
5424,-0.010548161
5425,0.006743196
5426,-0.0074384515
5427,-0.0028003624
5428,-0.013685867
5429,0.014806422
5430,-0.026292946
5431,0.019409891
5432,-0.00077384466
5433,0.030568339
5434,-0.0010126584
5435,-0.024159072
5436,-0.00031191917
5437,0.020790963
5438,-0.015310348
5439,-0.0065808548
5440,0.011252357
5441,-0.03903865
5442,-0.010283453
5443,-1.651133e-05
5444,-0.018817302
5445,0.006915756
5446,0.012729679
5447,0.0034996474
5448,0.03415255
5449,0.0055961604
5450,0.0053627724
5451,-0.011595315
5452,0.0039177793
5453,0.0031293617
5454,0.018021801
5455,-0.01441421
5456,0.02450353
5457,0.00089347875
5458,0.0039698076
5459,-0.02316561
5460,-0.015124339
5461,-0.024721688
5462,0.008654432
5463,0.040352788
5464,-0.004016804
5465,0.0067018457
5466,-0.004115303
5467,-0.022089893
5468,0.003256981
5469,-0.0057048826
5470,-0.024264662
5471,-0.026379475
5472,0.006565168
5473,-0.025872622
5474,-0.036372203
5475,0.028205745
5476,0.005636065
5477,-0.010132154
5478,-0.05546442
5479,-0.020355098
5480,0.0136130685
5481,0.009985639
5482,-0.013418697
5483,-0.0077183545
5484,-0.00019152253
5485,-0.019378185
5486,0.007464511
5487,-0.02965891
5488,0.010069038
5489,-0.018332994
5490,-0.0009086227
5491,-0.027231019
5492,0.0062096664
5493,0.0071837655
5494,0.023476059
5495,-0.006868391
5496,-0.0039406666
5497,0.0048954035
5498,-0.0027447252
5499,0.012623207
5500,-0.02827211
5501,0.007827663
5502,0.012201282
5503,0.0028108875
5504,0.01422743
5505,0.0027885763
5506,0.01436267
5507,-0.0029550192
5508,-0.010238472
5509,0.0075020674
5510,0.0075581726
5511,0.0015110569
5512,0.016287439
5513,0.003061301
5514,-0.0059909974
5515,0.020169342
5516,-0.0015375348
5517,0.0076427963
5518,0.008463179
5519,0.019270105
5520,0.00855284
5521,0.01294159
5522,0.0031414654
5523,0.016784351
5524,-0.0015406642
5525,0.02330035
5526,0.013676215
5527,0.073613964
5528,0.032550335
5529,0.029388448
5530,0.03707211
5531,0.004049749
5532,0.019887209
5533,-0.019327488
5534,0.0068743685
5535,0.005929477
5536,0.018073888
5537,-0.002763432
5538,-0.003853785
5539,-0.0012074339
5540,0.020620253
5541,0.002522694
5542,-0.014723958
5543,0.009097598
5544,0.018931858
5545,0.008673839
5546,0.040542882
5547,0.008022111
5548,0.0065256986
5549,0.024781773
5550,0.006494073
5551,0.0026178604
5552,-0.009486752
5553,-0.016130082
5554,0.0015968397
5555,0.007813983
5556,0.004957698
5557,0.008230198
5558,0.018182365
5559,-0.007964235
5560,0.005460688
5561,0.016773626
5562,0.012432405
5563,-0.0054217987
5564,-0.0026605565
5565,-0.016049474
5566,0.032814004
5567,-0.0055943383
5568,-0.0031031896
5569,-0.015476616
5570,-0.0039896094
5571,0.019461837
5572,-0.019891044
5573,-0.01132797
5574,0.023053221
5575,-0.020337079
5576,-0.011720047
5577,0.020124497
5578,-0.028466614
5579,0.013944108
5580,0.01148296
5581,0.026147328
5582,-0.01868562
5583,-0.023404466
5584,-0.00047000026
5585,-0.008040939
5586,-0.014747761
5587,-0.027560476
5588,-0.010665936
5589,0.01188238
5590,-0.006709603
5591,0.0070670806
5592,-0.004132569
5593,0.04470051
5594,-0.01712016
5595,0.022729665
5596,0.052376833
5597,-0.0042009237
5598,0.01929312
5599,0.005078545
5600,0.018442089
5601,-0.015905034
5602,-0.0065048644
5603,0.010511171
5604,-0.0056123147
5605,-0.017682314
5606,0.0116488505
5607,0.011983666
5608,-0.006199622
5609,-0.011631819
5610,0.001655785
5611,0.024279434
5612,-0.00024175219
5613,-0.0034426022
5614,0.0081741465
5615,0.009969746
5616,-0.011756518
5617,0.007139601
5618,0.017605849
5619,0.01062249
5620,-0.004819808
5621,0.009100564
5622,0.027104566
5623,-0.016595362
5624,-0.0064636567
5625,0.015330215
5626,-0.0029875175
5627,0.016095366
5628,0.01290639
5629,0.038964503
5630,0.039311897
5631,-0.011674285
5632,-0.0099498965
5633,0.004701704
5634,0.0011923292
5635,0.027405553
5636,0.012198764
5637,-0.025510792
5638,0.017112324
5639,0.0069866497
5640,0.01148389
5641,0.0242156
5642,-0.0049451212
5643,0.006957786
5644,0.0022246358
5645,0.008950237
5646,0.02389154
5647,0.008294713
5648,-0.025441337
5649,0.018034775
5650,0.0060843364
5651,0.0018503664
5652,0.008064318
5653,0.0027108027
5654,-0.027688874
5655,0.046102766
5656,0.037172705
5657,0.024500946
5658,0.011257465
5659,0.012118073
5660,0.025646979
5661,-0.012173814
5662,0.010026039
5663,-0.0028296695
5664,0.005374173
5665,0.027730115
5666,-0.034114186
5667,0.0079405075
5668,0.019267974
5669,0.0005455537
5670,-0.01502193
5671,0.036052942
5672,0.0069877347
5673,-0.00530232
5674,0.018692743
5675,0.00712602
5676,-0.01111851
5677,0.005593872
5678,-0.014453613
5679,-0.0201525
5680,-0.005200965
5681,0.013787054
5682,-0.007942554
5683,0.0014182813
5684,0.018055903
5685,0.046970025
5686,0.0019356947
5687,-0.001460345
5688,0.00638348
5689,-0.0031178403
5690,0.0040839976
5691,0.022874514
5692,-0.0241635
5693,-0.034476038
5694,0.01048131
5695,-0.0127244685
5696,-0.009151172
5697,-0.0019458483
5698,-0.006542506
5699,0.016813755
5700,0.036452208
5701,0.023583347
5702,0.023151431
5703,-0.0075890203
5704,0.009459229
5705,0.0108762635
5706,-0.0020296408
5707,0.010515449
5708,0.014660124
5709,0.024546335
5710,0.012124385
5711,0.021053264
5712,0.012260954
5713,-0.017836267
5714,0.0020506487
5715,0.015868416
5716,0.0196204
5717,0.019535622
5718,-0.015139262
5719,-0.041782796
5720,0.0017698432
5721,0.021973692
5722,-0.00017860686
5723,0.029509412
5724,0.03657675
5725,0.010683848
5726,0.0049314033
5727,0.014412209
5728,0.022177873
5729,-0.017363211
5730,0.003537404
5731,0.030968659
5732,0.038687747
5733,0.010812552
5734,0.006647594
5735,0.017127607
5736,0.012115845
5737,0.0028891528
5738,0.008090433
5739,0.022098562
5740,-0.010836193
5741,-0.0026184362
